tree
version=v4
num_class=1
num_tree_per_iteration=1
label_index=0
max_feature_idx=11
objective=binary sigmoid:1
feature_names=activity_len actions_0 actions_2 actions_3 unique_items unique_categories unique_brands day_span has_1111 age_range gender merchant_freq
feature_infos=[0:37] [0:771] [0:10] [0:59] [0:504] [0:30] [0:13] [0:184] none -1:3:0:4:2:5:6:7:8 -1:0:1:2 [13:3379]
tree_sizes=1763 2012 2028 2009 1979 2004 2017 2018 1979 2023 2014 1996 2009 2043 1992 2048 2019 2040 1993 2030 1971 2037 2029 1957 1969 2027 1992 1916 2005 1917 1948 1911 1928 1918 1982 1975 1968 1910 1996 1831 1811 1839 1918 1907 1948 1880 1817 1822 1986 1845 1951 1860 1895 1975 1791 1854 1909 1980 1958 1865 1930 1915 1831 1945 1972

Tree=0
num_leaves=18
num_cat=3
split_feature=4 4 7 7 1 11 11 4 9 11 11 5 10 0 9 5 7
split_gain=556.082 111.386 65.4131 33.7343 33.5911 27.0431 29.5744 19.5075 17.349 13.6498 22.169 12.0973 10.8938 10.0341 8.83031 5.98087 5.94971
threshold=5.5000000000000009 1.5000000000000002 10.500000000000002 11.500000000000002 1.5000000000000002 593.50000000000011 1224.5000000000002 16.500000000000004 0 698.50000000000011 866.50000000000011 2.5000000000000004 1 27.500000000000004 2 3.5000000000000004 40.500000000000007
decision_type=2 2 2 2 2 2 2 2 9 2 2 2 1 2 9 2 2
left_child=1 5 11 4 -3 12 9 -4 15 -7 14 -2 -1 -13 -11 -6 -14
right_child=2 3 7 -5 8 6 -8 -9 -10 10 -12 13 16 -15 -16 -17 -18
leaf_value=-0.0543571201528565 0.020321535398507527 0.059248877346332531 0.091310473152528243 0.040460531094135097 -0.047099682770208297 0.046593016257708945 -0.081809092660782262 0.16033817388129412 -0.0060707755109721609 0 0.016374969660332049 0.043118235646397614 -0.090752559217252948 0.098496262889524358 -0.087625565477908993 0.018651612664544515 0
leaf_weight=861.75 247.5 121 337 314.25 457 88.5 137.75 237.5 869.75 54 158.75 277.25 449.75 170 80 14.999999999999998 4.7499999999999991
leaf_count=3447 990 484 1348 1257 1828 354 551 950 3479 216 635 1109 1799 680 320 60 19
internal_value=0 -0.0297701 0.0844586 -0.00280757 -0.0126741 -0.0554289 -0.0242614 0.122362 -0.0198815 -0.000827619 -0.0179918 0.0513912 -0.0670588 0.0666481 -0.0622436 -0.0425547 -0.0886867
internal_weight=4881.5 3612.25 1269.25 1777 1462.75 1835.25 519 574.5 1341.75 381.25 292.75 694.75 1316.25 447.25 134 472 454.5
internal_count=19526 14449 5077 7108 5851 7341 2076 2298 5367 1525 1171 2779 5265 1789 536 1888 1818
cat_boundaries=0 1 2 3
cat_threshold=12 1 52
is_linear=0
shrinkage=0.148754


Tree=1
num_leaves=18
num_cat=4
split_feature=4 4 7 7 1 11 11 9 4 11 11 0 9 9 10 4 11
split_gain=409.443 81.9854 47.5541 24.5146 24.7752 18.9361 21.6194 12.2998 11.8778 10.4626 13.9016 9.44845 8.37201 7.88786 7.84172 5.87038 5.60618
threshold=5.5000000000000009 1.5000000000000002 9.5000000000000018 11.500000000000002 1.5000000000000002 593.50000000000011 1224.5000000000002 0 16.500000000000004 674.00000000000011 866.50000000000011 27.500000000000004 1 2 3 2.5000000000000004 479.50000000000006
decision_type=2 2 2 2 2 2 2 9 2 2 2 2 9 9 1 2 2
left_child=1 5 11 4 -3 13 9 -6 -4 -7 12 -2 -11 14 -1 -9 -17
right_child=2 3 8 -5 7 6 -8 15 -10 10 -12 -13 -14 -15 -16 16 -18
leaf_value=-0.05388526792096849 0.028104463774025389 0.050908512732852629 0.079113709830194751 0.034572602873359892 -0.036101192659147276 0.048622223384981171 -0.070281017369100141 -0.020021994959247121 0.1352580406461131 0 0.014031345972926289 0.071048637848200924 -0.071150617958173942 -0.035566373668606273 -0.093107896685006977 -0.0078941242105643947 0.022450822026664926
leaf_weight=539.8511211425066 458.10555475950241 120.89387303590775 354.03551158308983 314.12143206596375 471.74534261226654 65.96419358253479 137.51977646350861 357.7466948479414 240.47092969715595 69.48849806189537 158.73935498297215 213.85059423744678 86.8459253013134 492.91205030679703 281.92581133544445 292.99729305505753 218.9979767203331
leaf_count=2161 1833 484 1419 1257 1888 264 551 1431 968 278 635 857 348 1974 1130 1172 876
internal_value=0 -0.025438 0.0726672 -0.00225421 -0.0107169 -0.0474698 -0.0210087 -0.016958 0.104057 -0.000719216 -0.0137976 0.0432473 -0.0454904 -0.0572705 -0.0678962 -0.00518426 0.00395121
internal_weight=4876.21 3609.75 1266.46 1776.5 1462.38 1833.25 518.558 1341.49 594.506 381.038 315.074 671.956 156.334 1314.69 821.777 869.742 511.995
internal_count=19526 14449 5077 7108 5851 7341 2076 5367 2387 1525 1261 2690 626 5265 3291 3479 2048
cat_boundaries=0 1 2 3 4
cat_threshold=12 180 13 1
is_linear=0
shrinkage=0.148754


Tree=2
num_leaves=18
num_cat=1
split_feature=2 7 2 4 4 7 11 11 11 11 11 11 9 11 11 5 11
split_gain=369.159 135.317 48.1315 30.6093 28.1387 20.0445 14.2711 40.81 13.5206 22.3025 10.4226 8.75627 7.34434 7.29952 13.8322 7.29708 6.28907
threshold=1.5000000000000002 9.5000000000000018 2.5000000000000004 7.5000000000000009 5.5000000000000009 10.500000000000002 598.50000000000011 674.00000000000011 1224.5000000000002 866.50000000000011 2898.0000000000005 17.500000000000004 0 1207.0000000000002 991.00000000000011 1.5000000000000002 497.00000000000006
decision_type=2 2 2 2 2 2 2 2 2 2 2 2 9 2 2 2 2
left_child=1 3 5 6 16 -2 11 -8 9 -9 15 -1 -13 14 -11 -10 -3
right_child=2 4 -4 -5 -6 -7 7 8 10 13 -12 12 -14 -15 -16 -17 -18
leaf_value=0.032825758103372786 0.028283803730864483 -0.011397234700647765 0.10632499814695306 0.016364155424607993 0.066942594935883379 0.087913649347728676 0.063432274348631371 -0.051154596581100283 -0.096238822394391646 0.040028879196126688 0 -0.059774502594876842 -0.034421013768236038 0.079540179894999896 -0.033599450500415289 -0.017250519673200265 0.026315555698720985
leaf_weight=14.703506678342817 587.79489158093929 195.38991703093052 491.4436352699995 192.26158994436264 317.20914863049984 183.44456879794598 93.09778618812561 241.97183826565742 153.35235942900181 100.20547598600388 40.873211413621902 1150.2877939641476 736.0093210041523 23.734799683094025 113.9476253837347 60.698290959000587 167.24351260066032
leaf_count=59 2356 783 1978 771 1284 741 373 970 616 401 164 4617 2949 95 456 243 670
internal_value=0 -0.0241907 0.0690954 -0.038199 0.0348602 0.0438845 -0.0423078 -0.024144 -0.0365486 -0.0194351 -0.0650651 -0.0497754 -0.0508658 0.0106594 0 -0.077887 0.00439281
internal_weight=4863.67 3600.99 1262.68 2921.14 679.843 771.239 2728.88 827.881 734.784 479.86 254.924 1901 1886.3 237.888 214.153 214.051 362.633
internal_count=19526 14451 5075 11714 2737 3097 10943 3318 2945 1922 1023 7625 7566 952 857 859 1453
cat_boundaries=0 1
cat_threshold=13
is_linear=0
shrinkage=0.148754


Tree=3
num_leaves=18
num_cat=0
split_feature=2 7 4 2 11 11 7 11 11 5 11 11 11 11 11 11 4
split_gain=271.025 99.543 36.4061 35.039 17.1154 29.8419 14.808 10.3573 27.2917 11.2021 7.50506 7.11571 9.98169 6.68179 6.44796 13.3286 6.34763
threshold=1.5000000000000002 24.500000000000004 7.5000000000000009 2.5000000000000004 588.00000000000011 698.50000000000011 10.500000000000002 1224.5000000000002 822.50000000000011 1.5000000000000002 17.500000000000004 1207.0000000000002 991.00000000000011 562.00000000000011 605.50000000000011 620.00000000000011 17.500000000000004
decision_type=2 2 2 2 2 2 2 2 2 2 2 2 2 2 2 2 2
left_child=1 2 4 6 10 14 -2 8 -7 -9 -1 12 -10 -4 -6 -16 -3
right_child=3 16 13 -5 5 7 -8 9 11 -11 -12 -13 -14 -15 15 -17 -18
leaf_value=0.032693657614805152 0.024127574380833024 0.031525503797027891 0 0.091534124742089537 0 -0.061212692872427178 0.07601210745266547 -0.074000806100943492 0.027266871738376372 -0.0025894782058463136 -0.043680931848358771 0.077637618337179373 -0.027772108398651876 0.046513079203728727 0.15658697688346357 0.021969273751537993 0.084834970364499607
leaf_weight=14.972750142216681 587.62575747072697 359.99280665814877 112.81606434285641 487.25962400436401 38.601532772183418 169.45017828047276 181.71326585114002 182.7784931063652 158.38393688201904 92.357371792197227 1984.487217694521 26.183235511183739 121.92148597538471 125.71539314091206 20.158244952559471 97.705147296190262 85.170624256134033
leaf_count=60 2356 1451 454 1978 155 681 741 739 635 370 7982 105 488 506 81 392 352
internal_value=2.61096e-05 -0.0206555 -0.0301046 0.0594468 -0.0347826 -0.0164878 0.0377237 -0.0293074 -0.0138191 -0.0529102 -0.0426878 0.0110085 0.000988673 0.0237039 0.0398516 0.0568561 0.0441785
internal_weight=4847.29 3590.69 3145.53 1256.6 2907 907.54 769.339 751.075 475.939 275.136 1999.46 306.489 280.305 238.531 156.465 117.863 445.163
internal_count=19526 14451 12648 5075 11688 3646 3097 3018 1909 1109 8042 1228 1123 960 628 473 1803
is_linear=0
shrinkage=0.148754


Tree=4
num_leaves=18
num_cat=4
split_feature=2 7 7 4 4 1 2 9 10 11 11 0 5 9 9 11 5
split_gain=198.648 76.521 27.635 18.215 16.8882 15.1795 14.1492 7.85622 6.65827 5.97822 7.38473 6.20924 5.12165 4.47926 3.95555 3.52472 3.31459
threshold=1.5000000000000002 9.5000000000000018 10.500000000000002 3.5000000000000004 5.5000000000000009 1.0000000180025095e-35 2.5000000000000004 0 1 562.00000000000011 354.50000000000006 6.5000000000000009 3.5000000000000004 2 3 850.50000000000011 6.5000000000000009
decision_type=2 2 2 2 2 2 2 9 1 2 2 2 2 9 9 2 2
left_child=1 3 6 5 14 -1 9 -7 -8 10 -2 -11 13 -5 -3 -13 -4
right_child=2 4 16 12 -6 7 8 -9 -10 11 -12 15 -14 -15 -16 -17 -18
leaf_value=-0.0058691869037687241 0.019100998750880963 0.031671716429885866 0.068126829108886608 0 0.052110607180242359 -0.021083524701857606 0 -0.04629259676366268 0.066560199961855665 0.075196992915216074 -0.029367290049738665 0.042709178566406263 0.020528547883193356 -0.029974079646217656 -0.003295122409932624 0 0.12503910088273035
leaf_weight=409.62062653899193 266.62082195281982 71.052171990275383 218.51267769932747 271.10429179668427 312.47560784220695 581.63343423604965 16.915246888995171 1348.8999257236719 324.27633003890514 76.256516799330711 81.03641876578331 60.56911201775074 132.84015643596649 159.98302046954632 291.06275735795498 102.81413306295872 101.52380725741386
leaf_count=1657 1069 285 901 1087 1284 2341 69 5452 1321 306 325 243 534 643 1168 413 428
internal_value=0.000188641 -0.017507 0.0512616 -0.0280944 0.0269631 -0.0338954 0.0366452 -0.0394706 0.0615662 0.0205882 0.00566141 0.0389275 -0.00278166 -0.0116313 0.00299788 0.0160646 0.0901884
internal_weight=4827.2 3578.67 1248.53 2904.08 674.591 2340.15 928.489 1930.53 341.192 587.297 347.657 239.64 563.927 431.087 362.115 163.383 320.036
internal_count=19526 14451 5075 11714 2737 9450 3746 7793 1390 2356 1394 962 2264 1730 1453 656 1329
cat_boundaries=0 1 2 3 4
cat_threshold=432 4 113 96
is_linear=0
shrinkage=0.148754


Tree=5
num_leaves=18
num_cat=3
split_feature=2 7 11 11 7 4 2 5 11 11 5 9 11 11 10 9 1
split_gain=147.792 56.6279 21.6053 22.4151 21.2544 12.9713 9.96384 8.48748 7.15892 18.0066 10.4179 7.04224 6.02888 9.30521 5.35331 5.13142 4.71316
threshold=1.5000000000000002 24.500000000000004 588.00000000000011 698.50000000000011 10.500000000000002 8.5000000000000018 2.5000000000000004 2.5000000000000004 822.50000000000011 1224.5000000000002 1.5000000000000002 0 1207.0000000000002 1180.5000000000002 1 2 1.0000000180025095e-35
decision_type=2 2 2 2 2 2 2 2 2 2 2 9 2 2 1 9 2
left_child=1 2 7 -4 6 8 -2 11 -5 12 -11 -1 13 -10 -8 -3 -13
right_child=4 15 3 5 -6 -7 14 -9 9 10 -12 16 -14 -15 -16 -17 -18
leaf_value=-0.0037884195549484057 0.017841184299180253 0.0065370252510688742 0.044106412041894749 -0.048504506251293121 0.079165950067318636 0.034026155442148862 0 0 0.012683375080777564 -0.059783725574439492 0 -0.013070423631485978 0.072985230245345672 -0.075301336686002043 0.057424115943538072 0.046732868566139243 -0.040496933211160588
leaf_weight=221.00536419451237 586.79290999472141 171.43345321714878 168.03203554451466 172.4692160487175 314.15960425138474 94.259677201509476 16.915246888995171 168.14553008973598 263.28192041814327 180.77395442128181 99.452769801020622 242.74724069237709 26.345476016402245 22.703817471861839 321.19539812207222 269.12735389173031 1468.6810054183006
leaf_count=890 2356 701 676 698 1329 382 69 677 1056 740 399 983 106 91 1321 1102 5950
internal_value=0.000242743 -0.0149966 -0.0221626 -0.00372593 0.044507 -0.0140743 0.0315932 -0.0308352 -0.0210639 -0.0115796 -0.0390912 -0.0336178 0.0113546 0.00204169 0.0528342 0.0340374 -0.0368296
internal_weight=4807.52 3568.46 3127.9 1027.32 1239.06 859.287 924.904 2100.58 765.027 592.558 280.227 1932.43 312.331 285.986 338.111 440.561 1711.43
internal_count=19526 14451 12648 4148 5075 3472 3746 8500 3090 2392 1139 7823 1253 1147 1390 1803 6933
cat_boundaries=0 1 2 3
cat_threshold=416 4 140
is_linear=0
shrinkage=0.148754


Tree=6
num_leaves=18
num_cat=2
split_feature=5 2 0 11 11 11 11 9 2 6 11 11 11 11 7 11 9
split_gain=113.715 43.0677 18.1772 13.9229 31.8585 8.41372 16.3117 8.26442 7.76271 7.44416 5.72355 5.96947 11.3133 5.52535 5.5121 5.48941 5.04204
threshold=2.5000000000000004 1.5000000000000002 36.500000000000007 605.50000000000011 620.00000000000011 1224.5000000000002 1207.0000000000002 0 1.5000000000000002 1.5000000000000002 1180.5000000000002 866.50000000000011 698.50000000000011 986.50000000000011 15.500000000000002 1602.0000000000002 1
decision_type=2 2 2 2 2 2 2 9 2 2 2 2 2 2 2 2 9
left_child=1 3 8 7 -5 6 10 -1 14 15 11 12 -6 -13 -2 -7 -14
right_child=2 -3 -4 4 5 9 -8 -9 -10 -11 -12 13 16 -15 -16 -17 -18
leaf_value=-0.010375873937186792 0 0.021919518237202611 0.075398447805892652 0.14595288094287009 0.020823813710404166 -0.058967832895885322 0.090376749016959537 -0.03312036223768796 0.044656935050325759 0.034781313238041942 -0.068006367102229265 0.040771241059600817 -0.044296382429464168 -0.0010205677023444311 0.033320686066260985 -0.0070383465828982791 0
leaf_weight=643.98089651763439 269.75671693682671 646.54731418192387 284.58411847054958 23.738204538822174 108.60011546313763 142.31063652038574 35.252695739269257 1442.5447579324245 398.89512264728546 20.007925793528557 25.801890566945076 102.19535663723946 181.29492382705212 120.38756474852562 171.25981551408768 113.31968261301517 55.018048405647278
leaf_count=2599 1086 2624 1222 97 437 585 143 5875 1653 82 104 410 737 483 705 462 222
internal_value=0.000280746 -0.0123 0.0416544 -0.0198832 -0.00385837 -0.00946526 0 -0.0266686 0.0289902 -0.0308227 -0.00613027 -0.0014883 -0.0146491 0.0159254 0.0129533 -0.0391256 -0.0337314
internal_weight=4785.5 3661 1124.5 3014.45 927.927 904.189 628.551 2086.53 839.912 275.638 593.298 567.496 344.913 222.583 441.017 255.63 236.313
internal_count=19526 14860 4666 12236 3762 3665 2536 8474 3444 1129 2393 2289 1396 893 1791 1047 959
cat_boundaries=0 1 2
cat_threshold=432 89
is_linear=0
shrinkage=0.148754


Tree=7
num_leaves=18
num_cat=1
split_feature=4 2 5 7 11 11 4 11 11 1 11 9 7 11 1 11 7
split_gain=84.5209 35.5891 13.5467 11.4673 8.9622 11.3717 8.58935 7.59793 7.05703 7.71564 7.2291 6.75729 6.3477 6.05456 5.29918 5.23694 5.00275
threshold=6.5000000000000009 1.5000000000000002 6.5000000000000009 24.500000000000004 479.50000000000006 986.50000000000011 13.500000000000002 323.50000000000006 264.00000000000006 10.500000000000002 254.50000000000003 0 4.5000000000000009 1343.5000000000002 1.0000000180025095e-35 17.500000000000004 1.5000000000000002
decision_type=2 2 2 2 2 2 2 2 2 2 2 9 2 2 2 2 2
left_child=1 3 11 7 -3 -6 -4 8 10 -10 15 -2 -13 14 -9 -1 -16
right_child=2 4 6 -5 5 -7 -8 13 9 -11 -12 12 -14 -15 16 -17 -18
leaf_value=0.038272229419582388 0 0.0027593351199454298 0 0.013114166355865636 0.058408627033710754 0 0.080239501524902168 0.016093970578394609 -0.081116759578722469 0.00094318422119158123 0.046960106760137711 0.013627238178036776 0.050777962306105387 -0.033748989197612142 -0.017246396241500296 -0.026480514768711185 0.0056018000624016
leaf_weight=14.926749482750891 210.84880891442299 384.638797134161 46.303638070821762 228.84538070857525 206.15167838335037 103.07270221412182 221.56118297576904 182.43793405592442 97.193526610732079 13.617754086852072 19.887168779969215 252.54483523964882 295.49101254343987 214.35408242046833 678.62623216211796 1343.3656269609928 250.89874377846718
leaf_count=60 873 1560 194 924 841 420 972 741 396 55 81 1030 1245 880 2760 5478 1016
internal_value=0.000308649 -0.00994769 0.03811 -0.0169909 0.0199068 0.0387153 0.068242 -0.0196905 -0.0272737 -0.0659911 -0.0234132 0.0261643 0.0345438 -0.0106051 -0.0054038 -0.0251252 -0.0103922
internal_weight=4764.77 3738.02 1026.75 3044.15 693.863 309.224 267.865 2815.31 1488.99 110.811 1378.18 758.885 548.036 1326.32 1111.96 1358.29 929.525
internal_count=19526 15212 4314 12391 2821 1261 1166 11467 6070 451 5619 3148 2275 5397 4517 5538 3776
cat_boundaries=0 1
cat_threshold=136
is_linear=0
shrinkage=0.148754


Tree=8
num_leaves=18
num_cat=6
split_feature=4 2 7 2 1 7 9 7 9 5 7 7 10 7 9 10 9
split_gain=66.4861 24.4208 12.7432 11.1265 8.26657 5.98359 5.44898 4.15621 3.62274 4.15281 3.1092 3.04971 2.74637 2.6864 2.61893 2.56481 4.52172
threshold=2.5000000000000004 2.5000000000000004 9.5000000000000018 1.5000000000000002 1.0000000180025095e-35 2.5000000000000004 0 77.500000000000014 1 3.5000000000000004 143.50000000000003 9.5000000000000018 2 117.50000000000001 3 4 5
decision_type=2 2 2 2 2 2 9 2 9 2 2 2 1 2 9 1 9
left_child=3 2 8 4 14 12 7 -6 9 -2 13 -8 -3 -4 -1 -5 -17
right_child=1 5 10 15 6 -7 11 -9 -10 -11 -12 -13 -14 -15 -16 16 -18
leaf_value=-0.010767441389034653 -0.01817818936526969 -0.0073834500492531378 0.024661550633980817 0.018916827125215949 -0.038734750363522544 0.07293480017853618 -0.018925948886893956 0.017868451894103122 0.007972404496161838 0.013891245663496875 0.053014184142038914 0.0021754136935940522 0.033572444679744816 0 0.012063219521757675 0.01875623479558286 -0.035643190800385048
leaf_weight=232.87852637469769 319.5730863660574 12.115987539291382 458.24683123826981 214.7085842192173 623.52721486985683 200.65051294863224 1067.3258402049541 10.69741579890251 729.33892692625523 95.595082059502602 120.64729641377926 112.93619810044765 204.16802963614464 69.237620532512665 183.62506204843521 40.862469032406807 50.200600206851959
leaf_count=952 1295 50 1919 868 2566 891 4370 43 2943 388 517 455 861 294 747 165 202
internal_value=0.000447904 0.0194152 0.0113193 -0.0158259 -0.0195663 0.0520235 -0.0238933 -0.0360449 0.00124774 -0.00895232 0.0279367 -0.0162245 0.0282318 0.0204425 0 0.00923991 -0.0066827
internal_weight=4746.34 2209.57 1792.64 2536.76 2230.99 416.935 1814.49 634.225 1144.51 415.168 648.132 1180.26 216.284 527.484 416.504 305.772 91.0631
internal_count=19526 9158 7356 10368 9133 1802 7434 2609 4626 1683 2730 4825 911 2213 1699 1235 367
cat_boundaries=0 1 2 3 4 5 6
cat_threshold=5 12 4 41 1 112
is_linear=0
shrinkage=0.148754


Tree=9
num_leaves=18
num_cat=2
split_feature=5 2 5 11 11 1 9 11 11 3 1 10 7 11 0 11 2
split_gain=50.9775 17.5918 9.63046 8.34235 24.4929 5.88334 5.71431 4.56801 10.8891 4.56568 4.66956 3.43479 4.48422 3.80266 3.8902 3.77293 3.33757
threshold=2.5000000000000004 1.5000000000000002 6.5000000000000009 605.50000000000011 620.00000000000011 18.500000000000004 0 1224.5000000000002 1207.0000000000002 1.0000000180025095e-35 6.5000000000000009 1 84.500000000000014 54.500000000000007 2.5000000000000004 483.00000000000006 2.5000000000000004
decision_type=2 2 2 2 2 2 9 2 2 2 2 1 2 2 2 2 2
left_child=1 3 16 6 -5 7 -1 8 9 -6 -11 12 -8 -13 15 -15 -2
right_child=2 -3 -4 4 5 -7 11 -9 -10 10 -12 13 -14 14 -16 -17 -18
leaf_value=0.0014149548707353744 0.012503559863857209 0.013892489995307972 0.054886432366738291 0.13262437103860863 0 0.040825246249978714 -0.035071711821545982 -0.025228113004145118 0.075981138320910954 0 -0.07390678379822721 0 0.023865330760240437 -0.011224768451793271 -0.025344508485562692 0.034647789964045481 0.038243601459782457
leaf_weight=240.62427920103073 647.54852198064327 641.85338133573532 259.00967156887054 23.187012568116188 467.77933409810066 46.724791496992111 524.56137503683567 258.53205993771553 31.234298035502434 58.093309953808784 35.827984273433685 266.40253189206123 12.793612986803053 234.41884936392307 750.31997460126877 38.842798709869385 191.41408307850361
leaf_count=974 2670 2624 1166 97 1894 191 2166 1072 128 235 145 1092 52 961 3071 158 830
internal_value=0.000477856 -0.00788186 0.0285997 -0.0127919 -0.000284185 -0.00531252 -0.0180356 -0.00887377 -0.000477602 -0.0066477 -0.0354961 -0.0208396 -0.0322242 -0.0156284 -0.0197268 -0.00176959 0.0193776
internal_weight=4729.17 3631.2 1097.97 2989.34 921.379 898.192 2067.96 851.467 592.935 561.701 93.9213 1827.34 537.355 1289.98 1023.58 273.262 838.963
internal_count=19526 14860 4666 12236 3762 3665 8474 3474 2402 2274 380 7500 2218 5282 4190 1119 3500
cat_boundaries=0 1 2
cat_threshold=416 2
is_linear=0
shrinkage=0.148754


Tree=10
num_leaves=18
num_cat=2
split_feature=4 2 7 5 11 11 9 11 11 10 11 7 4 11 11 11 11
split_gain=39.6967 16.5334 7.3904 6.48394 6.23531 11.1249 5.4598 4.2963 4.02389 3.96548 3.47626 3.2794 3.27222 3.27018 7.69083 3.05959 4.32555
threshold=8.5000000000000018 1.5000000000000002 8.5000000000000018 5.5000000000000009 479.50000000000006 1132.5000000000002 0 354.50000000000006 822.50000000000011 1 2898.0000000000005 83.500000000000014 12.500000000000002 562.00000000000011 94.500000000000014 1458.5000000000002 866.50000000000011
decision_type=2 2 2 2 2 2 9 2 2 1 2 2 2 2 2 2 2
left_child=1 2 6 12 7 -6 9 -3 -4 -1 15 -10 13 14 -2 16 -8
right_child=3 4 8 -5 5 -7 10 -9 11 -11 -12 -13 -14 -15 -16 -17 -18
leaf_value=0.037652762846741426 0.062367131890515619 0.0074212180764730027 -0.0017128642260419037 0.048125440996683672 0.044450773306379171 -0.0087570053282039692 -0.019835618114180956 -0.033401205405619 0.039664480789783144 -0.0055857979403810768 0.020989079301900328 0 0 0.048004479603472143 -0.013026325082100958 -0.048788557432516137 0.0001085908934872729
leaf_weight=41.543963253498077 34.314314633607864 372.094562292099 338.9696890860796 333.12980160117149 257.03270047903061 100.10411913692951 1500.2940408885479 60.360611140727997 105.65311458706856 794.11673092842102 28.832702547311783 41.995979472994804 204.18549534678459 108.69968384504318 88.02222728729248 92.730014234781265 210.47228281199932
leaf_count=169 142 1523 1375 1507 1065 412 6200 247 430 3228 118 172 876 453 366 387 856
internal_value=0.000525596 -0.00537306 -0.0103074 0.031441 0.0134558 0.0278628 -0.0134532 0 0.005581 -0.00237972 -0.018016 0.0259235 0.0167114 0.0287209 0.00507405 -0.0191658 -0.017014
internal_weight=4712.55 3944.2 3154.61 768.352 789.592 357.137 2667.99 432.455 486.619 835.661 1832.33 147.649 435.222 231.036 122.337 1803.5 1710.77
internal_count=19526 16182 12935 3344 3247 1477 10958 1770 1977 3397 7561 602 1837 961 508 7443 7056
cat_boundaries=0 1 2
cat_threshold=432 4
is_linear=0
shrinkage=0.148754


Tree=11
num_leaves=18
num_cat=3
split_feature=4 2 9 9 1 11 1 1 5 11 4 11 2 11 10 11 11
split_gain=31.3664 12.1606 6.00842 4.96481 6.37722 6.44764 4.3271 4.14142 3.4323 4.23869 4.25627 3.35774 2.86373 2.77455 2.76609 2.74666 4.91227
threshold=2.5000000000000004 2.5000000000000004 0 1 1.0000000180025095e-35 777.00000000000011 3.5000000000000004 24.500000000000004 1.5000000000000002 60.500000000000007 8.5000000000000018 107.50000000000001 1.5000000000000002 174.00000000000003 2 698.50000000000011 598.50000000000011
decision_type=2 2 9 9 2 2 2 2 2 2 2 2 2 2 1 2 2
left_child=3 2 -2 4 -1 15 -4 8 13 -10 -11 -3 -5 -8 -13 16 -6
right_child=1 11 6 12 5 -7 7 -9 9 10 -12 14 -14 -15 -16 -17 -18
leaf_value=0.0015668835858132202 0.018095800263717259 0 0.038029819170651527 -0.0054246989963263412 -0.025697587062125493 0 -0.013947427187173263 0.016059063831309839 0.018900274061031841 -0.027335533429635048 4.105383888915015e-05 0 0.016834184183690801 0.016805468635773729 0.046872888836284321 -0.064678917711867401 0.01343213468000244
leaf_weight=294.49890685081482 726.70944181084633 72.561906650662422 57.673712998628616 862.03917767107487 885.90531200170517 233.77504986524582 75.183229848742485 199.58778864145279 52.021932899951935 366.16431818902493 120.78889399766922 16.235757350921631 136.88878419995308 179.52843032777309 314.07514931261539 53.299503326416016 50.914373561739922
leaf_count=1210 3008 319 236 3521 3691 962 306 866 212 1491 504 71 556 733 1412 222 206
internal_value=0.000512114 0.0136819 0.00786383 -0.0106452 -0.0160055 -0.020876 0 -0.00184469 -0.00724416 -0.014272 -0.0193188 0.0372673 -0.00163051 0.00513568 0.0436939 -0.0261011 -0.0228116
internal_weight=4697.85 2180.53 1777.66 2517.32 1518.39 1223.89 1050.95 993.275 793.687 538.975 486.953 402.873 998.928 254.712 330.311 990.119 936.82
internal_count=19526 9158 7356 10368 6291 5081 4348 4112 3246 2207 1995 1802 4077 1039 1483 4119 3897
cat_boundaries=0 1 2 3
cat_threshold=353 13 4
is_linear=0
shrinkage=0.148754


Tree=12
num_leaves=18
num_cat=3
split_feature=5 4 7 0 9 11 11 11 3 5 0 9 2 0 11 11 10
split_gain=24.0058 8.02044 6.2667 4.31849 4.20929 3.9832 6.13387 4.68488 3.82113 3.48276 3.32908 3.47061 3.18885 2.88171 2.82503 5.96539 5.64003
threshold=2.5000000000000004 1.5000000000000002 9.5000000000000018 1.5000000000000002 0 562.00000000000011 689.50000000000011 354.50000000000006 1.5000000000000002 4.5000000000000009 19.500000000000004 1 4.5000000000000009 15.500000000000002 1132.5000000000002 827.50000000000011 2
decision_type=2 2 2 2 9 2 2 2 2 2 2 9 2 2 2 2 1
left_child=1 3 5 -1 -3 7 -7 9 12 -2 13 -12 -9 -4 15 -6 -17
right_child=2 4 10 -5 14 6 -8 8 -10 -11 11 -13 -14 -15 -16 16 -18
leaf_value=0.00071069230317939139 0.020491544937667056 -0.0077028095209639401 0.02397074359811658 -0.015994186744784884 0.0053245311296158315 0.075492272386420506 0.0087359873993437843 -0.061977612102247795 0.012192737621927531 -0.014604783783020688 0.0051353708730195432 0.053866957561639124 0 -0.011311954385822628 -0.0091558693560469182 0 0.060745218408976641
leaf_weight=355.20654611289501 158.73985643684864 640.87576334178448 134.65252022445202 1416.895195633173 925.13481612503529 36.591660410165787 250.45086008310318 58.370437398552895 7.6133946627378455 76.093696221709251 91.260845616459846 211.08167913556099 6.018792897462844 47.290611371397972 160.38582663238049 23.716309055685997 85.277865916490555
leaf_count=1457 652 2635 567 5884 3779 155 1052 240 33 324 422 990 27 204 658 97 350
internal_value=0.000554101 -0.00512943 0.0200878 -0.0122915 0.00145284 0.00820754 0.0208614 -0.00174358 -0.0348373 0.0063549 0.033052 0.0435621 -0.0501367 0.0112944 0.00692406 0.0101453 0.0429715
internal_weight=4685.66 3607.49 1078.16 1772.1 1835.39 593.879 287.043 306.836 72.0026 234.834 484.286 302.343 64.3892 181.943 1194.51 1034.13 108.994
internal_count=19526 14860 4666 7341 7519 2483 1207 1276 300 976 2183 1412 267 771 4884 4226 447
cat_boundaries=0 1 2 3
cat_threshold=12 136 2
is_linear=0
shrinkage=0.148754


Tree=13
num_leaves=18
num_cat=3
split_feature=4 4 1 7 0 0 7 1 9 1 11 10 11 7 9 7 11
split_gain=19.1408 7.00818 6.62886 5.20994 6.60133 4.67886 6.46013 4.3698 3.28284 6.19373 4.15864 4.24565 3.81835 3.21174 3.16277 6.22545 3.76223
threshold=8.5000000000000018 1.5000000000000002 3.5000000000000004 10.500000000000002 16.500000000000004 4.5000000000000009 76.500000000000014 1.0000000180025095e-35 0 5.5000000000000009 459.50000000000006 1 99.500000000000014 4.5000000000000009 2 21.500000000000004 36.500000000000007
decision_type=2 2 2 2 2 2 2 2 9 2 2 1 2 2 9 2 2
left_child=1 7 5 4 -2 -3 -7 -1 9 10 11 -9 -13 -10 -4 16 -16
right_child=3 2 14 -5 -6 6 -8 8 13 -11 -12 12 -14 -15 15 -17 -18
leaf_value=0.0013104826094256033 0.054249590796083463 0.0076709966756235972 -0.010609035135850573 0.0353381837229641 0 0.063315784796752261 -0.020804580480943226 -0.022549609490747316 -0.011258280410233733 0.01109681783217527 -0.0057519411329147885 -0.015496590974314411 -0.098667474368557939 0.015314805579031983 -0.035381914050473834 0.028754123725288253 0.00018202458420355736
leaf_weight=427.78346598148346 51.192261338233948 360.31116786599159 607.65452943742275 370.74747963249683 330.49593299627304 85.346855819225311 9.3843446969985944 187.16167923808098 750.96679691970348 61.190262675285339 148.04025559127331 45.743301242589951 55.890528574585915 91.854241371154785 62.564648017287254 164.67150615155697 864.62429478764534
leaf_count=1752 210 1480 2498 1728 1406 354 40 786 3118 256 616 196 240 377 254 688 3527
internal_value=0.000579449 -0.00345577 0.00199154 0.0223277 0.00766231 0.0179579 0.0478147 -0.0104397 -0.014657 -0.0247384 -0.03186 -0.0426516 -0.0702617 -0.00742322 -0.00195412 0.00238158 -0.0017437
internal_weight=4675.62 3923.19 2154.56 752.436 381.688 455.042 94.7312 1768.63 1340.85 498.026 436.836 288.796 101.634 842.821 1699.51 1091.86 927.189
internal_count=19526 16182 8841 3344 1616 1874 394 7341 5589 2094 1838 1222 436 3495 6967 4469 3781
cat_boundaries=0 1 2 3
cat_threshold=133 1 12
is_linear=0
shrinkage=0.148754


Tree=14
num_leaves=18
num_cat=3
split_feature=2 7 7 7 9 7 11 11 11 1 1 1 11 11 10 10 4
split_gain=18.7272 7.79716 4.17172 5.93144 3.6667 4.39084 3.555 3.09285 16.3252 2.94624 10.4926 3.9141 3.14322 3.80761 2.6481 2.47301 4.28251
threshold=2.5000000000000004 9.5000000000000018 12.500000000000002 141.50000000000003 0 6.5000000000000009 304.50000000000006 598.50000000000011 674.00000000000011 5.5000000000000009 8.5000000000000018 1.0000000180025095e-35 43.500000000000007 492.00000000000006 1 2 1.5000000000000002
decision_type=2 2 2 2 9 2 2 2 2 2 2 2 2 2 1 1 2
left_child=1 4 -2 -4 7 15 -7 9 -9 11 12 -1 -11 -14 -3 -6 -17
right_child=2 14 3 -5 5 6 -8 8 -10 10 -12 -13 13 -15 -16 16 -18
leaf_value=0 0.017713419465229242 -0.022652375105858564 0.077070657198210366 0 -0.0071575093470692573 0 -0.066542175593167691 0.062022145317338774 -0.0097448047866803764 -0.0046793113309731276 -0.02172170905915272 -0.023669303337166912 0.043413237709448528 -0.0080474583338473044 0.012561561696900763 -0.0030764641565089721 0.015946012680703635
leaf_weight=190.21267201006413 328.06604392826557 32.37181031703949 79.588991671800613 28.96220189332962 380.34481008350849 30.272786542773247 32.171395823359489 73.02405671775341 590.52943408489227 26.34875200688839 263.59950156509876 726.88394416868687 130.92103300988674 13.789693385362623 791.7672605663538 435.15078324079514 511.05292998254299
leaf_count=781 1435 140 395 148 1557 123 131 298 2429 109 1077 3068 542 57 3381 1783 2072
internal_value=0.000486871 -0.00241663 0.0297068 0.0574147 -0.00568357 0 -0.0364446 -0.0097041 -0.00038256 -0.0138529 -0.00196729 -0.0187352 0.0245237 0.0340978 0.0102418 0.00212421 0.00655597
internal_weight=4665.06 4228.44 436.617 108.551 3404.3 1388.99 62.4442 2015.31 663.553 1351.76 434.659 917.097 171.059 144.711 824.139 1326.55 946.204
internal_count=19526 17548 1978 543 14027 5666 254 8361 2727 5634 1785 3849 708 599 3521 5412 3855
cat_boundaries=0 1 2 3
cat_threshold=13 4 2
is_linear=0
shrinkage=0.148754


Tree=15
num_leaves=18
num_cat=0
split_feature=2 11 11 11 11 11 0 11 11 7 11 11 11 11 11 11 1
split_gain=14.2436 6.10675 17.0349 9.24154 6.07032 7.72594 7.03771 5.8812 11.3754 7.52241 6.108 6.97833 4.53672 4.38094 4.34567 6.32592 6.13527
threshold=2.5000000000000004 588.00000000000011 698.50000000000011 777.00000000000011 986.50000000000011 974.00000000000011 32.500000000000007 239.50000000000003 209.00000000000003 27.500000000000004 254.50000000000003 264.00000000000006 217.50000000000003 150.50000000000003 323.50000000000006 376.00000000000006 10.500000000000002
decision_type=2 2 2 2 2 2 2 2 2 2 2 2 2 2 2 2 2
left_child=1 7 -3 -4 5 -5 -6 8 9 -1 -9 -12 -10 -11 16 -16 -13
right_child=-2 2 3 4 6 -7 -8 10 12 13 11 14 -14 -15 15 -17 -18
leaf_value=-0.0087425477955672664 0.02598558240870797 0.041787251551138348 -0.03154995072157437 0.010263840487447775 -0.008967386420326344 0.090486661667919827 0.031723830614500341 -0.066590769543511411 0.067966742376204217 0.04603868668137219 0.048590764756010783 -0.055123626603773269 0.0095816987471048221 -0.0080896644334313931 0.011726299258976669 -0.018272171064153162 0
leaf_weight=1465.3647688031197 432.31670431792736 231.40341271460056 186.76687194406986 304.37816940248013 694.38863654434681 28.020101875066757 99.127860397100449 50.14760610461235 57.302215695381165 87.230719819664955 29.34827184677124 118.72004114091396 125.38699306547642 21.183032840490341 195.71178786456585 484.57428394258022 43.204822883009911
leaf_count=6068 1978 952 777 1255 2880 113 460 209 238 372 120 495 520 92 811 2004 182
internal_value=0.000350122 -0.00215599 0.00504899 -0.00110276 0.00352161 0.020463 -0.00287018 -0.00655279 -0.00108825 -0.00556087 -0.0161933 -0.0121089 0.0329409 0.029957 -0.0153243 -0.0086726 -0.0380796
internal_weight=4654.58 4222.26 1544.09 1312.68 1125.91 332.398 793.516 2678.17 1756.47 1573.78 921.707 871.559 182.689 108.414 842.211 680.286 161.925
internal_count=19526 17548 6437 5485 4708 1368 3340 11111 7290 6532 3821 3612 758 464 3492 2815 677
is_linear=0
shrinkage=0.148754


Tree=16
num_leaves=18
num_cat=3
split_feature=5 9 1 3 3 9 7 11 11 11 11 1 10 4 11 11 7
split_gain=9.98199 3.58331 5.22048 3.41707 5.33074 3.34938 6.99624 3.11775 13.8919 4.50978 5.827 5.14425 4.10409 3.36541 3.14088 3.39209 3.07392
threshold=2.5000000000000004 0 1.0000000180025095e-35 1.5000000000000002 1.0000000180025095e-35 1 13.500000000000002 1224.5000000000002 1207.0000000000002 1180.5000000000002 866.50000000000011 4.5000000000000009 2 1.5000000000000002 986.50000000000011 1053.0000000000002 3.5000000000000004
decision_type=2 9 2 2 2 9 2 2 2 2 2 2 1 2 2 2 2
left_child=1 2 -1 4 5 -2 -7 8 9 10 13 14 -9 -3 16 -16 -12
right_child=3 7 -4 -5 -6 6 -8 12 -10 -11 11 -13 -14 -15 15 -17 -18
leaf_value=0.012718636563589006 -0.00062894658690489872 -0.0081336248275099242 -0.026025433773922701 0.03052413877822938 -0.01750734412336033 0.005423016949942688 0.04515300849043942 0.0064973671257112595 0.081219189143896323 -0.056479749100184683 0.074230048375277025 0 -0.027502833042967606 0.0023031264413355982 -0.016890110040196742 0.038655602256720517 0
leaf_weight=72.280406698584557 197.69915673136711 1283.6170281171799 313.43991337716579 219.79218877851963 129.46110497415066 347.09149244427681 164.65179923176765 79.620001256465912 39.853612333536148 26.204861387610435 59.296439796686172 109.95397964119911 207.63927863538265 1310.6013165414333 33.436679840087891 37.759056866168976 11.452725172042845
leaf_count=296 850 5360 1315 1016 565 1466 769 334 166 107 241 452 867 5388 135 152 47
internal_value=0.000394014 -0.00321308 -0.0166063 0.0131637 0.0076606 0.0132679 0.0194642 -0.00131201 0 -0.00113974 -0.000282394 0.020769 -0.0159382 -0.0026195 0.0389876 0.00495098 0.0616895
internal_weight=4643.85 3585.16 385.72 1058.7 838.904 709.442 511.743 3199.43 2912.18 2872.32 2846.12 251.899 287.259 2594.22 141.945 71.1957 70.7492
internal_count=19526 14860 1611 4666 3650 3085 2235 13249 12048 11882 11775 1027 1201 10748 575 287 288
cat_boundaries=0 1 2 3
cat_threshold=4 136 2
is_linear=0
shrinkage=0.148754


Tree=17
num_leaves=18
num_cat=2
split_feature=2 9 0 11 4 11 9 7 1 11 11 3 7 11 11 11 0
split_gain=9.49568 4.63164 4.25837 3.33247 3.37972 3.19428 3.05337 4.32457 2.38975 2.48148 3.00213 2.22334 2.94274 2.16101 2.04262 4.01194 1.92747
threshold=1.5000000000000002 0 36.500000000000007 479.50000000000006 5.5000000000000009 17.500000000000004 1 17.500000000000004 1.0000000180025095e-35 27.500000000000004 47.500000000000007 1.0000000180025095e-35 1.5000000000000002 132.50000000000003 49.500000000000007 217.50000000000003 12.500000000000002
decision_type=2 9 2 2 2 2 9 2 2 2 2 2 2 2 2 2 2
left_child=2 -2 5 4 -3 -1 7 11 13 -10 -11 12 14 -8 -7 -16 -9
right_child=1 3 -4 -5 -6 6 8 16 9 10 -12 -13 -14 -15 15 -17 -18
leaf_value=0.048516690974475273 0 -0.0025209170018728366 0.023131828505796384 0.029946562039586389 0.02313956249018282 -0.024198276545385242 -0.01280855607116883 0.050293290881456822 -0.037385290973024635 0.0087960475425419744 -0.0096560919803234165 0.020130219764930263 -0.027692944041907284 0.011538487872661086 0.02564475477198043 -0.0051846880353127065 0
leaf_weight=16.536897733807564 414.91590130329132 222.30177292227745 115.33624361455441 362.61118023097515 167.84849485754967 57.127204015851021 96.282988429069519 51.245625779032707 73.90871287882328 173.94443319737911 2067.4504707455635 81.162019968032837 96.891241803765297 246.38875408470631 131.845255240798 221.94003535807133 36.784022092819214
leaf_count=67 1791 911 530 1608 765 234 396 211 310 729 8623 331 395 1015 540 910 160
internal_value=0.000371399 0.0120607 -0.00339408 0.0188505 0.00707664 -0.00454028 -0.00508603 0.00316165 -0.00741581 -0.00923241 -0.00791633 -0.000455607 -0.00520562 0.00273929 0 0.00475218 0.0330011
internal_weight=4634.52 1167.68 3466.84 752.761 390.15 3351.51 3334.97 676.995 2657.98 2315.3 2241.39 588.966 507.804 342.672 410.912 353.785 88.0296
internal_count=19526 5075 14451 3284 1676 13921 13854 2781 11073 9662 9352 2410 2079 1411 1684 1450 371
cat_boundaries=0 1 2
cat_threshold=140 480
is_linear=0
shrinkage=0.148754


Tree=18
num_leaves=18
num_cat=2
split_feature=5 4 11 11 11 11 11 11 10 4 1 11 9 6 7 3 0
split_gain=6.29781 4.65248 4.58279 4.46847 11.7914 8.30033 5.84985 8.44302 6.65835 5.46753 6.0081 4.51919 9.04329 4.55295 4.05921 3.93774 3.72235
threshold=6.5000000000000009 16.500000000000004 17.500000000000004 562.00000000000011 698.50000000000011 544.50000000000011 777.00000000000011 991.00000000000011 0 2.5000000000000004 3.5000000000000004 1496.0000000000002 1 1.5000000000000002 2.5000000000000004 1.0000000180025095e-35 6.5000000000000009
decision_type=2 2 2 2 2 2 2 2 1 2 2 2 9 2 2 2 2
left_child=2 -2 -1 5 9 -4 -6 8 -8 10 -5 12 -9 -13 -14 -10 -15
right_child=1 -3 3 4 6 -7 7 11 15 -11 -12 13 14 16 -16 -17 -18
leaf_value=0.06001879854970537 -0.00040758162877127481 0.037302794965320782 -0.0040954559144704009 0.02918302219838402 -0.024848735279726888 -0.099280844999864309 -0.012005548925889705 -0.030343612088047114 0.039518212836839171 0.054065802460948137 -0.025995035340806657 0 0 0 0.048952688623966047 0 0.087595492680989775
leaf_weight=20.657290250062943 69.275004282593727 166.42718878388405 2732.4880533069372 115.99499213695526 192.45619323849678 14.977596163749693 77.162255302071571 299.54631175100803 244.14632749557495 132.45137697458267 52.817624911665916 286.01955065131187 89.344666495919228 9.0070679634809512 41.899089887738228 63.262679547071457 19.26311694085598
leaf_count=84 314 852 11415 477 808 62 320 1249 1020 563 216 1209 371 38 178 268 82
internal_value=0.000359127 0.0238203 -0.000784836 -0.00130417 0.00466886 -0.00507065 -0.000958036 0.00265623 0.0207643 0.0309877 0.0079177 -0.00592391 -0.0161705 0.00614525 0.0126709 0.0311252 0.0572347
internal_weight=4627.2 235.702 4391.49 4370.84 1623.37 2747.47 1322.11 1129.65 384.571 301.264 168.813 745.08 430.79 314.29 131.244 307.409 28.2702
internal_count=19526 1166 18360 18276 6799 11477 5543 4735 1608 1256 693 3127 1798 1329 549 1288 120
cat_boundaries=0 1 2
cat_threshold=2 60
is_linear=0
shrinkage=0.148754


Tree=19
num_leaves=18
num_cat=1
split_feature=2 7 7 1 11 11 11 11 11 11 10 7 11 11 7 11 11
split_gain=6.92925 2.86893 4.93571 4.5779 2.60978 10.4237 5.35601 8.7036 6.80769 4.79817 3.84482 7.85456 2.91866 2.68863 4.11828 4.52881 12.6452
threshold=2.5000000000000004 12.500000000000002 139.50000000000003 2.5000000000000004 588.00000000000011 698.50000000000011 517.00000000000011 479.50000000000006 376.00000000000006 777.00000000000011 0 27.500000000000004 562.00000000000011 1132.5000000000002 124.50000000000001 1207.0000000000002 1224.5000000000002
decision_type=2 2 2 2 2 2 2 2 2 2 1 2 2 2 2 2 2
left_child=4 3 -3 -2 6 -6 7 8 10 -7 -1 -12 -8 -11 15 -15 -17
right_child=1 2 -4 -5 5 9 12 -9 -10 13 11 -13 -14 14 -16 16 -18
leaf_value=0.0021815767760520887 0.046433116038790113 0.06091571035497359 0 0 0.032211089384998191 -0.023501893651942794 -0.046092891685105074 0.036055633594695012 -0.02939329398946568 0.010990153015659506 -0.016038443999912375 0.042211786464199694 0 -0.039257333559465105 0.02726555450373765 0.075872059074145556 -0.0094783590989886545
leaf_weight=1493.0010337978601 51.751889958977699 73.157321378588676 28.639307737350464 269.61069691181183 228.84641507267952 185.43066316843033 96.787416711449623 114.2865301668644 219.05732822418213 443.65030211210251 645.6823101490736 44.601863846182823 52.282788589596748 85.769898325204849 70.004270061850548 35.046492785215378 482.40697395801544
leaf_count=6206 227 390 153 1208 952 777 401 477 909 1832 2710 191 217 354 326 147 2049
internal_value=0.000283106 0.0183963 0.0414126 0.00848876 -0.0014138 0.00323632 -0.00432798 -0.00238828 -0.0045733 -0.0014894 -0.00171193 -0.0110057 -0.0315131 0.00169899 -0.00351685 -0.00838986 -0.00163642
internal_weight=4620.01 423.159 101.797 321.363 4196.85 1531.16 2665.7 2516.63 2402.34 1302.31 2183.29 690.284 149.07 1116.88 673.228 603.223 517.453
internal_count=19526 1978 543 1435 17548 6437 11111 10493 10016 5485 9107 2901 618 4708 2876 2550 2196
cat_boundaries=0 1
cat_threshold=1
is_linear=0
shrinkage=0.148754


Tree=20
num_leaves=18
num_cat=3
split_feature=2 9 5 11 11 9 0 11 11 11 11 11 1 0 11 10 1
split_gain=5.26183 3.51333 3.47479 3.50787 2.90882 3.6239 2.63894 2.00436 10.4749 5.07383 3.7202 4.36951 3.3866 6.96645 5.13823 2.6715 3.407
threshold=2.5000000000000004 0 1.5000000000000002 469.50000000000006 479.50000000000006 1 8.5000000000000018 598.50000000000011 698.50000000000011 752.50000000000011 517.00000000000011 479.50000000000006 48.500000000000007 27.500000000000004 239.50000000000003 2 2.5000000000000004
decision_type=2 9 2 2 2 9 2 2 2 2 2 2 2 2 2 1 2
left_child=1 2 -1 6 -2 -6 -4 10 -9 -10 11 12 13 15 -15 -3 -17
right_child=4 7 3 -5 5 -7 -8 8 9 -11 -12 -13 -14 14 -16 16 -18
leaf_value=0 0.00044202248507860573 -0.002281420740252085 -0.023255431211580465 0.036447107056616329 0.042008897136354757 0 0.016638993265990731 0.035353886358321582 -0.03502323261866213 0 -0.029506304370644245 0.024414031509900333 -0.056578732143830343 0.065204083643749536 0 -0.029568091261955632 -0.0038372568730569321
leaf_weight=517.08433777093887 211.29124765098095 1235.3269088864326 46.823750436306 143.86487980186939 128.78649224340916 80.214625388383865 101.20175050199032 166.50367775559425 99.313615545630455 953.05990360677242 143.9854686409235 98.177293255925179 25.100515067577362 46.600751996040344 22.736315816640854 233.25088378787041 358.13579073548317
leaf_count=2127 966 5125 190 619 629 383 431 697 419 4018 598 410 116 202 98 999 1499
internal_value=0.000306806 -0.00115003 0.00732411 0.0202059 0.016156 0.0285699 0 -0.00338894 0.000980155 -0.00402247 -0.0061599 -0.00409123 -0.00595685 -0.00476536 0.0382871 -0.00687567 -0.0152681
internal_weight=4611.46 4191.17 808.975 291.89 420.292 209.001 148.026 3382.19 1218.88 1052.37 2163.31 2019.33 1921.15 1896.05 69.3371 1826.71 591.387
internal_count=19526 17548 3367 1240 1978 1012 621 14181 5134 4437 9047 8449 8039 7923 300 7623 2498
cat_boundaries=0 1 2 3
cat_threshold=352 53 1
is_linear=0
shrinkage=0.148754


Tree=21
num_leaves=18
num_cat=2
split_feature=2 9 9 4 11 11 11 6 11 11 11 11 0 0 11 11 1
split_gain=4.2523 2.85263 2.50291 3.66283 1.86167 2.82723 2.14739 10.4463 4.68798 4.04827 3.70816 5.26396 2.95187 2.34931 2.02531 4.54426 1.8536
threshold=1.5000000000000002 0 1 7.5000000000000009 2898.0000000000005 3316.5000000000005 1224.5000000000002 1.5000000000000002 1207.0000000000002 1602.0000000000002 1180.5000000000002 974.00000000000011 29.500000000000004 3.5000000000000004 986.50000000000011 1053.0000000000002 9.5000000000000018
decision_type=2 9 9 2 2 2 2 2 2 2 2 2 2 2 2 2 2
left_child=2 -2 3 16 6 -6 8 9 10 12 11 -4 -8 -9 -13 -16 -1
right_child=1 -3 4 -5 5 -7 7 13 -10 -11 -12 14 -14 -15 15 -17 -18
leaf_value=0.0043265323315330043 -0.0004756937611454936 0.013589985741520984 -0.0055073003526364154 0.032695388835048099 0.041437586010974921 -0.00084435186647866022 -0.053121719952504982 0 0.048272987962528095 -0.0019706769741045941 -0.055864366028651684 0.066722632046346972 0 0.073935298505207248 -0.020667751049877427 0.034588294399822188 -0.018470366718042291
leaf_weight=533.83189690113068 412.4277500808239 742.01511032879353 2207.6583195030689 88.040056869387627 42.076803684234619 37.044084578752518 127.62268613278866 3.6986982524395016 29.901926353573799 111.87507291138172 26.36001780629158 20.150044068694115 6.9027356505393973 21.752653047442436 42.114733919501305 65.901782467961311 84.419543847441673
leaf_count=2194 1791 3284 9259 390 180 157 544 16 128 479 112 82 33 92 171 269 345
internal_value=0.000231544 0.00814538 -0.0022399 0.00518155 -0.00439607 0.0154379 -0.00527801 -0.0182583 -0.00349014 -0.0297227 -0.00454249 -0.00354152 -0.047109 0.0564242 0.0242045 0.00743261 2.67943e-05
internal_weight=4603.79 1154.44 3449.35 706.291 2743.06 79.1209 2663.94 271.852 2392.09 246.4 2362.18 2335.82 134.525 25.4514 128.167 108.017 618.251
internal_count=19526 5075 14451 2929 11522 337 11185 1164 10021 1056 9893 9781 577 108 522 440 2539
cat_boundaries=0 1 2
cat_threshold=140 480
is_linear=0
shrinkage=0.148754


Tree=22
num_leaves=18
num_cat=2
split_feature=11 2 11 11 7 9 5 11 1 9 11 11 1 11 11 11 5
split_gain=3.74835 3.2598 2.61281 3.27967 2.28435 1.81856 2.38517 2.77492 1.79508 2.60916 3.48873 4.40464 2.81681 2.68165 3.96273 3.46405 3.16692
threshold=17.500000000000004 2.5000000000000004 479.50000000000006 905.00000000000011 3.5000000000000004 0 1.5000000000000002 469.50000000000006 1.0000000180025095e-35 1 3316.5000000000005 1496.0000000000002 19.500000000000004 1283.0000000000002 931.50000000000011 897.50000000000011 5.5000000000000009
decision_type=2 2 2 2 2 9 2 2 2 9 2 2 2 2 2 2 2
left_child=-1 5 -3 -4 -5 6 -2 -8 -7 10 11 13 -13 14 15 -10 -15
right_child=1 2 3 4 -6 8 7 -9 9 -11 -12 12 -14 16 -16 -17 -18
leaf_value=0.055500301989403665 -0.00023003388436345458 0 0.04060834222799193 -0.017823159526931559 0.025427828523515762 0.00556753039692963 0 0.029811812143492482 -0.0031215255539382186 -0.014861003889142977 -0.045923823464985435 0.001619732829824838 0.045830645097692441 -0.041713083056568831 0.017034342443434207 -0.060953489163424683 0.0056519140985728106
leaf_weight=20.819860264658928 514.61157292127609 209.24685227870941 111.90850622951984 49.596317619085312 44.595763221383095 402.67059902846813 146.38671703636646 142.27758428454399 1963.1963077038527 452.73618245124817 34.376974701881409 132.04584033787251 59.732863649725914 77.483607053756714 202.85021747648716 18.627232894301414 14.129969567060469
leaf_count=85 2117 960 544 226 242 1665 617 619 8234 1917 147 551 277 330 850 78 67
internal_value=0.000219252 0 0.0123549 0.0239888 0 -0.00136708 0.00463035 0.0154673 -0.00300462 -0.00441021 -0.00216205 -0.00118689 0.0196553 -0.00327446 -0.00187087 -0.00417793 -0.0279038
internal_weight=4597.29 4576.47 415.347 206.101 94.1921 4161.13 803.276 288.664 3357.85 2955.18 2502.44 2468.07 191.779 2276.29 2184.67 1981.82 91.6136
internal_count=19526 19441 1972 1012 468 17469 3353 1236 14116 12451 10534 10387 828 9559 9162 8312 397
cat_boundaries=0 1 2
cat_threshold=352 25
is_linear=0
shrinkage=0.148754


Tree=23
num_leaves=18
num_cat=3
split_feature=11 7 5 1 7 7 1 1 10 9 2 7 7 5 10 7 7
split_gain=2.94023 2.86251 3.19644 2.849 2.60323 2.23104 2.70347 3.97464 2.59003 3.3974 2.51906 3.1004 2.28865 2.48566 2.43619 1.9426 1.89833
threshold=17.500000000000004 9.5000000000000018 9.5000000000000018 8.5000000000000018 30.500000000000004 37.500000000000007 25.500000000000004 57.500000000000007 0 1 2.5000000000000004 141.50000000000003 158.50000000000003 2.5000000000000004 2 6.5000000000000009 45.500000000000007
decision_type=2 2 2 2 2 2 2 2 1 9 2 2 2 2 1 2 2
left_child=-1 15 3 -3 -4 6 8 -8 -5 -10 12 -12 13 14 -7 -2 -16
right_child=1 2 4 5 -6 10 7 -9 9 -11 11 -13 -14 -15 16 -17 -18
leaf_value=0.049210603810618009 -0.00094533439733268177 0.014904000715881707 0 0.030194327908934466 0.053131997801854881 0 0.052941716659515983 -0.0053663113362083306 0.0023339494286304069 -0.037969277233938087 0.046493710599906715 -0.012700659751495253 0.00082014799974881869 -0.005943574718758041 0 -0.017041667069207803 -0.069698480844738758
leaf_weight=20.780617892742157 3474.476390466094 331.35263979434967 9.9885019212961179 32.85233099758625 52.03134348988533 20.629562526941299 51.32941135764122 13.659196302294729 73.574742287397385 50.698321744799614 28.219896331429482 15.43394762277603 48.075997114181519 133.92765766382217 5.2311311960220328 178.30121111869812 51.493615865707397
leaf_count=85 14571 1380 55 139 293 88 246 67 315 218 159 82 223 618 22 747 218
internal_value=0.00022208 0 0.00732685 0.00397707 0.0395589 -0.00179457 0.00782702 0.0322039 0 -0.0129055 -0.010953 0.013617 -0.0177429 -0.024842 -0.0469654 -0.00193511 -0.0615314
internal_weight=4592.06 4571.28 918.498 856.478 62.0198 525.126 222.114 64.9886 157.125 124.273 303.012 43.6538 259.358 211.282 77.3543 3652.78 56.7247
internal_count=19526 19441 4123 3775 348 2395 985 313 672 533 1410 241 1169 946 328 15318 240
cat_boundaries=0 1 2 3
cat_threshold=2 73 2
is_linear=0
shrinkage=0.148754


Tree=24
num_leaves=18
num_cat=1
split_feature=2 11 11 10 4 11 1 1 5 11 7 4 0 1 7 11 11
split_gain=2.37704 3.87261 1.92856 1.90806 1.74118 3.72455 3.08046 2.86118 2.4073 2.15128 1.97164 1.60013 4.05224 4.02425 5.32964 2.39916 2.66423
threshold=3.5000000000000004 408.50000000000006 17.500000000000004 0 8.5000000000000018 71.500000000000014 58.500000000000007 12.500000000000002 4.5000000000000009 174.00000000000003 145.50000000000003 6.5000000000000009 10.500000000000002 8.5000000000000018 1.5000000000000002 1113.5000000000002 270.50000000000006
decision_type=2 2 2 1 2 2 2 2 2 2 2 2 2 2 2 2 2
left_child=2 -2 -1 -3 8 6 10 -7 11 -10 -6 13 -13 14 -4 16 -16
right_child=1 3 4 -5 5 7 -8 -9 9 -11 -12 12 -14 -15 15 -17 -18
leaf_value=0.039356684032229951 0 0 -0.0035241363357923681 0.041587127127145275 0.069383457904641135 0.036994630195286662 0 -0.00049064058861954403 0 -0.046434777593253401 0 -0.035239797309490638 0.022760924052820042 -0.013343174094582234 0.016074807252774236 0.032046511903678958 -0.0024705420185737177
leaf_weight=20.084891632199287 96.330353513360023 6.1565146148204803 2246.7806932777166 97.888182193040848 38.993438854813576 40.909733980894089 5.0041694343090048 513.93964058160782 12.245834097266195 44.836900070309639 3.180889517068862 19.154316410422325 153.80172216892242 596.82110445201397 294.03953036665916 113.2339755743742 285.8584743142128
leaf_count=82 449 30 9417 499 169 177 24 2352 52 191 16 80 643 2464 1219 473 1189
internal_value=0.0001919 0.0158773 -0.000398491 0.0353531 -0.000784302 0.00634875 0.0445021 0.00149828 -0.00210417 -0.0314059 0.0599591 -0.0014279 0.0117359 -0.0022734 0 0.0113415 0.0059006
internal_weight=4589.26 200.375 4388.89 104.045 4368.8 602.028 47.1785 554.849 3766.77 57.0827 42.1743 3709.69 172.956 3536.73 2939.91 693.132 579.898
internal_count=19526 978 18548 529 18466 2738 209 2529 15728 243 185 15485 723 14762 12298 2881 2408
cat_boundaries=0 1
cat_threshold=4
is_linear=0
shrinkage=0.148754


Tree=25
num_leaves=18
num_cat=2
split_feature=11 11 11 11 11 11 11 11 6 9 2 10 7 7 1 4 11
split_gain=1.91691 7.74983 5.89994 8.73644 3.89744 8.42128 3.74723 7.52954 3.41658 3.64194 3.24985 3.07462 2.92199 5.14343 2.56203 3.63293 3.28915
threshold=479.50000000000006 487.50000000000006 239.50000000000003 209.00000000000003 254.50000000000003 260.00000000000006 324.50000000000006 376.00000000000006 1.5000000000000002 0 3.5000000000000004 1 30.500000000000004 135.50000000000003 1.5000000000000002 2.5000000000000004 605.50000000000011
decision_type=2 2 2 2 2 2 2 2 2 9 2 1 2 2 2 2 2
left_child=2 -2 3 12 -4 -6 -7 -8 9 -5 14 -11 -1 -14 -3 16 -16
right_child=1 10 4 8 5 6 7 -9 -10 11 -12 -13 13 -15 15 -17 -18
leaf_value=-0.0034796718623571268 0.066515888370650381 0.011541813188058418 -0.053205203040103677 0 0.079107913538042834 -0.029692619538075216 0.016109182492937461 -0.021988349799658292 -0.0045650822504334039 0 0.028383308398169726 0.057910656089865453 0.04189203986136858 -0.013353125987427874 -0.03572709025895314 0.0028425647905996657 -0.0043198360950020701
leaf_weight=1574.456966727972 37.123454734683037 369.06936247646809 53.03445939719677 45.285750210285187 14.985501095652578 209.05086958408356 196.5061517059803 240.24142682552338 18.432110160589218 4.2774992734193802 92.837561145424843 126.47708095610142 82.112518683075905 37.084559515118599 106.77587528526783 950.1079598814249 427.81377109885216
leaf_count=6602 163 1547 226 190 62 891 828 1014 78 18 480 531 370 172 447 4121 1786
internal_value=0.000151134 0.00375696 -0.00235255 0.00170944 -0.013917 -0.00933109 -0.0131048 -0.00340244 0.0312161 0.0385368 0.00202247 0.0488896 -0.0013996 0.0197386 0.00026494 -0.00214103 -0.0121246
internal_weight=4585.67 1983.73 2601.94 1888.13 713.818 660.784 645.798 436.748 194.472 176.04 1946.6 130.755 1693.65 119.197 1853.77 1484.7 534.59
internal_count=19526 8544 10982 7961 3021 2795 2733 1842 817 739 8381 549 7144 542 7901 6354 2233
cat_boundaries=0 1 2
cat_threshold=136 4
is_linear=0
shrinkage=0.148754


Tree=26
num_leaves=18
num_cat=0
split_feature=11 11 11 11 11 11 11 11 11 6 1 0 0 11 11 11 11
split_gain=1.89469 1.84033 5.92607 3.73042 6.40448 2.95291 6.94677 3.88978 5.89793 2.68501 2.77519 3.42632 2.60989 2.96957 7.04761 4.47306 4.32256
threshold=17.500000000000004 479.50000000000006 487.50000000000006 239.50000000000003 209.00000000000003 254.50000000000003 264.00000000000006 324.50000000000006 354.50000000000006 1.5000000000000002 20.500000000000004 3.5000000000000004 36.500000000000007 1224.5000000000002 1207.0000000000002 1132.5000000000002 1496.0000000000002
decision_type=2 2 2 2 2 2 2 2 2 2 2 2 2 2 2 2 2
left_child=-1 3 -3 4 -2 -5 -7 -8 -9 10 11 -6 13 14 15 -4 -15
right_child=1 2 12 5 9 6 7 8 -10 -11 -12 -13 -14 16 -16 -17 -18
leaf_value=0.039553766549286294 -0.0022094662663298395 0.058371652748679809 0.0042959479560800828 -0.046413187811927985 0 0.050468301587636766 -0.030038900364082476 0.025354736850225518 -0.013641805674208611 -0.004055859191811245 0 0.054485089293507739 0.018859362355460707 -0.026199089015754188 0.063684896243630371 -0.028952750842366197 0
leaf_weight=20.657180368900299 1671.6652018874884 36.891216546297073 1141.5663704425097 52.684997797012329 55.305060178041458 32.541209042072296 191.04323571920395 103.68990911543369 332.84224388003349 18.43568828701973 15.886855676770208 105.02722077071667 172.51577642560005 201.51326438784599 36.439442038536072 88.892067119479179 303.49431438744068
leaf_count=85 7059 163 4814 226 230 135 818 439 1403 78 73 436 884 864 158 367 1294
internal_value=0.000114286 0 0.0032834 -0.00273196 0.000444451 -0.0118799 -0.00774898 -0.01225 -0.00269456 0.0258205 0.0325207 0.0390807 0.00172531 0 0.00384284 0.00123871 -0.00957949
internal_weight=4581.09 4560.43 1981.31 2579.12 1866.32 712.802 660.117 627.575 436.532 194.655 176.219 160.332 1944.42 1771.91 1266.9 1230.46 505.008
internal_count=19526 19441 8544 10897 7876 3021 2795 2660 1842 817 739 666 8381 7497 5339 5181 2158
is_linear=0
shrinkage=0.148754


Tree=27
num_leaves=18
num_cat=5
split_feature=10 9 5 10 0 6 5 9 1 9 7 7 2 1 11 11 5
split_gain=1.58966 5.05173 2.25925 3.71939 2.34111 1.94069 1.8879 2.75541 4.45314 1.75378 3.46327 2.30074 1.73202 2.64449 3.4771 2.87312 2.51578
threshold=0 1 5.5000000000000009 2 19.500000000000004 1.5000000000000002 4.5000000000000009 3 11.500000000000002 4 48.500000000000007 2.5000000000000004 1.5000000000000002 3.5000000000000004 562.00000000000011 239.50000000000003 1.5000000000000002
decision_type=1 9 2 1 2 2 2 9 2 9 2 2 2 2 2 2 2
left_child=1 -1 6 9 -5 -3 12 8 -8 10 11 -4 -2 14 16 -15 -14
right_child=2 5 3 4 -6 -7 7 -9 -10 -11 -12 -13 13 15 -16 -17 -18
leaf_value=0.015429021460506176 -0.00093760360894216683 -0.039787060510970626 0 0 0.056616854854637931 0 0 0 -0.082770091267591162 0.017547078513250127 0.014440453430061864 -0.045628820903824599 -0.007681208275916244 0.014017235691651324 0.042707091794329029 -0.0068512861372317917 0.028218598004867514
leaf_weight=54.99877518415451 3118.4432350099087 107.51981362700462 36.215120762586594 7.1833486706018439 51.98066933453083 12.369422972202299 6.1587555259466162 97.480587959289551 26.842050448060036 96.922360986471176 61.412726014852524 50.761708155274391 104.67266452312469 226.84277440607548 87.939117774367332 372.85002595186234 56.015670761466026
leaf_count=234 13054 460 161 31 265 54 27 431 121 502 323 247 427 959 380 1613 237
internal_value=0.000144255 -0.0133215 0.000843808 0.0130777 0.0453904 -0.0305474 0 -0.0172683 -0.0454794 0.00179118 -0.00539516 -0.0269461 0.000507595 0.00654484 0.0193209 3.83372e-05 0.00154202
internal_weight=4576.61 174.888 4401.72 304.476 59.164 119.889 4097.24 130.481 33.0008 245.312 148.39 86.9768 3966.76 848.32 248.627 599.693 160.688
internal_count=19526 748 18778 1529 296 514 17249 579 148 1233 731 408 16670 3616 1044 2572 664
cat_boundaries=0 1 2 3 4 5
cat_threshold=4 16 1 65 156
is_linear=0
shrinkage=0.148754


Tree=28
num_leaves=18
num_cat=1
split_feature=11 11 11 6 11 11 1 11 11 11 11 11 11 11 11 9 11
split_gain=1.4813 1.45322 4.20019 4.14228 4.60719 4.88776 2.56288 2.48538 6.1851 6.86962 4.45783 8.63755 4.3021 4.18607 5.23592 5.091 4.32323
threshold=17.500000000000004 464.50000000000006 451.00000000000006 1.5000000000000002 689.50000000000011 1152.0000000000002 14.500000000000002 1180.5000000000002 1207.0000000000002 1224.5000000000002 1602.0000000000002 1462.5000000000002 1315.0000000000002 1053.0000000000002 991.00000000000011 0 866.50000000000011
decision_type=2 2 2 2 2 2 2 2 2 2 2 2 2 2 2 9 2
left_child=-1 2 -2 7 -5 -6 -4 13 -9 -10 11 12 -11 14 16 -15 -3
right_child=1 3 6 4 5 -7 -8 8 9 10 -12 -13 -14 15 -16 -17 -18
leaf_value=0.035059440238122366 -0.0014496604720350096 0 -0.073216871888038479 0.053023952587002585 -0.022561302236117624 0.042370144028272744 0 -0.058367951281505938 0.053893463208529488 -0.032265816300856197 0.0029455260356216493 -0.068113065294393427 0.013017909171788057 0 -0.042481306422928078 0.067837132972035127 0.022469796255280429
leaf_weight=20.576990336179733 2481.0934732407331 876.12223795056343 23.568227171897892 68.581654414534569 58.58053520321846 35.70520131289959 5.3875726759433737 41.820891737937927 37.754502192139626 66.676472514867783 325.96499417722225 61.09327520430088 109.29857966303825 54.463303953409195 47.973252967000008 33.791012153029442 225.45473518967628
leaf_count=85 10499 3721 99 311 252 157 22 180 167 286 1458 268 486 227 195 140 973
internal_value=0.000154708 0 -0.00244494 0.00288981 0.0253048 0 -0.0540796 0.000529325 -0.00653358 -0.0013032 -0.00668464 -0.0223212 -0.00110459 0.00472979 0.001652 0.0352446 0.00438362
internal_weight=4573.91 4553.33 2510.05 2043.28 162.867 94.2857 28.9558 1880.41 642.609 600.788 563.033 237.068 175.975 1237.8 1149.55 88.2543 1101.58
internal_count=19526 19441 10620 8821 720 409 121 8101 2845 2665 2498 1040 772 5256 4889 367 4694
cat_boundaries=0 1
cat_threshold=44
is_linear=0
shrinkage=0.148754


Tree=29
num_leaves=18
num_cat=2
split_feature=9 0 4 4 11 3 7 10 1 11 11 11 11 11 11 11 1
split_gain=1.25323 3.53375 3.49938 2.40775 2.293 2.23857 2.95548 3.10275 2.83407 2.17069 3.97642 7.42457 5.13507 3.65439 3.37504 2.91172 2.15553
threshold=0 31.500000000000004 12.500000000000002 7.5000000000000009 367.50000000000006 2.5000000000000004 2.5000000000000004 1 82.500000000000014 1780.5000000000002 573.00000000000011 674.00000000000011 517.00000000000011 1496.0000000000002 1171.0000000000002 2512.5000000000005 16.500000000000004
decision_type=9 2 2 2 2 2 2 1 2 2 2 2 2 2 2 2 2
left_child=9 2 3 -2 -4 6 -3 -8 -9 10 12 -12 -1 14 -13 16 -11
right_child=1 5 4 -5 -6 -7 7 8 -10 15 11 13 -14 -15 -16 -17 -18
leaf_value=-0.0035647080419848771 1.6906332520818711e-05 0 0 0.016827034349918609 -0.044259819105166728 0 0 0.057796692430615158 0 -0.081018697118801844 0.04677968496262936 0.0024087525208039257 -0.051924678195979859 0.033296188182179547 -0.025631797705836346 0 0
leaf_weight=1041.1035871431231 2289.4100825786591 46.240097656846046 29.567957639694214 207.91584725677967 55.741046100854874 56.089113548398018 5.4447723776102066 95.03900407999754 15.681662097573279 20.078423514962196 88.075450778007507 304.92341966927052 48.719180211424828 60.520119175314903 115.27694103121758 73.430716946721077 16.407478287816048
leaf_count=4427 9567 209 134 907 255 294 28 487 89 84 381 1290 207 263 503 321 80
internal_value=0.00014875 0.00223218 0.000425167 0.00171266 -0.027771 0.0202151 0.0289558 0.041108 0.0485375 -0.00278018 -0.00100392 0.00854386 -0.00659678 0 -0.00402812 -0.0227766 -0.0540534
internal_weight=4569.66 2801.13 2582.63 2497.33 85.309 218.495 162.406 116.165 110.721 1768.54 1658.62 568.796 1089.82 480.72 420.2 109.917 36.4859
internal_count=19526 11970 10863 10474 389 1107 813 604 576 7556 7071 2437 4634 2056 1793 485 164
cat_boundaries=0 1 2
cat_threshold=140 4
is_linear=0
shrinkage=0.148754


Tree=30
num_leaves=18
num_cat=2
split_feature=11 11 11 11 11 9 1 11 11 6 11 11 9 1 11 11 7
split_gain=1.17247 1.08116 4.21268 2.48071 4.48564 2.37363 2.83521 2.29454 5.6312 2.28164 2.17666 4.42382 3.91546 3.5328 2.02009 3.10608 2.52499
threshold=17.500000000000004 479.50000000000006 487.50000000000006 239.50000000000003 209.00000000000003 0 20.500000000000004 254.50000000000003 260.00000000000006 1.5000000000000002 324.50000000000006 376.00000000000006 1 12.500000000000002 157.50000000000003 174.00000000000003 19.500000000000004
decision_type=2 2 2 2 2 9 2 2 2 2 2 2 9 2 2 2 2
left_child=-1 3 -3 4 14 -6 9 -5 -9 -7 -10 -12 -13 -14 16 -16 -2
right_child=1 2 -4 7 5 6 -8 8 10 -11 11 12 13 -15 15 -17 -18
leaf_value=0.031203371891684265 -0.0014235560378746623 0.049229113050296154 0.0011337600648095938 -0.040129198118223471 0 0.046623721881092109 0 0.066421382032144274 -0.021785935267419801 0 0.013186884218881628 0 -0.049957262078025783 0 -0.036763996882136107 0 0.020571854468009791
leaf_weight=20.488348454236984 1282.4277293980122 36.348877042531967 1934.7138531133533 52.254238724708557 50.238592505455017 118.01225590705872 14.641855642199515 14.917822211980818 207.92553074657917 11.536486431956289 196.36929032206535 122.3529295027256 90.227007582783699 26.516846239566803 81.537716865539551 185.23173196613789 119.6934978812933
leaf_count=85 5382 163 8381 226 211 490 68 62 891 48 828 520 376 118 347 789 541
internal_value=6.70622e-05 0 0.00249862 -0.00211851 0.000413815 0.0216975 0.0302724 -0.00960704 -0.00586112 0.0402123 -0.00914785 -0.00142978 -0.016099 -0.0336163 -0.00175085 -0.0135111 7.72336e-05
internal_weight=4565.43 4544.95 1971.06 2573.88 1863.32 194.429 144.191 710.564 658.309 129.549 643.392 435.466 239.097 116.744 1668.89 266.769 1402.12
internal_count=19526 19441 8544 10897 7876 817 606 3021 2795 538 2733 1842 1014 494 7059 1136 5923
cat_boundaries=0 1 2
cat_threshold=136 137
is_linear=0
shrinkage=0.148754


Tree=31
num_leaves=18
num_cat=4
split_feature=11 11 9 11 11 0 0 7 5 10 2 3 11 0 10 9 11
split_gain=1.08772 3.49434 1.91637 1.78753 3.28137 1.96313 1.66815 1.5095 1.59344 1.4333 1.21837 1.06284 2.2454 1.63814 0.993718 4.22782 1.78051
threshold=3316.5000000000005 2898.0000000000005 0 991.00000000000011 323.50000000000006 1.5000000000000002 5.5000000000000009 1.0000000180025095e-35 8.5000000000000018 1 2.5000000000000004 1.0000000180025095e-35 103.50000000000001 28.500000000000004 2 3 1008.5000000000001
decision_type=2 2 9 2 2 2 2 2 2 1 2 2 2 2 1 9 2
left_child=1 2 3 4 5 -1 -7 -2 9 -9 -5 -8 -13 -14 15 -4 -17
right_child=7 -3 14 10 -6 6 11 8 -10 -11 -12 12 13 -15 -16 16 -18
leaf_value=0.0077293560071436569 0 0.031163756656246381 -0.031186576099931605 -0.035396285736639728 0.010944361329523748 -0.036012845323211459 0.0029792913505174799 -0.059743587013071947 0 0 0 0 -0.067112406835443172 0 0.0016409284543162201 0.026086851441550804 -0.012393765863833233
leaf_weight=25.790622159838676 20.31833915412426 74.482051268219948 86.481691434979439 75.773587986826897 163.02114161103964 96.906841665506363 67.829367876052856 28.406923040747643 5.7789259403944007 3.8233983516693106 6.2998846769332877 15.135509371757506 18.015081778168682 4.7018608748912802 3794.423770584166 63.062993749976158 12.422838568687437
leaf_count=107 85 342 373 321 696 424 286 124 30 16 32 65 76 21 16207 267 54
internal_value=5.97429e-05 0.000474253 0 -0.00886129 -0.00278606 -0.0153724 -0.0215507 -0.0189115 -0.035749 -0.0488699 -0.0292912 -0.00125527 -0.0228738 -0.0501671 0.00099794 -0.0096694 0.0101402
internal_weight=4562.67 4504.35 4429.87 473.474 391.4 228.379 202.589 58.3276 38.0092 32.2303 82.0735 105.682 37.8525 22.7169 3956.39 161.968 75.4858
internal_count=19526 19271 18929 2028 1675 979 872 255 170 140 353 448 162 97 16901 694 321
cat_boundaries=0 1 2 3 4
cat_threshold=4 1 4 73
is_linear=0
shrinkage=0.148754


Tree=32
num_leaves=18
num_cat=2
split_feature=3 11 11 11 1 1 9 1 5 1 0 11 7 4 10 11 11
split_gain=1.02245 1.26388 1.06253 2.39288 1.81054 1.44439 1.43104 2.2837 2.09559 1.81578 1.46693 2.21058 2.17076 1.17978 0.931949 2.00866 3.73795
threshold=10.500000000000002 309.00000000000006 3316.5000000000005 2898.0000000000005 14.500000000000002 41.500000000000007 0 1.0000000180025095e-35 1.5000000000000002 2.5000000000000004 7.5000000000000009 76.500000000000014 35.500000000000007 1.5000000000000002 1 1496.0000000000002 1631.0000000000002
decision_type=2 2 2 2 2 2 9 2 2 2 2 2 2 2 1 2 2
left_child=2 -2 3 6 -4 -6 7 -1 9 -9 -11 -12 13 -13 -8 -16 -17
right_child=1 -3 4 -5 5 -7 14 8 -10 10 11 12 -14 -15 15 16 -18
leaf_value=0.011340040832031151 0 0.044139138298245166 0 0.026041388930407982 -0.063925377829739477 0 0.0022400759609945923 -0.040206600357859619 0 0.00051278760309525593 0 0 0 -0.061844587319427692 -0.0046490019939210096 0.048712969171224071 -0.0046478265104241438
leaf_weight=71.885988116264343 4.7092076838016537 19.793199107050896 28.517691850662231 71.792984567582607 17.181431159377102 10.343807235360144 2749.6083579957485 88.358237132430077 161.03920923173428 86.744188487529755 11.910193532705305 8.9368671029806119 4.3495362550020209 35.841793194413185 1121.4234159141779 40.294081479310989 28.459540441632271
leaf_count=297 23 110 118 329 74 50 11716 389 691 377 50 38 18 150 4792 178 126
internal_value=4.48389e-05 0.0271607 0 0.000129058 -0.0194078 -0.0434055 -0.000182372 -0.0079114 -0.0133144 -0.0220555 -0.00582753 -0.0236713 -0.0395654 -0.0513972 0.000603528 -0.00262412 0.0194386
internal_weight=4561.19 24.5024 4536.69 4480.64 56.0429 27.5252 4408.85 469.066 397.18 236.141 147.783 61.0384 49.1282 44.7787 3939.79 1190.18 68.7536
internal_count=19526 133 19393 19151 242 124 18822 2010 1713 1022 633 256 206 188 16812 5096 304
cat_boundaries=0 1 2
cat_threshold=4 1
is_linear=0
shrinkage=0.148754


Tree=33
num_leaves=18
num_cat=0
split_feature=11 5 1 4 11 1 0 11 11 11 2 11 4 11 7 11 1
split_gain=0.934734 0.852253 1.054 3.82438 2.31524 2.41425 1.91345 1.44191 2.25939 4.82019 1.62722 1.26827 5.8526 2.12998 1.86487 1.80867 1.53231
threshold=17.500000000000004 13.500000000000002 3.5000000000000004 2.5000000000000004 905.00000000000011 2.5000000000000004 9.5000000000000018 533.00000000000011 724.50000000000011 752.50000000000011 1.5000000000000002 35.500000000000007 4.5000000000000009 71.500000000000014 33.500000000000007 77.500000000000014 7.5000000000000009
decision_type=2 2 2 2 2 2 2 2 2 2 2 2 2 2 2 2 2
left_child=-1 2 3 7 5 6 -5 -2 -9 -10 -11 12 14 -13 -4 16 -15
right_child=1 -3 11 4 -6 -7 -8 8 9 10 -12 13 -14 15 -16 -17 -18
leaf_value=0.027907967259303317 -0.0026439521209557044 0.02702013160732273 -0.044124365201576692 0.064255372290739257 0 0 0 0.021681978057361537 -0.048434217722613075 0 0.030533973234967319 0.011064934530860646 0.018685813927133879 -0.061846885387436559 0 -0.0019535039072580626 0
leaf_weight=20.399004682898521 1124.0012633353472 19.249837905168533 92.144077390432358 52.357885912060738 29.551025375723839 46.011204957962036 2.7786437869071952 151.2341825067997 33.831964582204819 320.46357317268848 46.169798612594604 255.18602176010609 43.3716641664505 15.778937876224516 4.3663515299558631 2279.3205829784274 22.72807888686657
leaf_count=85 4756 114 384 235 128 194 13 634 145 1348 194 1075 188 66 18 9851 98
internal_value=6.06592e-05 0 -0.000254538 0.00235663 0.0263019 0.0368728 0.0570186 1.49629e-05 0.00655979 0 0.00585934 -0.00223228 -0.0161216 -0.00118981 -0.0382404 -0.00284293 -0.033478
internal_weight=4558.94 4538.55 4519.3 1806.4 130.699 101.148 55.1365 1675.7 551.7 400.465 366.633 2712.9 139.882 2573.01 96.5104 2317.83 38.507
internal_count=19526 19441 19327 7647 570 442 248 7077 2321 1687 1542 11680 590 11090 402 10015 164
is_linear=0
shrinkage=0.148754


Tree=34
num_leaves=18
num_cat=3
split_feature=10 9 6 5 9 3 1 5 11 11 7 11 7 3 11 1 11
split_gain=0.735883 3.29863 1.9047 1.58209 1.46445 2.99493 3.2607 2.80117 2.78214 7.9168 3.79684 3.17018 2.86853 2.69433 5.78799 2.50716 2.33713
threshold=0 1 1.5000000000000002 13.500000000000002 2 1.0000000180025095e-35 58.500000000000007 1.5000000000000002 573.00000000000011 637.00000000000011 29.500000000000004 376.00000000000006 6.5000000000000009 1.0000000180025095e-35 730.00000000000011 16.500000000000004 24.500000000000004
decision_type=1 9 2 2 9 2 2 2 2 2 2 2 2 2 2 2 2
left_child=1 -1 -3 4 7 6 8 13 10 12 -6 -12 -10 16 15 -15 -2
right_child=3 2 -4 -5 5 -7 -8 -9 9 -11 11 -13 -14 14 -16 -17 -18
leaf_value=0.0053103305539361888 0.030225329281156805 -0.04158287605801015 0 0.039093352327434994 -0.0047290900138764408 -0.011484883652989469 -0.046540591295034725 0.011270848281686081 0.062769413912465433 0.0023819095011607524 0.045849208615176662 0 0 0.046556931882335888 -0.0176369700356237 0 -0.0058525290343433064
leaf_weight=93.760689824819565 30.931604653596878 72.733538240194321 7.352311745285987 17.647154241800308 1208.1084046512842 557.7245119586587 25.076095692813396 671.0055423155427 68.797820642590523 644.93068394064903 57.160173922777176 19.245230406522751 10.266854226589201 92.525585681200027 42.834387257695198 9.0540843009948713 926.71799525618553
leaf_count=402 129 314 32 107 5105 2420 125 2972 296 2744 251 86 46 384 181 38 3894
internal_value=0.000104417 -0.00901058 -0.0296288 0.000625483 0.000267026 -0.00182126 0.000530055 0.00366759 0.00157944 0.00909863 -0.0021812 0.0276197 0.0521617 -0.00038255 0.0174089 0.0383483 -0.00383042
internal_weight=4555.87 173.847 80.0858 4382.03 4364.38 2591.31 2033.59 1773.07 2008.51 723.995 1284.51 76.4054 79.0647 1102.06 144.414 101.58 957.65
internal_count=19526 748 346 18778 18671 11073 8653 7598 8528 3086 5442 337 342 4626 603 422 4023
cat_boundaries=0 1 2 3
cat_threshold=4 24 353
is_linear=0
shrinkage=0.148754


Tree=35
num_leaves=18
num_cat=1
split_feature=3 11 11 11 11 11 0 5 9 1 3 1 11 4 3 11 11
split_gain=0.747181 1.47313 2.74916 1.63883 0.872713 1.84923 1.12685 1.2769 0.881718 1.8013 1.75908 2.75332 1.14373 1.27321 0.963647 0.897266 3.69375
threshold=3.5000000000000004 339.50000000000006 1552.5000000000002 145.50000000000003 3316.5000000000005 2898.0000000000005 16.500000000000004 8.5000000000000018 0 1.0000000180025095e-35 1.0000000180025095e-35 2.5000000000000004 36.500000000000007 1.5000000000000002 1.5000000000000002 264.00000000000006 285.00000000000006
decision_type=2 2 2 2 2 2 2 2 9 2 2 2 2 2 2 2 2
left_child=4 3 -3 -2 5 8 -6 -8 9 -1 11 12 -11 -14 -12 -10 -17
right_child=1 2 -4 -5 6 -7 7 -9 15 10 14 -13 13 -15 -16 16 -18
leaf_value=0.010318268866671655 0.0055778212206997997 0.038971370843069453 0 -0.040540839701186521 0 0.023444756686598341 -0.053425835814826655 0 0.002983151141707619 0 -0.039866174189363439 0.0038609195159544449 -0.039582380269270065 0 0 -0.036941410608650402 -0.00010947961095621814
leaf_weight=71.815691262483597 15.9938952177763 66.001555234193802 33.450342819094658 15.683094084262846 27.814355984330177 67.792884893715382 19.232486724853519 3.8307183086872092 1728.2097877264023 7.6093036979436866 62.453188762068748 205.71387208253145 66.401993274688721 8.9941304028034192 31.759577482938766 57.261722460389137 2062.4788629189134
leaf_count=297 78 325 171 73 115 311 83 19 7301 34 268 882 297 38 135 244 8855
internal_value=0.000106591 0.0109798 0.0214923 -0.00307405 -8.47981e-05 6.58815e-06 -0.0184123 -0.0389123 -0.000245809 -0.00640606 -0.0114821 -0.00289395 -0.0259886 -0.0323829 -0.0295655 0.00033937 -0.00151291
internal_weight=4552.5 131.129 99.4519 31.677 4421.37 4370.49 50.8776 23.0632 4302.7 454.748 382.932 288.719 83.0054 75.3961 94.2128 3847.95 2119.74
internal_count=19526 647 496 151 18879 18662 217 102 18351 1951 1654 1251 369 335 403 16400 9099
cat_boundaries=0 1
cat_threshold=4
is_linear=0
shrinkage=0.148754


Tree=36
num_leaves=18
num_cat=3
split_feature=11 11 11 0 4 0 9 11 1 11 3 9 1 9 11 11 11
split_gain=0.668224 0.799144 1.37671 1.01576 0.68246 2.56938 2.51901 4.0399 1.7473 2.15652 3.34808 2.42557 1.81765 2.01866 2.80416 2.26594 2.15897
threshold=17.500000000000004 22.500000000000004 23.500000000000004 11.500000000000002 1.5000000000000002 6.5000000000000009 0 324.50000000000006 1.5000000000000002 132.50000000000003 1.0000000180025095e-35 1 5.5000000000000009 2 487.50000000000006 1053.0000000000002 79.500000000000014
decision_type=2 2 2 2 2 2 9 2 2 2 2 9 2 9 2 2 2
left_child=-1 -2 3 -3 8 6 -6 -8 9 10 11 -4 13 14 16 -15 -10
right_child=1 2 4 -5 5 -7 7 -9 12 -11 -12 -13 -14 15 -16 -17 -18
leaf_value=0.023644241363238068 -0.017847873376446999 0.047970843235878774 -0.032293734126965984 0 0 -0.0010573134449800832 0 0.034995912870285979 -0.010065837261634769 0.0077106140118954527 0.035133001848025286 0 0.0048226045555976125 -0.026560573393633713 -0.019289379473566969 0.0023593162293052052 0.014143964277126225
leaf_weight=20.288311436772346 49.100762203335762 16.858706325292591 91.817406222224236 4.5252563804388037 414.61865501105785 2055.0251400098205 144.065893471241 164.02928380668163 99.337977141141891 556.0837362408638 20.270310968160629 128.6007037460804 153.13344170153141 246.48621171712875 153.76061356067657 26.737089052796364 205.99301269650459
leaf_count=85 208 70 388 19 1737 8971 599 691 420 2343 84 544 646 1078 651 116 876
internal_value=4.73472e-05 0 0.000128486 0.0332855 0 0.00135359 0.00904642 0.0188638 -0.00243375 0.00200463 -0.00842361 -0.01613 -0.00713865 -0.0105344 -0.00241188 -0.0206875 0.0041494
internal_weight=4550.73 4530.44 4481.34 21.384 4459.96 2777.74 722.714 308.095 1682.22 796.772 240.688 220.418 885.448 732.315 459.092 273.223 305.331
internal_count=19526 19441 19233 89 19144 11998 3027 1290 7146 3359 1016 932 3787 3141 1947 1194 1296
cat_boundaries=0 1 2 3
cat_threshold=88 17 120
is_linear=0
shrinkage=0.148754


Tree=37
num_leaves=18
num_cat=2
split_feature=4 4 11 3 11 4 11 10 0 11 11 9 6 7 6 11 11
split_gain=0.635003 2.08831 1.35622 1.27534 2.09429 0.869437 0.602027 3.5883 1.83187 1.80588 1.67751 1.66619 1.55671 1.8383 1.07983 1.07086 0.892224
threshold=41.500000000000007 36.500000000000007 200.50000000000003 1.0000000180025095e-35 237.00000000000003 121.50000000000001 42.500000000000007 0 7.5000000000000009 39.500000000000007 49.500000000000007 1 1.5000000000000002 1.0000000180025095e-35 1.5000000000000002 47.500000000000007 60.500000000000007
decision_type=2 2 2 2 2 2 2 1 2 2 2 9 2 2 2 2 2
left_child=1 6 -3 -2 -5 -6 7 8 9 -1 12 -9 13 15 -13 -8 -12
right_child=3 2 -4 4 5 -7 10 11 -10 -11 16 14 -14 -15 -16 -17 -18
leaf_value=-0.037518947022033844 0 0 -0.062440566936555648 0 0.05880738266756063 0 0.0030871369580434335 0 0.00062101768467361811 0 0.011722797853141665 0.030981857865966196 0.0017113029780809019 -0.051345713463021317 0 -0.037216952416695613 -0.00022011052117543628
leaf_weight=66.328846871852875 19.690139979124069 2.4103355258703223 13.359571874141691 4.4590822011232403 25.014211453497413 1.6668225675821293 45.00544086098671 123.10572583973408 33.283775642514229 8.2823486477136594 136.17385695874691 137.99361516535282 7.2687732577323905 36.504805758595467 14.679811581969259 10.576498582959173 3863.5502135455608
leaf_count=285 110 12 71 25 147 10 190 520 141 36 577 578 31 154 62 45 16532
internal_value=7.15122e-05 0 -0.0458628 0.0157124 0.033665 0.0519366 9.7274e-05 0.00578124 -0.0137564 -0.0277263 -0.000285225 0.0158511 -0.0188368 -0.027041 0.0252569 0 4.2624e-05
internal_weight=4549.35 4498.52 15.7699 50.8303 31.1401 26.681 4482.75 383.674 107.895 74.6112 4099.08 275.779 99.3555 92.0867 152.673 55.5819 3999.72
internal_count=19526 19234 83 292 182 157 19151 1622 462 321 17529 1160 420 389 640 235 17109
cat_boundaries=0 1 2
cat_threshold=2 9
is_linear=0
shrinkage=0.148754


Tree=38
num_leaves=18
num_cat=1
split_feature=1 4 11 6 0 0 1 11 9 4 11 11 11 11 11 7 5
split_gain=0.652857 2.50905 1.98509 1.55474 1.59663 0.9831 3.1381 6.85133 3.20853 3.15899 2.36526 3.14769 5.81039 4.21867 2.82919 3.22591 2.62353
threshold=3.5000000000000004 2.5000000000000004 905.00000000000011 1.5000000000000002 9.5000000000000018 8.5000000000000018 8.5000000000000018 264.00000000000006 0 5.5000000000000009 42.500000000000007 562.00000000000011 698.50000000000011 517.00000000000011 736.50000000000011 1.0000000180025095e-35 4.5000000000000009
decision_type=2 2 2 2 2 2 2 2 9 2 2 2 2 2 2 2 2
left_child=1 -1 3 4 -3 -2 7 -7 -9 -8 -11 13 -13 16 -14 -16 -12
right_child=5 2 -4 -5 -6 6 9 8 -10 10 11 12 14 -15 15 -17 -18
leaf_value=0.00038737446996571522 -0.005267737767752469 0.045542614935169243 0 0 0 0.040448638061231917 -0.011801365894894576 0.027455542719546443 -0.015188862789266403 0.033117932949000589 0.0043480529499029287 0.051631710590574913 -0.037667054101395793 -0.061332973442690474 0.030366697808073349 0 -0.018349678777890687
leaf_weight=1680.2465666532516 923.08305996656418 80.125407934188843 29.440084129571915 17.15375691652298 2.9412255138158789 125.35415548086166 497.72242376208305 32.633673444390297 134.3198951035738 46.449899971485138 270.36549888551235 55.898204982280731 28.171850629150867 26.233148828148842 87.12449449300766 350.67077639698982 160.70960386842489
leaf_count=7114 3860 353 128 77 13 522 2068 138 568 208 1156 266 127 112 372 1671 773
internal_value=3.70968e-05 0.00235613 0.0219333 0.0320471 0.0401236 -0.00126187 0.000430959 0.0146559 -0.00172974 -0.00192426 0.0022846 0 0.00845033 -0.00830195 0.00129355 0.00574559 -0.00277565
internal_weight=4548.64 1809.91 129.66 100.22 83.0666 2738.74 1815.65 292.308 166.954 1523.35 1025.62 979.174 521.865 457.308 465.967 437.795 431.075
internal_count=19526 7685 571 443 366 11841 7981 1228 706 6753 4685 4477 2436 2041 2170 2043 1929
cat_boundaries=0 1
cat_threshold=1
is_linear=0
shrinkage=0.148754


Tree=39
num_leaves=18
num_cat=2
split_feature=3 11 1 4 3 11 1 5 2 11 11 4 1 0 9 10 11
split_gain=0.523563 0.889312 0.825344 2.70746 1.20272 1.30741 1.11742 0.81917 1.09661 1.00338 1.13808 0.794298 0.662007 2.2479 6.7268 3.71743 2.02152
threshold=10.500000000000002 309.00000000000006 84.500000000000014 58.500000000000007 7.5000000000000009 77.500000000000014 64.500000000000014 1.5000000000000002 5.5000000000000009 3316.5000000000005 39.500000000000007 121.50000000000001 3.5000000000000004 4.5000000000000009 0 1 875.50000000000011
decision_type=2 2 2 2 2 2 2 2 2 2 2 2 2 2 9 1 2
left_child=2 -2 6 4 5 -4 12 -8 9 10 -9 -3 13 -1 15 -15 -17
right_child=1 11 3 -5 -6 -7 7 8 -10 -11 -12 -13 -14 14 -16 16 -18
leaf_value=0.00010750378477336594 0 0.045402468031077496 0 0 0 -0.072217660659687821 0 0 0 0 0.056417662445331217 0 -0.0016218725935800129 0.003538494630677996 0.047950863308621125 -0.076829732662889658 0
leaf_weight=1666.0955488532782 4.7425250113010433 17.516608275473121 2.0992701202631059 16.176272839307785 1.6481643170118321 19.449828945100307 2.6795468479394904 1.0443728417158151 2.2204012721776953 1.8404260873794545 29.811606049537659 1.3314982801675785 2638.8139886632562 50.363181635737419 71.418807879090309 16.14433561265469 3.2478150129318228
leaf_count=7069 23 102 11 96 9 100 11 5 12 9 156 8 11308 216 308 69 14
internal_value=3.5782e-05 0.0197322 0 -0.0199941 -0.0515685 -0.0614588 0.000108305 0.0237916 0.0323114 0.0415673 0.0491245 0.0353473 0 0.00205941 0.019739 -0.00751194 -0.0583419
internal_weight=4546.64 23.5906 4523.05 39.3735 23.1973 21.5491 4483.68 37.5964 34.9168 32.6964 30.856 18.8481 4446.08 1807.27 141.174 69.7553 19.3922
internal_count=19526 133 19393 216 120 111 19177 193 182 170 161 110 18984 7676 607 299 83
cat_boundaries=0 1 2
cat_threshold=172 1
is_linear=0
shrinkage=0.148754


Tree=40
num_leaves=18
num_cat=4
split_feature=11 11 11 0 10 10 9 5 4 11 1 2 7 1 9 3 5
split_gain=0.500693 0.679439 0.975098 0.859283 0.857152 0.601254 2.18643 1.025 0.837303 0.794803 0.776384 1.54508 1.39967 0.938603 2.15565 1.467 1.37142
threshold=17.500000000000004 22.500000000000004 23.500000000000004 11.500000000000002 0 1 2 13.500000000000002 150.00000000000003 38.500000000000007 84.500000000000014 4.5000000000000009 174.50000000000003 36.500000000000007 3 2.5000000000000004 9.5000000000000018
decision_type=2 2 2 2 1 1 9 2 2 2 2 2 2 2 9 2 2
left_child=-1 4 3 -3 -2 6 -4 10 -9 -8 13 12 -12 -7 15 16 -15
right_child=1 2 5 -5 -6 7 9 8 -10 -11 11 -13 -14 14 -16 -17 -18
leaf_value=0.020527050957212793 -0.04112004486132765 0.041944414043664537 0 0 0 0 0 0.043698353942515256 0 -0.038151910367014777 -0.048864319904996553 0 0 0.043163229151739181 -0.0031038288483157986 0 0
leaf_weight=20.153431802988052 13.876284196972847 16.944328948855404 113.81620247662067 4.5061827450990668 35.005031079053879 4058.818091109395 2.9518580436706534 15.63234216719866 1.2121587544679631 54.583295539021492 28.089739188551906 5.7182965874671927 1.6866125464439381 67.441498011350632 68.853263303637505 24.363260343670845 12.213229738175867
leaf_count=85 60 70 487 19 148 17230 13 99 8 239 146 34 10 341 335 130 72
internal_value=5.96297e-05 0 0.000142314 0.0280039 -0.0164744 0 -0.0085122 0.000320599 0.0316904 -0.0288242 0 -0.0199964 -0.0376075 0.000349028 0.0109032 0.0238143 0.0352764
internal_weight=4545.87 4525.71 4476.83 21.4505 48.8813 4455.38 171.351 4284.03 16.8445 57.5352 4267.18 35.4946 29.7764 4231.69 172.871 104.018 79.6547
internal_count=19526 19441 19233 89 208 19144 739 18405 107 252 18298 190 156 18108 878 543 413
cat_boundaries=0 1 2 3 4
cat_threshold=2 4 56 113
is_linear=0
shrinkage=0.148754


Tree=41
num_leaves=18
num_cat=3
split_feature=2 0 10 7 10 4 1 4 5 7 0 3 7 4 4 9 5
split_gain=0.444886 2.27677 1.28129 1.23873 1.04997 0.933159 0.78962 1.82619 1.71868 1.08987 0.83584 1.72935 1.24707 1.0071 1.53843 2.50783 1.46363
threshold=4.5000000000000009 19.500000000000004 0 2.5000000000000004 1 1.5000000000000002 84.500000000000014 56.500000000000007 8.5000000000000018 2.5000000000000004 36.500000000000007 2.5000000000000004 147.50000000000003 11.500000000000002 15.500000000000002 2 1.5000000000000002
decision_type=2 2 1 2 1 2 2 2 2 2 2 2 2 2 2 9 2
left_child=6 2 -2 4 -3 -4 10 8 9 -8 -1 13 -13 -12 -15 16 -16
right_child=1 3 5 -5 -6 -7 7 -9 -10 -11 11 12 -14 14 15 -17 -18
leaf_value=-0.00028015472039106398 0 0 0 0.0081224535061253933 -0.043446211840657008 0.057212107956760405 0 0 0 -0.079490195289284887 0.050653061688642337 0 -0.041614119209925929 -0.015697959916127515 0 0 0.05226554743725708
leaf_weight=4205.2919461205602 1.8687823712825775 6.0395512282848358 3.6122212111949947 35.957523435354233 19.178405225276951 27.191721051931381 1.8517087548971201 20.285516194999218 6.641654059290885 12.817061245441435 22.003677412867546 48.319873236119747 10.494647532701491 20.603986591100693 3.334759220480918 55.16383221745491 43.946203775703907
leaf_count=17795 8 30 15 208 90 128 8 121 36 60 99 246 58 94 15 275 240
internal_value=4.53314e-05 0.009923 0.0393729 0 -0.0280087 0.0489407 -3.1416e-05 -0.0191244 -0.0458873 -0.0678282 2.88511e-05 0.00930038 -0.00443673 0.0190974 0.00630153 0.0173169 0.0372524
internal_weight=4544.6 93.8482 32.6727 61.1755 25.218 30.8039 4450.75 41.5959 21.3104 14.6688 4409.16 203.867 58.8145 145.052 123.049 102.445 47.281
internal_count=19526 479 151 328 120 143 19047 225 104 68 18822 1027 304 723 624 530 255
cat_boundaries=0 1 2 3
cat_threshold=4 2 112
is_linear=0
shrinkage=0.148754


Tree=42
num_leaves=18
num_cat=1
split_feature=11 11 11 11 11 11 4 4 11 11 11 9 7 6 1 11 11
split_gain=0.453351 4.97359 5.12067 2.34891 5.51283 3.19898 2.89273 3.214 2.1161 3.62356 3.7131 3.4594 2.61417 2.50433 1.89816 1.8935 2.61176
threshold=1180.5000000000002 1207.0000000000002 1224.5000000000002 1496.0000000000002 1462.5000000000002 1315.0000000000002 1.5000000000000002 11.500000000000002 1053.0000000000002 991.00000000000011 974.00000000000011 0 102.50000000000001 1.5000000000000002 1.5000000000000002 1343.5000000000002 1408.0000000000002
decision_type=2 2 2 2 2 2 2 2 2 2 2 9 2 2 2 2 2
left_child=8 -2 -3 4 5 6 -4 -8 9 10 -1 -10 14 -13 -12 -7 -17
right_child=1 2 3 -5 -6 15 7 -9 11 -11 12 13 -14 -15 -16 16 -18
leaf_value=0 -0.049695237606257422 0.049414618654929097 0 0.0022624687510361661 -0.063795185810558444 0.0355803658784552 -0.065987991284540942 0 -0.0078013997684819487 -0.036010601450722678 0 0.054291443637681729 0 0 0.066438278596189587 -0.045677963872481894 0.012899818518483274
leaf_weight=3662.0910810083151 41.542719334363937 37.280071273446083 26.210699692368507 373.69050902873278 37.834131389856339 38.753339976072311 37.687721729278564 7.4211472719907752 30.716066211462021 54.076785162091255 11.009788349270819 59.320782542228699 3.632371947169303 16.891600996255875 35.518385261297226 16.809223756194115 52.881821721792221
leaf_count=15649 180 167 116 1678 170 184 158 34 129 222 46 247 18 75 151 74 228
internal_value=0 -0.00339608 0 -0.00346915 -0.0159909 -0.000668649 -0.0268536 -0.0483497 0.000758465 0 0.000741364 0.0208258 0.0386603 0.0364499 0.0519145 0.0114333 0
internal_weight=4543.37 670.111 628.569 591.289 217.598 179.764 71.3196 45.1089 3873.26 3766.33 3712.25 106.928 50.1605 76.2124 46.5282 108.444 69.691
internal_count=19526 2989 2809 2642 964 794 308 192 16537 16086 15864 451 215 322 197 486 302
cat_boundaries=0 1
cat_threshold=36
is_linear=0
shrinkage=0.148754


Tree=43
num_leaves=18
num_cat=4
split_feature=1 0 9 7 11 3 11 1 3 7 11 11 9 9 11 11 10
split_gain=0.405584 1.48602 4.4156 3.71107 2.97396 1.51462 1.35562 1.34401 1.16583 1.46285 0.977033 2.27337 4.83107 2.48111 2.67308 1.43885 1.34427
threshold=3.5000000000000004 4.5000000000000009 0 11.500000000000002 324.50000000000006 1.5000000000000002 724.50000000000011 1.5000000000000002 1.5000000000000002 1.5000000000000002 598.50000000000011 986.50000000000011 1 2 1008.5000000000001 1602.0000000000002 3
decision_type=2 2 9 2 2 2 2 2 2 2 2 2 9 9 2 2 1
left_child=1 8 4 5 7 6 -4 -3 10 -10 16 12 -12 14 -13 -15 -1
right_child=-2 2 3 -5 -6 -7 -8 -9 9 -11 11 13 -14 15 -16 -17 -18
leaf_value=0.002061635947599456 -0.0010085182730332166 0 0.081156068810112614 0 0.011600544783671061 0 0 -0.050956387156618391 -0.063451019731819339 0 -0.0076638588849105233 -0.019173205266106566 0.029590753471266221 -0.02397825897168895 0.03342731492812967 0 -0.0084396663704587749
leaf_weight=773.91998580098152 2733.3220412582159 3.589454472064971 39.056148380041122 12.252973705530165 38.107236564159393 8.861270457506178 11.563726872205732 29.083814039826393 7.8235735148191479 12.876678138971327 84.563950642943382 9.3490795344114286 181.59074257314205 112.98523296415806 62.959795996546745 42.573246657848358 376.40869112312794
leaf_count=3252 11841 16 167 56 167 38 51 121 32 53 359 38 764 484 271 180 1636
internal_value=0 0.00184713 0.016199 0.0391837 -0.00448265 0.0597512 0.0686824 -0.0398899 0.000176678 -0.0298843 0.00105711 0.00672814 0.0162808 -0.00180366 0.0154501 -0.0141818 -0.000842515
internal_weight=4540.89 1807.57 142.515 71.7341 70.7805 59.4811 50.6199 32.6733 1665.05 20.7003 1644.35 494.022 266.155 227.867 72.3089 155.558 1150.33
internal_count=19526 7685 616 312 304 256 218 137 7069 85 6984 2096 1123 973 309 664 4888
cat_boundaries=0 1 2 3 4
cat_threshold=172 193 193 1
is_linear=0
shrinkage=0.148754


Tree=44
num_leaves=18
num_cat=3
split_feature=11 0 11 11 0 10 4 0 9 11 11 11 11 1 11 3 9
split_gain=0.403438 0.585682 0.556318 0.733109 0.737641 0.642474 0.443963 1.61506 1.92854 2.77737 1.49934 1.15444 1.22429 1.15072 1.49018 2.65634 1.83387
threshold=17.500000000000004 7.5000000000000009 22.500000000000004 23.500000000000004 11.500000000000002 0 1.5000000000000002 6.5000000000000009 1 324.50000000000006 71.500000000000014 270.50000000000006 36.500000000000007 1.5000000000000002 132.50000000000003 1.0000000180025095e-35 2
decision_type=2 2 2 2 2 1 2 2 9 2 2 2 2 2 2 2 9
left_child=1 -1 5 4 -4 -2 13 8 10 11 -8 12 -10 14 15 16 -5
right_child=2 -3 3 6 -6 -7 7 -9 9 -11 -12 -13 -14 -15 -16 -17 -18
leaf_value=0 -0.036486137581700856 0.039100741821340601 0.037468452205818396 -0.028335932256667685 0 0 0.02185499666511985 -0.00083281081036639878 -0.017967720642991094 0.029142794138640637 -0.0033313611309837882 -0.037594144531076248 0.013829110051392989 -0.0058768324299027881 0.0063106632242358419 0.030996333929835432 0
leaf_weight=11.948878362774851 13.746797919273376 8.1359920054674131 17.004210740327839 91.0933658182621 4.5033586621284476 35.008153170347214 54.809542894363403 2050.5196660682559 14.594513535499571 163.25227938592434 358.42753937840462 9.2597102969884855 119.88915404677391 882.59210528433323 555.94085630774498 20.362907618284225 128.53981283307076
leaf_count=49 60 36 70 388 19 148 228 8971 61 691 1509 39 499 3787 2343 84 544
internal_value=0 0.018435 -1.75767e-05 2.15571e-05 0.0242073 -0.0149692 0 0.00102284 0.00715774 0.0157228 0 0 0.00514637 -0.00202651 0.0014497 -0.00706108 -0.014203
internal_weight=4539.63 20.0849 4519.54 4470.79 21.5076 48.755 4449.28 2770.75 720.233 306.996 413.237 143.743 134.484 1678.53 795.937 239.996 219.633
internal_count=19526 85 19441 19233 89 208 19144 11998 3027 1290 1737 599 560 7146 3359 1016 932
cat_boundaries=0 1 2 3
cat_threshold=2 88 17
is_linear=0
shrinkage=0.148754


Tree=45
num_leaves=18
num_cat=2
split_feature=11 11 9 11 11 7 4 11 7 11 1 0 7 9 7 1 3
split_gain=0.423644 2.13978 3.30031 2.7407 2.26477 2.21461 1.7981 1.75102 1.90372 2.27483 1.6585 1.59934 1.44276 1.19085 1.61941 1.47655 2.44962
threshold=73.500000000000014 97.500000000000014 0 87.500000000000014 107.50000000000001 21.500000000000004 6.5000000000000009 77.500000000000014 2.5000000000000004 83.500000000000014 1.0000000180025095e-35 12.500000000000002 8.5000000000000018 1 1.0000000180025095e-35 9.5000000000000018 1.0000000180025095e-35
decision_type=2 2 9 2 2 2 2 2 2 2 2 2 2 9 2 2 2
left_child=6 2 3 7 11 10 13 -2 9 -9 -5 12 -3 15 -15 16 -1
right_child=1 4 -4 5 -6 -7 -8 8 -10 -11 -12 -13 -14 14 -16 -17 -18
leaf_value=0.0035605378719279846 0 0.041307399955658158 -0.038129718668096585 0 -0.000346158623943988 0 0.02311424238540264 0.06735699647279822 0 0 -0.057949911758776534 0 0 0 -0.020690003949601705 -0.011049490713062779 0.046527543311569414
leaf_weight=280.76092559099197 33.668855831027031 62.419223785400391 67.488873705267906 4.7844608873128882 3477.386554799974 5.0224085748195639 83.399447076022625 26.737112611532211 15.915366962552069 23.290180310606956 32.001651138067245 22.957719907164574 7.393676593899726 203.5423983335495 105.75389800965786 49.862764105200768 36.055702224373817
leaf_count=1182 144 263 288 20 15011 24 380 113 69 98 136 101 31 866 445 206 149
internal_value=0 -0.000586782 -0.015034 0 0.000102409 -0.0297649 0.00324694 0.0130914 0.0280825 0.0419691 -0.0461528 0.0224192 0.033469 0 -0.00599839 0.00618375 0.0112478
internal_weight=4538.44 3779.07 208.909 141.42 3570.16 41.8085 759.375 99.6115 65.9427 50.0273 36.7861 92.7706 69.8129 675.976 309.296 366.679 316.817
internal_count=19526 16298 892 604 15406 180 3228 424 280 211 156 395 294 2848 1311 1537 1331
cat_boundaries=0 1 2
cat_threshold=105 209
is_linear=0
shrinkage=0.148754


Tree=46
num_leaves=18
num_cat=2
split_feature=4 4 11 3 11 4 7 1 7 6 9 11 11 7 10 2 5
split_gain=0.401206 1.54829 1.10097 0.893349 1.69758 0.750835 0.529877 0.418198 0.401507 3.13879 2.50839 3.61546 2.34801 1.81748 2.40567 1.80983 1.71606
threshold=41.500000000000007 36.500000000000007 200.50000000000003 1.0000000180025095e-35 237.00000000000003 121.50000000000001 3.5000000000000004 65.500000000000014 68.500000000000014 1.5000000000000002 0 153.00000000000003 229.50000000000003 172.50000000000003 1 3.5000000000000004 1.5000000000000002
decision_type=2 2 2 2 2 2 2 2 2 2 9 2 2 2 1 2 2
left_child=1 8 -3 -2 -5 6 -6 -8 -1 10 -10 16 -11 14 -13 -16 -12
right_child=3 2 -4 4 5 -7 7 -9 9 12 11 13 -14 -15 15 -17 -18
leaf_value=0.00047925354280627721 0 0 -0.054263583562223987 0 0 0 0 0.063111746793439102 0.0040701116011992444 0 0.049522288040422129 0 0.04500322336451832 0 -0.049756275094499078 0 0
leaf_weight=4137.5152162313461 19.716342642903328 2.3895486742258099 13.751380585134028 4.5138738453388241 1.8333932906389296 1.6582501530647267 2.3064288347959545 19.865874484181404 82.92370630800724 10.788250580430029 10.589742988348005 33.253477901220322 35.79647359251976 10.977845981717108 120.3270405381918 7.437081776559352 22.437511622905731
leaf_count=17603 110 12 71 25 9 10 14 124 390 49 44 153 170 51 539 44 108
internal_value=0 -0.00011868 -0.0392148 0.0125378 0.0280386 0.0455769 0.0523622 0.0577292 0 -0.00482523 -0.0122768 -0.0210692 0.0250299 -0.0317573 -0.0362668 -0.0451579 0.00896623
internal_weight=4538.08 4488.19 16.1409 49.8942 30.1778 25.6639 24.0057 22.1723 4472.05 334.531 287.946 205.023 46.5847 171.995 161.018 127.764 33.0273
internal_count=19526 19234 83 292 182 157 147 138 19151 1548 1329 939 219 787 736 583 152
cat_boundaries=0 1 2
cat_threshold=33 2
is_linear=0
shrinkage=0.148754


Tree=47
num_leaves=18
num_cat=3
split_feature=7 7 10 11 9 1 3 2 7 11 1 1 7 1 11 2 10
split_gain=0.430264 1.62015 1.4258 2.2368 1.68285 1.79884 1.67924 2.95554 3.58927 3.15609 1.91104 1.61923 2.43116 1.39041 1.33837 1.13397 1.02405
threshold=9.5000000000000018 6.5000000000000009 0 37.500000000000007 1 2.5000000000000004 1.0000000180025095e-35 3.5000000000000004 10.500000000000002 830.50000000000011 52.500000000000007 6.5000000000000009 164.50000000000003 88.500000000000014 27.500000000000004 1.5000000000000002 2
decision_type=2 2 1 2 9 2 2 2 2 2 2 2 2 2 2 2 1
left_child=1 -1 3 -2 5 -5 10 8 15 11 -4 -10 14 -7 -13 -8 -3
right_child=2 16 6 4 -6 13 7 -9 9 -11 -12 12 -14 -15 -16 -17 -18
leaf_value=0 -0.025528864626258831 -0.021117944417686982 0.0099889785354160803 0 0 0.044152867958554984 0.051346238387279912 0.033370148813984361 0 0 -0.024438247057407936 0 0 0 -0.052207628505031092 0 0
leaf_weight=3457.0458462685347 9.5510234832763654 128.45406605303288 386.02806116640568 10.537209436297415 70.930770270526409 94.700155168771744 13.03307366371155 19.734578020870686 48.801646590232849 101.99239440262318 24.597917430102825 3.1560875773429862 8.1060029715299589 3.7937642931938163 104.4058815613389 4.0895365476608267 49.545766562223434
leaf_count=14641 41 541 1724 44 326 428 54 124 203 489 138 15 41 21 467 18 211
internal_value=0 -0.000648587 0.00296355 0.0142143 0.0205728 0.0304402 0 -0.00841756 -0.0142054 -0.0202985 0.00604446 -0.0326731 -0.0422984 0.0398106 -0.0488839 0.0331192 -0.0142466
internal_weight=4538.5 3635.05 903.458 189.513 179.962 109.031 713.945 303.319 283.585 266.462 410.626 164.47 115.668 98.4939 107.562 17.1226 178
internal_count=19526 15393 4133 860 819 493 3273 1411 1287 1215 1862 726 523 449 482 72 752
cat_boundaries=0 1 2 3
cat_threshold=2 85 1
is_linear=0
shrinkage=0.148754


Tree=48
num_leaves=18
num_cat=1
split_feature=3 11 11 11 11 11 11 0 1 0 11 11 11 11 10 11 4
split_gain=0.454802 0.901456 2.14498 1.08308 0.745602 0.656417 1.23445 1.06924 1.749 1.27176 0.832551 3.64785 1.79781 4.32122 2.6075 1.95968 2.28305
threshold=3.5000000000000004 1552.5000000000002 339.50000000000006 145.50000000000003 81.500000000000014 3316.5000000000005 2512.5000000000005 8.5000000000000018 1.0000000180025095e-35 20.500000000000004 1132.5000000000002 1113.5000000000002 1207.0000000000002 1224.5000000000002 0 1458.5000000000002 1.5000000000000002
decision_type=2 2 2 2 2 2 2 2 2 2 2 2 2 2 1 2 2
left_child=5 2 3 4 -2 6 10 8 -8 -9 11 -1 -12 -14 15 16 -15
right_child=1 -3 -4 -5 -6 -7 7 9 -10 -11 12 -13 13 14 -16 -17 -18
leaf_value=-1.7178418970635963e-05 0 0 0.033081329230441055 -0.032336483126419305 0.036408740320911744 -0.01602655564774378 0 -0.017333301276934703 0.04958710233813312 0.020736956768883971 -0.023474829818954358 0.051460004232213745 0.043672110611517156 0.016228758044445193 -0.014765131388772029 0.02597246416307978 -0.038970871029630448
leaf_weight=3702.333811879158 9.1363875418901461 33.138791866600513 64.458358429372311 16.005405053496361 6.8473731428384772 51.036252103745937 9.5214900523424131 30.36085270345211 30.027775093913078 33.732915967702866 100.25435741245747 24.377232119441032 35.691991910338402 12.38307875394821 281.93636744469404 71.500325761735439 24.926952555775642
leaf_count=15778 46 171 325 73 32 217 40 129 125 175 430 99 162 55 1245 317 107
internal_value=0 0.00853631 0.0170518 0 0.00589085 -0.000196662 0 0.0155826 0.0331747 0 -0.000390289 0.000231042 -0.00595111 -6.10699e-05 -0.0063016 0.00962296 -0.00608724
internal_weight=4537.67 129.586 96.4475 31.9892 15.9838 4408.08 4357.05 103.643 39.5493 64.0938 4253.4 3726.71 526.693 426.439 390.747 108.81 37.31
internal_count=19526 647 476 151 78 18879 18662 469 165 304 18193 15877 2316 1886 1724 479 162
cat_boundaries=0 1
cat_threshold=2
is_linear=0
shrinkage=0.148754


Tree=49
num_leaves=18
num_cat=4
split_feature=4 0 3 3 10 9 2 11 9 9 5 11 4 1 5 3 11
split_gain=0.334997 2.58546 2.28678 1.81612 2.44649 2.08519 2.05551 2.92923 1.65228 1.46298 1.35889 1.24223 1.37315 1.28745 1.23967 2.14265 1.15251
threshold=2.5000000000000004 6.5000000000000009 1.5000000000000002 1.5000000000000002 0 1 2.5000000000000004 752.50000000000011 2 3 2.5000000000000004 51.500000000000007 36.500000000000007 10.500000000000002 10.500000000000002 2.5000000000000004 27.500000000000004
decision_type=2 2 2 2 1 9 2 2 9 9 2 2 2 2 2 2 2
left_child=2 8 -1 9 6 14 7 16 -2 -3 -7 -12 13 -13 15 -6 -5
right_child=1 3 -4 4 5 10 -8 -9 -10 -11 11 12 -14 -15 -16 -17 -18
leaf_value=-0.00016416865868576312 0 -0.0087131352805095534 -0.031676336167298487 0 0 0 0 0 0.022056661375328426 0.00024075117361591907 0 0 0 0.048000243351149087 0.0060793894112899051 -0.036034206058140325 0.076860493220214599
leaf_weight=2402.0916771739721 80.588852554559708 553.74308857321739 47.218345761299133 1.152215227484702 34.096617959439754 46.355672538280487 9.3475979194045049 18.713602796196938 185.35586081445217 962.87849024683237 3.3638183027505866 14.428600654006003 14.162489019334314 57.950470119714737 8.6947909221053106 65.168891675770283 30.93779382109642
leaf_count=10171 342 2366 197 5 151 194 52 88 792 4226 17 64 83 282 57 304 135
internal_value=0 0.00144504 -0.00111304 -0.000229595 0.00971844 7.54753e-05 0.0354729 0.0475705 0.0150314 -0.0026818 0.0138569 0.0252778 0.0309614 0.0389642 -0.0116578 -0.0207111 0.0711566
internal_weight=4536.25 2086.94 2449.31 1820.99 304.373 244.221 60.1512 50.8036 265.945 1516.62 136.261 89.9054 86.5416 72.3791 107.96 99.2655 32.09
internal_count=19526 9158 10368 8024 1432 1152 280 228 1134 6592 640 446 429 346 512 455 140
cat_boundaries=0 1 2 3 4
cat_threshold=2 212 65 140
is_linear=0
shrinkage=0.148754


Tree=50
num_leaves=18
num_cat=2
split_feature=7 1 0 10 11 11 4 1 11 7 7 1 9 11 0 1 4
split_gain=0.380525 2.56095 3.92263 4.59747 2.96495 3.12336 2.70692 2.57319 2.40051 2.40833 2.32165 2.04393 1.88608 3.81257 1.75087 2.58172 1.99916
threshold=1.5000000000000002 8.5000000000000018 13.500000000000002 0 108.50000000000001 42.500000000000007 5.5000000000000009 12.500000000000002 140.50000000000003 132.50000000000003 102.50000000000001 60.500000000000007 1 49.500000000000007 17.500000000000004 21.500000000000004 12.500000000000002
decision_type=2 2 2 1 2 2 2 2 2 2 2 2 9 2 2 2 2
left_child=-1 12 6 -4 5 -5 -3 -6 -9 10 14 -7 -2 -14 -10 16 -16
right_child=1 2 3 4 7 11 -8 8 9 -11 -12 -13 13 -15 15 -17 -18
leaf_value=-0.00099370755601036593 -0.00051226157481283597 -0.032669675237573081 0.023941884255806851 0 0.037503346545772503 -0.055381402571058481 0 0.036632392242523577 0.010563870429770613 0.012978447938350728 -0.050866187005283357 0 -0.01844003558423421 0.018791130784271946 -0.043203793988737395 0 0
