tree
version=v4
num_class=1
num_tree_per_iteration=1
label_index=0
max_feature_idx=11
objective=binary sigmoid:1
feature_names=activity_len actions_0 actions_2 actions_3 unique_items unique_categories unique_brands day_span has_1111 age_range gender merchant_freq
feature_infos=[0:37] [0:1268] [0:10] [0:107] [0:504] [0:33] [0:19] [0:184] [0:1] -1:3:0:4:2:5:6:7:8 -1:0:1:2 [1:3379]
tree_sizes=2019 2067 2056 2106 2071 2051 2075 2055 2054 2082 2053 2050 2049 2046 2092 2045 1989 2053 2056 2065 2023 2070 2075 2009 2067 1984 2026 2026 2066 2011 2010 1993 1898 2046 2023 2020 2052 1951 2075 1939 1916 1998 1978 2023 1975 2050 1998 1897 1816 1876 1969 1816 1895 2019 1989 1932 1948 1924 1938 1916 2049 1854 1816 1920 1912 1893 1838 1867 1951 2028 1980 1885 1954 1859 2002 1878 1985 1980 1980 1965 1906 1871 1825 1911 1925 1768 2003 1992 1920 1892 1794 1830 1970 1791 1970 2026 2015 1867 1925 1839 1942 1943 1932 1939 1903 1817 1880 1976 1937 1867 1945 1851 1860 1890 1925 1822 1999 1956 1947 2001 1851 1944 1921 1934 1931 1853 1864 1947 1902 1939 2021 1966 1891 1906

Tree=0
num_leaves=18
num_cat=0
split_feature=4 2 7 7 4 2 2 11 7 11 11 11 11 4 11 5 2
split_gain=1208.71 369.172 219.462 149.252 98.4315 69.2375 66.3112 41.6493 35.4227 29.9021 58.4745 52.6238 77.6786 23.8585 23.6646 23.4791 21.1025
threshold=8.5000000000000018 1.5000000000000002 10.500000000000002 9.5000000000000018 17.500000000000004 2.5000000000000004 2.5000000000000004 469.50000000000006 10.500000000000002 537.00000000000011 689.50000000000011 605.50000000000011 620.00000000000011 1.5000000000000002 537.00000000000011 5.5000000000000009 1.5000000000000002
decision_type=2 2 2 2 2 2 2 2 2 2 2 2 2 2 2 2 2
left_child=1 3 6 9 16 8 -2 -5 14 13 11 -11 -13 -1 -3 -6 -4
right_child=2 5 4 7 15 -7 -8 -9 -10 10 -12 12 -14 -15 -16 -17 -18
leaf_value=-2.7904630885679209 -2.6850214706482984 -2.7312686031468698 -2.6308072516649492 -2.7354129196165271 -2.5609234061819532 -2.6233809085344024 -2.5736751858830993 -2.6688384378937671 -2.6262030359731958 -2.7511519019809292 -2.7696724394092667 -2.3693936204576778 -2.6877403964373991 -2.7650918944081169 -2.680869400238397 -2.3975006901877256 -2.5246345251095512
leaf_weight=2549.1622030735016 432.20930325984955 555.53363686800003 172.64258433878422 443.00305312871933 70.389028400182724 350.85428430140018 178.44135421514511 359.00701026618481 117.58297729492188 182.68995788693428 1547.6974213570356 15.61648917198181 124.35777774453163 1491.776610866189 307.39221701025963 160.41349539160728 107.1911223679781
leaf_count=44400 7528 9676 3007 7716 1226 6111 3108 6253 2048 3182 26957 272 2166 25983 5354 2794 1867
internal_value=-2.73127 -2.75147 -2.58702 -2.76572 -2.5146 -2.68027 -2.65018 -2.70616 -2.70183 -2.77393 -2.75749 -2.70142 -2.634 -2.78132 -2.71355 -2.43887 -2.58429
internal_weight=9165.96 8044.67 1121.29 6713.31 510.636 1331.36 610.651 802.01 980.509 5911.3 1870.36 322.664 139.974 4040.94 862.926 230.803 279.834
internal_count=159648 140118 19530 116929 8894 23189 10636 13969 17078 102960 32577 5620 2438 70383 15030 4020 4874
is_linear=0
shrinkage=1


Tree=1
num_leaves=18
num_cat=0
split_feature=5 2 4 7 7 2 2 11 11 11 11 2 7 7 2 11 4
split_gain=830.478 210.625 164.591 80.8471 66.6761 36.7867 33.9654 30.8542 30.1531 40.6185 49.2353 20.6373 19.5676 18.2434 17.8939 15.6484 14.8197
threshold=2.5000000000000004 1.5000000000000002 19.500000000000004 9.5000000000000018 9.5000000000000018 1.5000000000000002 2.5000000000000004 593.50000000000011 464.50000000000006 1224.5000000000002 1207.0000000000002 2.5000000000000004 27.500000000000004 91.500000000000014 1.5000000000000002 562.00000000000011 4.5000000000000009
decision_type=2 2 2 2 2 2 2 2 2 2 2 2 2 2 2 2 2
left_child=1 3 4 8 5 -2 15 13 -1 10 -10 12 -4 -5 -6 16 -3
right_child=2 6 11 7 14 -7 -8 -9 9 -11 -12 -13 -14 -15 -16 -17 -18
leaf_value=-0.048097061809698534 0.0090376279186385189 -0.0064687926609683713 0.062362036302508944 -0.023518274682457853 0.080039044054587671 0.070008859636837548 0.082632503739591551 0.054528021395683211 -0.015540967792221543 -0.05965293968432929 0.16195069466086598 0.24424915448567777 0.17707466716657233 0.050215354904423748 0.14791271703703432 0.04699148316265591 0.052358665845761133
leaf_weight=3470.1464532986283 456.05331538245082 457.46414366364479 82.406428471207619 384.80847751349211 331.5732924118638 475.31271265074611 265.34881120175123 251.6185464411974 1460.479808088392 530.10496025159955 28.782142154872417 122.36654299497604 140.12422498315573 82.283313762396574 209.7555129788816 313.12471501156688 110.16657247021794
leaf_count=63125 7998 7916 1298 6643 5414 7701 4168 4132 25995 9534 517 1731 1886 1402 3165 5178 1845
internal_value=-0.000106983 -0.0224431 0.0896848 -0.0333128 0.0668061 0.0410993 0.035738 0.0128351 -0.0394799 -0.0242514 -0.0110236 0.18264 0.140253 -0.00867776 0.108892 0.020404 0.00426313
internal_weight=9171.92 7354.33 1817.59 6208.22 1472.69 931.366 1146.1 718.71 5489.51 2019.37 1489.26 344.897 222.531 467.092 541.329 880.755 567.631
internal_count=159648 130455 29193 111348 24278 15699 19107 12177 99171 36046 26512 4915 3184 8045 8579 14939 9761
is_linear=0
shrinkage=0.148754


Tree=2
num_leaves=18
num_cat=1
split_feature=4 2 5 7 7 2 9 2 11 11 4 4 11 11 11 11 4
split_gain=586.246 141.909 114.177 49.8322 46.4683 31.4436 27.1532 22.5265 19.2907 18.2272 16.09 13.7705 13.3112 12.5012 39.6687 12.1285 11.1965
threshold=5.5000000000000009 1.5000000000000002 5.5000000000000009 24.500000000000004 8.5000000000000018 1.5000000000000002 0 3.5000000000000004 469.50000000000006 1132.5000000000002 20.500000000000004 2.5000000000000004 3316.5000000000005 584.00000000000011 689.50000000000011 605.50000000000011 1.5000000000000002
decision_type=2 2 2 2 2 2 9 2 2 2 2 2 2 2 2 2 2
left_child=1 3 4 6 5 -2 13 10 -3 16 -4 -8 -6 -1 15 -15 -10
right_child=2 8 7 -5 12 -7 11 -9 9 -11 -12 -13 -14 14 -16 -17 -18
leaf_value=-0.048497521344759063 -0.001966344778400585 0.008641428070603592 0.067421576458036189 0.021805608365378499 0.081585530920791807 0.051871677229497704 -0.025912210682631411 0.18449729329249359 0 0 0.13459666993500696 0.0020854686025219729 -0.021761542430017374 -0.00042067050146745512 -0.038284255103676473 0.080780287755016902 0.08001854575403447
leaf_weight=2414.6270213983953 484.56214261054993 656.53674455732107 250.84635354578495 362.46531531587243 587.542863458395 429.84547506272793 1645.9460760056973 135.15184776484966 61.703285697847605 143.16020935028791 224.26956054568291 452.98055461421609 16.309932667762041 48.430458892136812 889.95611456409097 80.125838939100504 281.89777513965964
leaf_count=45505 8534 10880 3680 5996 8739 6564 30773 1695 999 2224 2722 8227 237 865 16274 1313 4421
internal_value=-0.000146018 -0.0209117 0.0680732 -0.0302635 0.0452336 0.0228182 -0.0338124 0.122824 0.0266453 0.0492048 0.101794 -0.019482 0.0775426 -0.0421557 -0.0266999 0.0467769 0.0675658
internal_weight=9166.36 7037.83 2128.53 5894.53 1518.26 914.408 5532.07 610.268 1143.3 486.761 475.116 2098.93 603.853 3433.14 1018.51 128.556 343.601
internal_count=159648 127477 32171 108953 24074 15098 102957 8097 18524 7644 6402 39000 8976 63957 18452 2178 5420
cat_boundaries=0 1
cat_threshold=13
is_linear=0
shrinkage=0.148754


Tree=3
num_leaves=18
num_cat=1
split_feature=5 2 7 7 2 2 11 11 11 11 2 10 11 11 11 11 11
split_gain=416.199 116.175 61.8517 47.6654 30.4478 27.453 21.7689 32.3572 33.8422 21.1981 20.2451 10.7588 10.7398 44.7749 47.9657 29.7207 19.3277
threshold=2.5000000000000004 1.5000000000000002 30.500000000000004 9.5000000000000018 1.5000000000000002 2.5000000000000004 464.50000000000006 1224.5000000000002 1207.0000000000002 207.50000000000003 2.5000000000000004 0 698.50000000000011 605.50000000000011 620.00000000000011 822.50000000000011 991.00000000000011
decision_type=2 2 2 2 2 2 2 2 2 2 2 1 2 2 2 2 2
left_child=1 3 4 6 -2 -4 11 8 12 -5 -3 -1 13 -8 -15 -14 -17
right_child=2 10 5 9 -6 -7 7 -9 -10 -11 -12 -13 15 14 -16 16 -18
leaf_value=-0.031372837909593852 0.014363086047467482 0.01228786315280247 0.077669555162688406 -0.023459896898484604 0.060057083195912284 0.16303736741623337 -0.021027246918638175 -0.050867362534281771 0.1300538908620236 0.028068937901689496 0.058441819147046006 -0.051411671841141239 -0.054283727715678784 0.24714634476109321 0.027718267134940095 0.033395257708617752 -0.027248683380942895
leaf_weight=2076.0886946804821 638.56139554828405 919.78833523020148 520.94997140020132 263.63829419016838 768.33571042865515 130.03438373655081 437.82696226239204 489.79586927592754 32.494150053709745 471.56238121166825 293.59229727834463 1142.2255318127573 344.60861214250326 22.275800064206123 157.51908640563488 228.29318963363767 220.62408885359764
leaf_count=40698 10577 14939 6658 4597 10549 1409 8205 9534 517 7580 4168 22427 6438 284 2672 4270 4126
internal_value=-0.000173705 -0.0173224 0.0585564 -0.026012 0.0399284 0.0970778 -0.0310923 -0.017896 -0.00609462 0.00867781 0.0242248 -0.0387702 -0.010239 0.00358075 0.0656875 -0.0217479 0.00220594
internal_weight=9158.21 7100.33 2057.88 5886.95 1406.9 650.984 5151.75 1933.44 1443.64 735.201 1213.38 3218.31 1411.15 617.622 179.795 793.526 448.917
internal_count=159648 130455 29193 111348 21126 8067 99171 36046 26512 12177 19107 63125 25995 11161 2956 14834 8396
cat_boundaries=0 1
cat_threshold=1
is_linear=0
shrinkage=0.148754


Tree=4
num_leaves=18
num_cat=2
split_feature=4 2 5 7 7 9 4 7 2 9 11 3 11 4 2 11 0
split_gain=307.825 76.3865 49.1377 29.6545 22.3464 20.9514 15.7786 14.7738 18.2504 12.4342 12.3378 11.6637 9.94044 9.40059 8.97052 7.48558 9.00584
threshold=5.5000000000000009 1.5000000000000002 5.5000000000000009 11.500000000000002 4.5000000000000009 0 53.500000000000007 13.500000000000002 3.5000000000000004 1 207.50000000000003 1.0000000180025095e-35 464.50000000000006 2.5000000000000004 1.5000000000000002 479.50000000000006 1.5000000000000002
decision_type=2 2 2 2 2 9 2 2 2 9 2 2 2 2 2 2 2
left_child=1 3 4 5 14 -1 -4 8 9 -3 -5 -6 -11 15 -2 -7 -17
right_child=2 7 6 10 11 13 -8 -9 -10 12 -12 -13 -14 -15 -16 16 -18
leaf_value=-0.034975953097373502 -0.0019891007093631803 -0.015965570235192145 0.069546764133122579 -0.020575012529132651 0.064950660263394772 -0.027515553217752859 0.15933376411411884 0.07139024708672341 0.07144451184641637 0 0.023624274834990147 0.024415809457997723 0.038975669922479715 0.0044158043595735929 0.027981279996051895 0.031985000551088646 -0.014663769141395985
leaf_weight=3100.0924578085542 402.09866716340184 364.29192977026105 650.85649632290006 200.09964477643371 467.04134879633784 986.38654390722513 60.640289574861526 101.41395662724972 97.510217987000942 362.68018798530102 382.66692811250687 351.14839113503695 272.37234237790108 410.22305395081639 401.18942949920893 105.37048907577991 431.41745483875275
leaf_count=61761 7163 5744 7522 3564 6443 19869 575 1421 1344 5943 6013 4839 4072 7612 5629 2002 8132
internal_value=-0.000183397 -0.016223 0.0463103 -0.0235438 0.0311449 -0.027247 0.0794056 0.017498 0.0115573 0.00466803 0.00729399 0.0486514 0.0175276 -0.0141953 0.0122801 -0.0197207 -0.00405669
internal_weight=9147.5 6814.53 2332.97 5616.26 1621.48 5033.49 711.497 1198.27 1096.85 999.344 582.767 818.19 635.053 1933.4 803.288 1523.17 536.788
internal_count=159648 127477 32171 108953 24074 99376 8097 18524 17103 15759 9577 11282 10015 37615 12792 30003 10134
cat_boundaries=0 1 2
cat_threshold=13 12
is_linear=0
shrinkage=0.148754


Tree=5
num_leaves=18
num_cat=1
split_feature=4 4 1 5 11 11 7 9 7 11 11 2 11 11 2 2 11
split_gain=218.785 58.6359 40.2963 34.4166 22.2886 28.2776 19.5159 16.7482 13.6357 13.3027 25.309 12.6123 10.8205 13.1782 10.4755 10.0701 9.90173
threshold=5.5000000000000009 1.5000000000000002 1.5000000000000002 9.5000000000000018 537.00000000000011 1224.5000000000002 9.5000000000000018 0 3.5000000000000004 875.50000000000011 689.50000000000011 3.5000000000000004 402.00000000000006 3316.5000000000005 1.5000000000000002 1.5000000000000002 1458.5000000000002
decision_type=2 2 2 2 2 2 2 9 2 2 2 2 2 2 2 2 2
left_child=1 4 -3 6 -1 9 14 -4 -9 10 -6 -8 -5 -14 -2 -10 -13
right_child=3 2 7 12 5 -7 11 8 15 -11 -12 16 13 -15 -16 -17 -18
leaf_value=-0.035507446040081533 0.002592331434765306 0.056690342534869147 0.0081700702804096692 0.028175676155293428 0.031760939776921751 -0.048137242304894495 0.040652921039901042 -0.02291887772906951 -0.0045160434687183289 0.034423354895808361 -0.035840299616638482 0.12104704035192448 0.13661504136356875 0 0.031415526023914501 0.04396027137515332 0
leaf_weight=2408.6640146635473 574.98353249207139 251.01705078408122 1256.5593707859516 64.229716777801514 198.36641947180033 280.61905009299517 882.04239230230451 1221.1231288909912 453.4919898211956 248.44152279570699 287.15526397526264 83.595653004944324 126.38342360407114 14.988676272332667 657.84529852867126 109.31992092728615 15.539583541452883
leaf_count=49575 9884 4011 21911 612 3404 5711 10736 23165 8015 4601 5531 836 1165 143 8652 1553 143
internal_value=-0.000139648 -0.0140314 0 0.038083 -0.0276438 -0.00824008 0.0320513 -0.00462219 -0.0139585 0.00641533 -0.00685453 0.0481084 0.0971535 0.12162 0.0185741 0.00413927 0.102029
internal_weight=9134.37 6714.76 3291.51 2419.61 3423.25 1014.58 2214.01 3040.49 1783.94 733.963 485.522 981.178 205.602 141.372 1232.83 562.812 99.1352
internal_count=159648 127477 58655 32171 68822 19247 30251 54644 32733 13536 8935 11715 1920 1308 18536 9568 979
cat_boundaries=0 1
cat_threshold=240
is_linear=0
shrinkage=0.148754


Tree=6
num_leaves=18
num_cat=0
split_feature=5 2 11 11 11 3 11 11 5 2 7 7 11 11 11 11 11
split_gain=163.43 54.236 24.4447 57.3094 30.6912 21.1959 20.5236 60.864 17.7203 16.3344 16.0184 13.4266 12.7365 10.8322 29.46 22.9284 17.1268
threshold=2.5000000000000004 1.5000000000000002 598.50000000000011 620.00000000000011 605.50000000000011 7.5000000000000009 1224.5000000000002 1207.0000000000002 1.5000000000000002 3.5000000000000004 158.50000000000003 1.5000000000000002 3316.5000000000005 698.50000000000011 822.50000000000011 991.00000000000011 974.00000000000011
decision_type=2 2 2 2 2 2 2 2 2 2 2 2 2 2 2 2 2
left_child=1 2 10 4 -4 9 7 13 -8 11 -1 -2 -13 -5 -15 16 -16
right_child=5 -3 3 6 -6 -7 8 -9 -10 -11 -12 12 -14 14 15 -17 -18
leaf_value=-0.025638037827451186 0.0053534917766225312 0.015768829477352406 0.0019963600044925903 0.02578222927351426 0.22440598879879148 0.10370097014728602 -0.049811911688406992 0.15658407755551498 0.0058274856136619263 0.062897815406580362 0.083328146346745818 0.037035623145282533 -0.027488998458556721 -0.044453017784245409 0.017986310151169683 -0.021599724806591603 0.11927595764454071
leaf_weight=3804.1941475346684 621.33117702230811 1266.9858442656696 32.097382660955191 189.36801517382264 30.222169473767281 95.651788502931595 383.01875034719706 47.838271655142307 157.1891857162118 318.30705982446671 21.493940152227879 1195.7312623672187 55.773036435246468 370.10973937809467 235.28059703856707 251.22325074672699 45.366354733705521
leaf_count=78581 9483 19107 576 3098 328 911 8011 680 2885 3300 327 14823 676 7223 4185 4656 798
internal_value=-9.1849e-05 -0.0116827 -0.0180564 -0.00300613 0.129803 0.0342053 -0.00877561 0.00205193 -0.0325564 0.0305943 -0.0247238 0.0245713 0.0335253 -0.00497642 -0.0122772 0.00916507 0.0388296
internal_weight=9121.18 6834.39 5567.4 1741.71 62.3196 2286.79 1679.39 1139.19 540.208 2191.14 3825.69 1872.84 1251.5 1091.35 901.98 531.87 280.647
internal_count=159648 130455 111348 32440 904 29193 31536 20640 10896 28282 78908 24982 15499 19960 16862 9639 4983
is_linear=0
shrinkage=0.148754


Tree=7
num_leaves=18
num_cat=3
split_feature=4 4 2 7 1 7 11 1 9 11 10 11 11 2 2 1 9
split_gain=123.689 48.6772 24.4981 17.2638 16.5591 12.7907 12.0104 11.3031 10.4065 10.0963 9.4126 8.86 11.5882 8.73447 8.70212 7.70531 7.26164
threshold=8.5000000000000018 1.5000000000000002 2.5000000000000004 9.5000000000000018 1.0000000180025095e-35 30.500000000000004 905.00000000000011 8.5000000000000018 0 3316.5000000000005 1 505.50000000000006 1283.0000000000002 1.5000000000000002 3.5000000000000004 15.500000000000002 2
decision_type=2 2 2 2 2 2 2 2 9 2 1 2 2 2 2 2 9
left_child=1 4 3 8 -1 13 16 -5 -3 14 -10 -6 -13 15 -7 -2 -4
right_child=5 2 6 7 11 9 -8 -9 10 -11 -12 12 -14 -15 -16 -17 -18
leaf_value=-0.0015618015253887532 0.046738083633451784 -0.01916919957799787 0.063047836550578593 0.032271378983454509 -0.033796702953655562 0.047533027366426311 -0.0090623434694401695 0 -0.018232559401912259 -0.011433394797138107 0.0061296511026006448 -0.0029910325596359858 -0.049791447860951868 0.035975167271925332 0.1079838727202278 -0.0023603775093985501 0.0078333798223188776
leaf_weight=754.01518189534545 77.499557018280029 1033.2168068103492 226.68545007705688 459.73243529349566 1743.1146327964962 539.52746649086475 81.798832707107067 445.5064405836165 473.33964373543859 31.853768154978752 1294.8525551185012 637.3733529523015 148.81099373474717 608.28776150196791 85.300940588116646 338.8074422813952 125.19572652876377
leaf_count=15729 1210 19842 2833 7034 37825 5448 1027 6461 8762 312 23751 11938 3330 6915 661 4984 1586
internal_value=0 -0.00832667 0.00226131 -0.00150813 -0.021854 0.036286 0.0355165 0.0160611 -0.00743843 0.0533786 -6.82172e-05 -0.0276299 -0.0129843 0.0244498 0.0577865 0.00579999 0.0476617
internal_weight=9104.92 7423.64 4140.33 3706.65 3283.31 1681.28 433.68 905.239 2801.41 656.682 1768.19 2529.3 786.184 1024.59 624.828 416.307 351.881
internal_count=159648 140118 71296 65850 68822 19530 5446 13495 52355 6421 32513 53093 15268 13109 6109 6194 4419
cat_boundaries=0 1 2 3
cat_threshold=12 2 113
is_linear=0
shrinkage=0.148754


Tree=8
num_leaves=18
num_cat=4
split_feature=4 4 1 9 10 9 2 1 4 9 7 2 3 1 11 11 11
split_gain=92.1032 29.1484 24.3183 18.7281 16.142 10.3797 10.1185 9.85647 9.84579 9.55695 11.2185 8.17201 7.24397 6.64402 6.38401 5.99814 5.9653
threshold=2.5000000000000004 9.5000000000000018 2.5000000000000004 0 1 2 1.5000000000000002 1.0000000180025095e-35 1.5000000000000002 3 9.5000000000000018 2.5000000000000004 5.5000000000000009 14.500000000000002 1780.5000000000002 875.50000000000011 822.50000000000011
decision_type=2 2 2 9 1 9 2 2 2 9 2 2 2 2 2 2 2
left_child=3 2 -2 4 7 14 -5 8 -1 10 -3 16 13 -11 -4 -6 -7
right_child=1 9 5 6 15 11 -8 -9 -10 12 -12 -13 -14 -15 -16 -17 -18
leaf_value=-0.00098540582993515073 0.064460120225551823 0.020212008839664078 -0.0045314735889495136 -0.007431722013050068 -0.04362523626302444 0 0.023842119773442468 -0.019237939167753643 0.067218209468751303 0.063437930575666698 0.057187017649139818 0.035375062032929117 0.056557904631866759 0.00069530154199697644 -0.049968034631426045 -0.005320740401481866 0.020282359045660923
leaf_weight=317.45522861927748 144.9624908901751 396.98616305738688 984.99073974043131 1534.0203027129173 816.0236500389874 1097.9524949118495 257.901017870754 1481.2516504265368 45.801186591386795 36.640614099800587 523.0469767972827 243.6897945702076 78.099266935139894 496.58686278387904 73.543767467141151 148.28949149698019 419.15426680073142
leaf_count=6737 1969 5151 16591 31839 17514 18727 4024 30928 733 455 5054 2877 706 5611 1188 2981 6563
internal_value=-2.77071e-05 0.0150327 0.00612609 -0.0148848 -0.0224507 0.00276358 -0.00249093 -0.0137462 0.00684515 0.0317593 0.0417212 0.00989101 0.0145418 0.00688203 -0.00848719 -0.0384722 0.00531135
internal_weight=9096.4 4495.65 2964.29 4600.74 2808.82 2819.33 1791.92 1844.51 363.256 1531.36 920.033 1760.8 611.327 533.227 1058.53 964.313 1517.11
internal_count=159648 64892 47915 94756 58893 45946 35863 38398 7470 16977 10205 28167 6772 6066 17779 20495 25290
cat_boundaries=0 1 2 3 4
cat_threshold=13 1 140 113
is_linear=0
shrinkage=0.148754


Tree=9
num_leaves=18
num_cat=3
split_feature=4 7 9 10 5 9 11 11 7 1 4 11 11 11 11 11 11
split_gain=67.7146 23.4142 14.2493 12.6609 12.4853 12.3141 10.4412 23.7525 8.59585 7.35651 7.01995 6.86475 13.5856 7.20816 19.7685 8.75255 6.85368
threshold=2.5000000000000004 23.500000000000004 0 1 3.5000000000000004 2 603.00000000000011 637.00000000000011 158.50000000000003 1.0000000180025095e-35 1.5000000000000002 986.50000000000011 822.50000000000011 698.50000000000011 562.00000000000011 61.500000000000007 1207.0000000000002
decision_type=2 2 9 1 2 9 2 2 2 2 2 2 2 2 2 2 2
left_child=2 4 3 9 5 -2 -6 -8 -3 10 -1 12 13 14 15 -7 -13
right_child=1 8 -4 -5 6 11 7 -9 -10 -11 -12 16 -14 -15 -16 -17 -18
leaf_value=-0.00084241893116071011 -0.013797928390073374 0.023214451518415627 -0.0020727796680979713 -0.034131837516622306 0.003039148999084417 0.033608581489097789 0.16760623058431601 0.02528503384699728 0.059101589521508638 -0.016696998110490194 0.05525438163548952 -0.047002966846203954 0.061358350427431957 -0.024435624079190282 0.073920315274784654 -0.0025113056753155124 0.0006994811156108493
leaf_weight=317.17429331317544 870.54450814798474 1047.5472348704934 1787.0689345300198 932.15258637070656 464.05997468903661 174.53970541805029 24.380038730800152 437.01076240837574 213.48017448186874 1455.9116387329996 48.523400336503983 79.11984196677804 115.60615168884397 120.06641448289156 97.786922607570887 705.72232347726822 196.03219046443701
leaf_count=6737 15266 11674 35863 20495 5807 2995 279 5383 2109 30928 733 1230 1663 1962 1438 11904 3182
internal_value=-3.45989e-06 0.0127506 -0.0129139 -0.0196162 0.00586607 0 0.0204476 0.036303 0.0300584 -0.0118517 0.00565748 0.0082993 0.0134099 0.00746173 0.0121629 0.0041059 -0.0114513
internal_weight=9086.73 4545.9 4540.83 2753.76 3284.87 2359.42 925.451 461.391 1261.03 1821.61 365.698 1488.87 1213.72 1098.12 978.049 880.262 275.152
internal_count=159648 64892 94756 58893 51109 39640 11469 5662 13783 38398 7470 24374 19962 18299 16337 14899 4412
cat_boundaries=0 1 2 3
cat_threshold=13 1 140
is_linear=0
shrinkage=0.148754


Tree=10
num_leaves=18
num_cat=3
split_feature=2 5 0 11 11 11 11 11 9 1 11 11 11 11 11 10 9
split_gain=55.9363 21.2509 14.3985 13.6576 34.6002 33.3385 29.9851 23.3774 9.6034 8.1613 9.2006 7.80443 15.4743 13.3234 12.3616 7.20249 10.2165
threshold=1.5000000000000002 1.5000000000000002 26.500000000000004 584.00000000000011 1224.5000000000002 1207.0000000000002 620.00000000000011 605.50000000000011 0 65.500000000000014 61.500000000000007 1180.5000000000002 866.50000000000011 991.00000000000011 698.50000000000011 1 2
decision_type=2 2 2 2 2 2 2 2 9 2 2 2 2 2 2 1 9
left_child=1 3 15 -1 5 6 7 -5 -4 10 -3 12 14 -14 -8 16 -2
right_child=2 9 8 4 -6 -7 11 -9 -10 -11 -12 -13 13 -15 -16 -17 -18
leaf_value=-0.018963013794773734 0.032097370800513808 0.034598864173879251 0.054351265806674209 0.007865427087811681 -0.040609167037794248 0.12066063374640235 0.016790334292187858 0.16910228670257377 0.015171856181589513 0.049549320847242007 -0.00042388756055379578 -0.059089076748626686 0.060660918718738306 0 -0.030452174437713465 -0.0025649962261257804 0.0044638730666131995
leaf_weight=3015.2824655584991 556.17056347429752 173.05171627178788 354.89484876394272 56.894134897738695 354.03530440479517 54.308298051357269 160.41090865805745 35.782555095851421 371.40511794388294 81.233349610120058 1837.7087539508939 45.010354977101088 136.47349143028259 165.00234643369913 359.25891416892409 540.4862651899457 780.4842954389751
leaf_count=67255 7468 3085 3395 1072 8011 676 2613 328 3584 733 29177 867 2374 3220 7399 7694 10697
internal_value=0 -0.00745086 0.0183422 -0.0133716 -0.000539585 0.0129897 0.00548804 0.083335 0.0364447 0.00464728 0.00236661 -0.00263185 9.98589e-05 0.0273485 -0.0146145 0.0108983 0.0168103
internal_weight=9077.89 6474.45 2603.44 4382.46 1367.18 1013.14 958.833 92.6767 726.3 2091.99 2010.76 866.156 821.146 301.476 519.67 1877.14 1336.65
internal_count=159648 126810 32838 93815 26560 18549 17873 1400 6979 32995 32262 16473 15606 5594 10012 25859 18165
cat_boundaries=0 1 2 3
cat_threshold=81 1 97
is_linear=0
shrinkage=0.148754


Tree=11
num_leaves=18
num_cat=4
split_feature=7 4 1 1 9 4 9 11 11 11 3 10 1 3 10 11 11
split_gain=41.3306 17.7065 14.1503 10.1259 8.54101 8.21857 6.86979 6.28478 11.3539 5.9472 5.91817 9.56264 8.38194 5.59756 5.50957 5.0801 6.44663
threshold=9.5000000000000018 3.5000000000000004 1.0000000180025095e-35 2.5000000000000004 0 11.500000000000002 1 537.00000000000011 689.50000000000011 3316.5000000000005 1.0000000180025095e-35 2 9.5000000000000018 1.0000000180025095e-35 3 42.500000000000007 562.00000000000011
decision_type=2 2 2 2 9 2 9 2 2 2 2 1 2 2 1 2 2
left_child=1 2 7 -3 14 10 -5 -1 13 -7 11 -2 -12 -9 -4 -8 -17
right_child=5 3 4 6 -6 9 15 8 -10 -11 12 -13 -14 -15 -16 16 -18
leaf_value=-0.0028045478753359935 0.028192287438014288 0.070435239597034641 -0.01422489684869355 0.016205168605416737 -0.0053233854907206845 0.033896740873803725 0.032201821249816548 0.091514040116680476 0.0053717214821043793 -0.01323061642964049 0.016352941207611695 -0.004675595680682979 -0.020594368476719912 0 -0.031062381546781641 -0.014757363186962292 0.0051923601415454126
leaf_weight=536.69209285080433 598.15076289698482 46.745584316551685 1533.946872971952 642.76825440302491 1584.6459772996604 743.00785577297211 80.64203867316246 57.591260813176632 261.50474362820387 40.508206494152546 261.11479450389743 241.8977383300662 263.91221493855119 5.8942827656865111 804.19908083230257 690.27101594954729 671.72509689256549
leaf_count=11525 8304 570 33312 9378 31826 6508 1305 899 5005 381 4014 3495 3559 102 18412 11092 9961
internal_value=0 -0.00557643 -0.0106431 0.00548866 -0.0144808 0.0180146 0.00352008 0.00606216 0.0224353 0.0305574 0.0102388 0.017999 -0.00102608 0.076735 -0.0202719 -0.00182993 -0.00446696
internal_weight=9065.22 6916.63 4784.47 2132.15 3922.79 2148.59 2085.41 861.682 324.99 783.516 1365.08 840.049 525.027 63.4855 2338.15 1442.64 1362
internal_count=159648 133387 101081 32306 83550 26261 31736 17531 6006 6889 19372 11799 7573 1001 51724 22358 21053
cat_boundaries=0 1 2 3 4
cat_threshold=13 80 1 1
is_linear=0
shrinkage=0.148754


Tree=12
num_leaves=18
num_cat=1
split_feature=2 7 7 11 5 11 11 11 11 11 10 11 11 7 11 11 11
split_gain=35.9115 17.7585 10.4493 7.8927 7.99873 7.17347 30.6115 8.34413 21.334 13.8088 8.07064 6.77117 6.70232 5.39044 5.17245 16.3124 17.0727
threshold=1.5000000000000002 24.500000000000004 1.5000000000000002 3316.5000000000005 9.5000000000000018 598.50000000000011 689.50000000000011 822.50000000000011 991.00000000000011 974.00000000000011 0 827.50000000000011 335.50000000000006 168.50000000000003 537.00000000000011 674.00000000000011 603.00000000000011
decision_type=2 2 2 2 2 2 2 2 2 2 1 2 2 2 2 2 2
left_child=1 5 14 4 -4 10 -7 -8 9 11 -1 -9 -6 -3 -2 16 -16
right_child=2 13 3 -5 12 6 7 8 -10 -11 -12 -13 -14 -15 15 -17 -18
leaf_value=-0.0077657779437641595 -0.0016612437018447756 0.0079901013164722871 0.021468678272974922 -0.034458401145400094 0 0.048132581030051594 -0.028135578140843363 0.097485355388926456 -0.01445098556296839 0.098166292045405668 -0.023337756422638915 0.0030347488319805585 0.083391370003144824 0.049649344864823641 0 0.0034862170510893621 0.1377160176427801
leaf_weight=2412.6122458912432 835.56884577870369 863.62297737970948 1085.8640977367759 34.039658226072788 38.638555236160755 230.97274743393064 384.12240399420261 13.741673868149517 908.64624419435859 51.075577896088362 1212.9497296735644 251.41026477515697 95.529904082417488 79.837478674948215 46.63141917437315 473.14375635236502 40.283415108919144
leaf_count=52255 12305 10909 12004 345 287 3363 8065 255 18064 804 27933 4342 648 820 611 6154 484
internal_value=0 -0.00600435 0.0145643 0.0245318 0.02687 -0.0093265 -0.00135625 -0.00901749 -0.00238594 0.0298898 -0.0131842 0.01242 0.0631102 0.012496 0.00507804 0.0161823 0.0735361
internal_weight=9058.69 6408.99 2649.7 1254.07 1220.03 5465.53 1839.97 1609 1224.87 316.228 3625.56 265.152 134.168 943.46 1395.63 560.059 86.9148
internal_count=159648 126810 32838 13284 12939 115081 34893 31530 23465 5401 80188 4597 935 11729 19554 7249 1095
cat_boundaries=0 1
cat_threshold=1
is_linear=0
shrinkage=0.148754


Tree=13
num_leaves=18
num_cat=4
split_feature=4 2 9 7 1 1 7 11 4 11 11 10 11 11 1 9 9
split_gain=27.0804 15.6939 14.5874 10.0784 8.53696 7.85448 7.32648 5.31751 6.66054 4.88434 7.75554 5.13748 4.49919 5.71521 4.48543 4.41649 4.27106
threshold=1.5000000000000002 2.5000000000000004 0 2.5000000000000004 2.5000000000000004 1.0000000180025095e-35 46.500000000000007 61.500000000000007 4.5000000000000009 598.50000000000011 1283.0000000000002 1 620.00000000000011 875.50000000000011 1.5000000000000002 2 3
decision_type=2 2 9 2 2 2 2 2 2 2 2 1 2 2 2 9 9
left_child=5 3 -3 7 -5 -1 -4 8 -2 11 12 -7 -11 15 -9 -14 -13
right_child=1 2 6 4 -6 9 -8 14 -10 10 -12 16 13 -15 -16 -17 -18
leaf_value=0.0013319528303145716 0 0.039116612866796838 -0.0049544986761135487 0.045956900068664867 0.0066170984860393712 -0.012548556842730804 0.039070522389150743 0.017832638231446176 0.04762254430708647 0.058300662384638879 -0.035012325726108837 -0.04744997976830425 0.022798357976721972 0.0180511555903233 -0.0089661440305339908 -0.022963762696906868 -0.015599860866295967
leaf_weight=732.07206616178155 241.68097044155002 539.77421380579472 411.61966874450445 131.40505923330784 2310.0129297934473 1088.3241609819233 95.294637233018875 127.6921371743083 82.356539133936167 25.927413303405046 130.90352193638682 256.00328492745757 32.277174070477486 218.45526414364576 2053.3123781979084 222.39816570281982 347.5528671592474
leaf_count=15729 4966 5274 4468 1999 31667 25243 715 1982 1358 332 3330 6504 625 4070 38397 4537 8452
internal_value=1.29883e-05 0.00589248 0.0224545 0.00223376 0.0091092 -0.0113026 0.00238654 -0.00421563 0.0127175 -0.0155568 -0.00307203 -0.0197968 0.00435256 0 -0.00705573 -0.0142902 -0.0315472
internal_weight=9047.06 5993.15 1046.69 4946.46 2441.42 3053.91 506.914 2505.04 324.038 2321.84 629.962 1691.88 499.058 473.131 2181 254.675 603.556
internal_count=159648 90826 10457 80369 33666 68822 5183 46703 6324 53093 12894 40199 9564 9232 40379 5162 14956
cat_boundaries=0 1 2 3 4
cat_threshold=81 1 160 69
is_linear=0
shrinkage=0.148754


Tree=14
num_leaves=18
num_cat=3
split_feature=2 7 11 11 11 11 11 11 3 11 11 9 9 9 11 2 11
split_gain=20.6207 11.1774 6.92015 7.07625 16.6003 10.5777 15.2028 12.467 6.84803 6.60404 6.17205 6.05225 5.91867 5.76938 6.2717 7.05365 6.66647
threshold=1.5000000000000002 146.50000000000003 17.500000000000004 584.00000000000011 674.00000000000011 822.50000000000011 986.50000000000011 974.00000000000011 7.5000000000000009 897.50000000000011 698.50000000000011 0 1 2 38.500000000000007 3.5000000000000004 479.50000000000006
decision_type=2 2 2 2 2 2 2 2 2 2 2 9 9 9 2 2 2
left_child=1 2 -1 -4 -5 10 7 9 11 -7 -6 -8 -3 -2 -15 16 -16
right_child=13 12 3 4 5 6 8 -9 -10 -11 -12 -13 -14 14 15 -17 -18
leaf_value=0.063793857970443638 -0.0075609059494248206 0.065296674600043125 -0.010145726615453968 0.034737805239887821 0.0055189319097788602 0.0303315401682023 0.0076119588770102008 0.1123592514609693 0.06568612804544012 -0.013040289917979465 -0.032121641338482977 -0.015279402696790297 0.0058123060913394756 0.047658670319986406 -0.0025110540308555724 0.027659353460338171 0.014987344199955751
leaf_weight=23.662031184881926 281.60378400608897 52.955736596137285 3842.1200472153723 266.90746197849512 89.544349368661642 226.84130590036511 313.81652630493045 32.108385808765888 20.428839188069105 87.717479411512613 384.21323666349053 835.93420514836907 169.97417142242193 118.97024685516953 843.08798886835575 479.15607009083033 971.32505068555474
leaf_count=542 3671 541 83802 3863 1458 3798 5446 463 179 1369 7993 15538 1818 1618 11626 4412 11511
internal_value=2.23226e-05 -0.00453473 -0.00582353 -0.00626372 6.73391e-05 -0.00435086 0.00133386 0.0287529 -0.00634806 0.0162038 -0.0236812 -0.00853132 0.0272469 0.0109819 0.0134031 0.0112802 0.00652061
internal_weight=9040.37 6346.22 6123.29 6099.63 2257.51 1990.6 1516.85 346.667 1170.18 314.559 473.758 1149.75 222.93 2694.14 2412.54 2293.57 1814.41
internal_count=159648 126810 124451 123909 40107 36244 26793 5630 21163 5167 9451 20984 2359 32838 29167 27549 23137
cat_boundaries=0 1 2 3
cat_threshold=336 96 388
is_linear=0
shrinkage=0.148754


Tree=15
num_leaves=18
num_cat=4
split_feature=4 9 0 1 1 5 7 9 3 7 0 3 4 10 4 10 7
split_gain=17.4538 8.28595 8.73646 7.80419 5.91257 4.7524 4.51961 4.03125 4.17599 3.55015 3.53187 4.91322 3.48708 4.30207 3.44249 3.25571 3.14693
threshold=1.5000000000000002 0 34.500000000000007 2.5000000000000004 1.0000000180025095e-35 3.5000000000000004 158.50000000000003 1 1.0000000180025095e-35 35.500000000000007 33.500000000000007 4.5000000000000009 2.5000000000000004 2 5.5000000000000009 3 82.500000000000014
decision_type=2 9 2 2 2 2 2 9 2 2 2 2 2 1 2 1 2
left_child=4 5 3 12 -1 9 16 15 -9 -2 -7 -12 13 -3 -14 -6 -5
right_child=1 2 -4 6 7 10 -8 8 -10 -11 11 -13 14 -15 -16 -17 -18
leaf_value=0.0018197496287869225 -0.026236332484746498 -0.014038800301202871 0.021071527226998697 0.0020329549467991031 -0.012979681370529909 0.026308553318134725 0.029204805159991128 -0.01030134314310421 0.014127183797365234 0.0069395249014620203 -0.041755667551000804 0.025146609041227248 0.050662737103164018 0.02081539544355071 0 -0.036664842827808651 -0.013256839809567952
leaf_weight=729.66655426472425 362.74834981188178 83.367508925497532 810.74529012292624 3692.5270666629076 534.14298678934574 98.827627491205931 123.19550646468997 1324.935090597719 149.14132224395871 50.297162633389235 52.005458857864141 24.681574072688818 130.29800222441554 260.59061494842172 19.935970332473516 270.51352393627167 312.96857784315944
leaf_count=15729 7036 1558 7452 61015 12476 1243 1279 30291 3330 671 505 195 1576 4454 211 6996 3631
internal_value=9.97647e-05 0.00479149 0.00668224 0.00400876 -0.00906829 -0.0113864 0.00170907 -0.012833 -0.00729524 -0.0206122 0.00610412 -0.012155 0.0216715 0.0104232 0.0418636 -0.0216905 0.000658617
internal_weight=9030.59 6022.19 5433.63 4622.88 3008.4 588.56 4128.69 2278.73 1474.08 413.046 175.515 76.687 494.192 343.958 150.234 804.657 4005.5
internal_count=159648 90826 81176 73724 68822 9650 65925 53093 33621 7707 1943 700 7799 6012 1787 19472 64646
cat_boundaries=0 1 2 3 4
cat_threshold=4 5 2 1
is_linear=0
shrinkage=0.148754


Tree=16
num_leaves=18
num_cat=5
split_feature=4 2 9 11 11 11 1 11 9 10 1 11 11 10 11 5 9
split_gain=12.8407 6.52104 9.39895 5.35163 7.51673 5.9337 5.09015 4.98848 4.46111 4.28155 4.12835 5.09034 4.92148 4.54284 5.90702 6.9225 5.54882
threshold=1.5000000000000002 2.5000000000000004 0 537.00000000000011 1224.5000000000002 1602.0000000000002 142.50000000000003 1343.5000000000002 1 2 28.500000000000004 153.00000000000003 562.00000000000011 3 38.500000000000007 1.5000000000000002 4
decision_type=2 2 9 2 2 2 2 2 9 1 2 2 2 1 2 2 9
left_child=3 8 -3 -1 -5 9 7 -4 -2 -6 13 -12 -13 -10 15 -15 -16
right_child=1 2 6 4 5 -7 -8 -9 10 -11 11 12 -14 14 16 -17 -18
leaf_value=-0.012122751164088648 -0.011168501718048049 0.027458290115789232 0.0021535550510765823 0.0088951398657177386 0 0.005334628755634379 0.075636129659876497 -0.036262905755134231 -0.0073459561785087423 -0.054339650469695779 0.04628713587464342 -0.011998852189117183 0.017939982879605142 0 0.019923826216153073 0.062948661295718467 0
leaf_weight=2036.4923221431673 499.96969620510936 567.9147694259882 423.89895599335432 720.39954933896661 45.034697514027357 75.451178599148989 12.69030926376581 79.80986150354147 947.9377532415092 106.65207858756185 97.121207881718874 158.81581598892808 333.06566670909524 84.741749707609415 335.54538905248046 75.302346087992191 2425.6738076992333
leaf_count=49575 8790 5274 4346 13536 1145 1934 81 756 16970 2632 1092 1748 3269 1661 5294 1201 40344
internal_value=9.05462e-05 0.00410293 0.0145986 -0.00780987 0.000800444 -0.0216588 0 -0.00303155 0.00166212 -0.0388627 0.00327693 0.0149329 0.00694702 0.00132328 0.00436673 0.0319512 0.00246661
internal_weight=9026.52 6042.49 1084.31 2984.03 947.538 227.138 516.399 503.709 4958.17 151.687 4458.2 589.003 491.881 3869.2 2921.26 160.044 2761.22
internal_count=159648 90826 10457 68822 19247 5711 5183 5102 80369 3777 71579 6109 5017 65470 48500 2862 45638
cat_boundaries=0 1 2 3 4 5
cat_threshold=81 4 2 2 288
is_linear=0
shrinkage=0.148754


Tree=17
num_leaves=18
num_cat=5
split_feature=7 9 10 5 7 1 9 9 2 7 5 0 4 0 3 10 4
split_gain=11.2906 7.12396 8.4189 5.00336 4.70623 4.20284 5.36537 3.99369 3.81586 4.83079 3.96767 4.55541 3.36657 2.86163 2.80674 4.61282 2.60398
threshold=9.5000000000000018 0 1 2.5000000000000004 6.5000000000000009 1.0000000180025095e-35 2 3 1.5000000000000002 1.0000000180025095e-35 7.5000000000000009 29.500000000000004 13.500000000000002 31.500000000000004 1.0000000180025095e-35 4 56.500000000000007
decision_type=2 9 1 2 2 2 9 9 2 2 2 2 2 2 2 1 2
left_child=1 2 -1 5 8 -4 -7 16 -3 12 -11 -12 -10 14 15 -9 -2
right_child=7 4 3 -5 -6 6 -8 13 9 10 11 -13 -14 -15 -16 -17 -18
leaf_value=-0.040569425537742294 -0.00055889345176691248 0.0001842306720561023 0.0035273320452194642 0.0053464007875770256 -0.022002061357137937 -0.0066825433855173273 -0.025023132289879693 0.022191054020697237 0.0076566379422726401 0.018885058305775616 0 0.11642738829573308 -0.030012581964869611 0.025683680917054492 -0.00064455208248576502 -0.0032084920092825138 0.039734862497919431
leaf_weight=158.4013883471489 819.87868464365602 1873.4303838983178 494.77020785585046 707.41971760615706 147.74300224706531 2088.9807940870523 479.2906424254179 478.4883208796382 490.38057020679116 275.41621801257133 4.2713045477867153 17.799199096858501 48.817307449877262 406.30689512565732 327.26728071272373 172.26957884430885 30.23748940974474
leaf_count=3358 10163 39158 10369 9819 2371 46265 11383 5968 6584 3408 42 146 484 3202 4384 2349 195
internal_value=0.000103282 -0.0028445 -0.00698617 -0.00535862 0.00264161 -0.00804732 -0.0105313 0.0093282 0.00427971 0.0126146 0.0279288 0.0890928 0.00275982 0.0142203 0.00881452 0.0145166 0.000391397
internal_weight=9021.17 6786.72 3928.86 3770.46 2857.86 3063.04 2568.27 2234.45 2710.11 836.685 297.487 22.0705 539.198 1384.33 978.025 650.758 850.116
internal_count=159648 133387 81194 77836 52193 68017 57648 26261 49822 10664 3596 188 7068 15903 12701 8317 10358
cat_boundaries=0 1 2 3 4 5
cat_threshold=13 4 9 140 1
is_linear=0
shrinkage=0.148754


Tree=18
num_leaves=18
num_cat=4
split_feature=7 9 11 10 7 11 11 11 7 1 11 11 11 11 11 10 9
split_gain=8.09569 5.31174 6.96154 6.4857 3.98317 4.15371 9.53917 7.65543 3.95678 4.53297 3.8762 5.70641 5.84493 5.78181 4.98267 4.32358 3.92967
threshold=9.5000000000000018 0 24.500000000000004 1 6.5000000000000009 479.50000000000006 489.50000000000006 418.50000000000006 1.5000000000000002 1.5000000000000002 3316.5000000000005 822.50000000000011 1631.0000000000002 2204.0000000000005 698.50000000000011 2 3
decision_type=2 9 2 1 2 2 2 2 2 2 2 2 2 2 2 1 9
left_child=1 3 -3 -1 5 7 -7 -4 9 -8 11 14 -13 -14 -2 16 -15
right_child=10 2 4 -5 -6 6 8 -9 -10 -11 -12 12 13 15 -16 -17 -18
leaf_value=-0.036091852291327477 0.0059807210462156733 0.04731462360834001 0 -0.0045840362462442174 -0.02247721022896117 0.10722980219020532 0.018368476719399625 -0.043501951793401057 0.024517342516805925 -0.0042693624298809681 -0.025854765557327727 0.02831704359625695 -0.033971811757757799 -0.002057139554029926 -0.023602043605071434 -0.024762567399172441 0.035795545659243005
leaf_weight=152.80369581654668 1236.569218762219 68.442876394838095 1407.2355721518397 3751.8961670175195 142.07419669255614 16.304222121834755 261.75779755786061 88.072461668401957 220.29087227955461 659.01700184494257 57.630710363388062 528.60115256905556 67.90915509685874 56.405325409024954 128.8932288326323 33.675451524555683 140.1557351090014
leaf_count=3358 15748 1323 27911 77836 2319 297 4700 1665 3291 10687 601 5597 630 542 1525 330 1288
internal_value=7.81454e-05 -0.00241966 0.00228321 -0.00602196 0.000855876 0.00239796 0.00918842 -0.00244365 0.00665426 0.00154848 0.00786445 0.00911504 0.0189619 1.37894e-05 0.00262335 0.0133974 0.0236782
internal_weight=9017.73 6767.89 2863.2 3904.7 2794.75 2652.68 1157.37 1495.31 1141.07 920.775 2249.84 2192.21 826.747 298.146 1365.46 230.237 196.561
internal_count=159648 133387 52193 81194 50870 48551 18975 29576 18678 15387 26261 25660 8387 2790 17273 2160 1830
cat_boundaries=0 1 2 3 4
cat_threshold=13 4 1 136
is_linear=0
shrinkage=0.148754


Tree=19
num_leaves=18
num_cat=2
split_feature=2 11 7 9 11 11 11 11 11 11 11 11 6 6 7 11 9
split_gain=7.46488 5.13031 4.72958 4.39619 3.5857 7.3294 4.40909 14.8428 7.7216 7.03982 7.58076 10.0341 10.1172 7.7951 5.76134 9.30993 8.03162
threshold=1.5000000000000002 17.500000000000004 146.50000000000003 0 3316.5000000000005 2898.0000000000005 1343.5000000000002 1315.0000000000002 1224.5000000000002 562.00000000000011 698.50000000000011 777.00000000000011 1.5000000000000002 1.5000000000000002 3.5000000000000004 129.50000000000003 1
decision_type=2 2 2 9 2 2 2 2 2 2 2 2 2 2 2 2 9
left_child=1 -1 -3 -4 5 6 7 8 9 14 13 -12 -13 -11 15 16 -2
right_child=4 2 3 -5 -6 -7 -8 -9 -10 10 11 12 -14 -15 -16 -17 -18
leaf_value=0.056064517257491127 0.029595899498383434 -0.004031782192253819 0.047243154497589708 0 -0.027317721149837798 0.060612814666916759 -0.010846493950784722 0.09757516954679786 -0.042342972632254575 0.026042489002022665 -0.023380810797295985 0.031167441753522936 -0.023829254804510119 0.12275127081567179 0.013940267731701376 -0.017642626691382949 -0.0098792878446962908
leaf_weight=25.362062875181437 226.18891334161162 6009.4249282255769 57.944008823484182 175.07016389071941 53.607248235493898 52.97338455915451 267.54320706427097 35.366833239793777 59.679661098867655 143.60202648863196 129.84318525716662 395.07442720606923 72.429258439689875 25.417301464825869 557.4493387453258 556.63403956219554 174.06446779146791
leaf_count=546 3217 123909 540 1815 586 453 2863 296 751 1595 1489 4368 779 236 5641 7989 2575
internal_value=2.81257e-05 -0.00273432 -0.00313184 0.0168805 0.00655108 0.00752452 0.0060778 0.00827823 0.00640002 0.00806905 0.0197163 0.0102068 0.0210829 0.0480907 0.0016935 -0.00481366 0.0114345
internal_weight=9017.67 6267.8 6242.44 233.014 2749.87 2696.27 2643.29 2375.75 2340.38 2280.7 766.366 597.347 467.504 169.019 1514.34 956.887 400.253
internal_count=159648 126810 126264 2355 32838 32252 31799 28936 28640 27889 8467 6636 5147 1831 19422 13781 5792
cat_boundaries=0 1 2
cat_threshold=96 88
is_linear=0
shrinkage=0.148754


Tree=20
num_leaves=18
num_cat=4
split_feature=4 4 11 11 11 11 11 2 10 10 9 9 11 11 11 11 7
split_gain=6.08049 3.52349 3.49264 5.36004 4.67895 3.9482 8.80494 3.62111 3.41934 3.23082 3.95378 3.15836 4.62166 6.92572 6.377 9.6799 6.31395
threshold=1.5000000000000002 60.500000000000007 537.00000000000011 1224.5000000000002 1602.0000000000002 875.50000000000011 734.50000000000011 1.5000000000000002 0 1 2 3 3316.5000000000005 2898.0000000000005 1631.0000000000002 1602.0000000000002 73.500000000000014
decision_type=2 2 2 2 2 2 2 2 1 1 9 9 2 2 2 2 2
left_child=2 11 9 5 7 6 -4 8 -5 -1 -11 -2 13 14 15 -13 -15
right_child=1 -3 3 4 -6 -7 -8 -9 -10 10 -12 12 -14 16 -16 -17 -18
leaf_value=-0.0039756547282596803 -0.007837774850121014 0.034475098769503776 0.015376843510532858 0 0.0055352927328560595 0.02256837312293089 -0.02679797880605134 0.0066039688344601026 -0.05812643999603391 -0.03116869314557064 -0.0052594063848946564 0.0038187227021583207 -0.026985281370471167 0.063263531469269635 -0.016471788501220937 0.071692448362725439 0
leaf_weight=1311.8074492439628 563.46075021475554 73.615781374275684 292.24006318300962 41.037998247891665 75.342683795839548 263.62772314250469 166.87143791466951 13.808520771563051 90.469850957393646 280.36516693606973 402.43478942289948 4847.3986142762005 96.424809101969004 77.180246371775866 322.25974024832249 42.09742184355855 51.427670110017061
leaf_count=31561 9601 458 5236 1084 1934 4601 3699 230 2463 7820 10194 73433 1340 1000 3967 592 435
internal_value=6.12862e-05 0.00281857 -0.00541341 0.00146653 -0.0176408 0.00828686 0 -0.0336585 -0.0426864 -0.00898493 -0.0175489 0.00228752 0.00347135 0.00417919 0.00317856 0.00462485 0.0379297
internal_weight=9011.87 6073.87 2938.01 943.398 220.659 722.739 459.112 145.316 131.508 1994.61 682.8 6000.25 5436.79 5340.36 5211.76 4889.5 128.608
internal_count=159648 90826 68822 19247 5711 13536 8935 3777 3547 49575 18014 90368 80767 79427 77992 74025 1435
cat_boundaries=0 1 2 3 4
cat_threshold=2 1 69 4
is_linear=0
shrinkage=0.148754


Tree=21
num_leaves=18
num_cat=1
split_feature=2 11 11 11 11 11 11 11 11 11 3 11 11 11 10 11 11
split_gain=5.07735 5.30888 5.49697 14.3051 15.633 12.1317 9.8553 11.8737 7.57647 21.218 6.60176 6.17608 14.6474 13.3966 10.6462 9.60551 7.14921
threshold=2.5000000000000004 17.500000000000004 562.00000000000011 698.50000000000011 777.00000000000011 528.00000000000011 986.50000000000011 974.00000000000011 537.00000000000011 544.50000000000011 7.5000000000000009 479.50000000000006 489.50000000000006 376.00000000000006 0 372.50000000000006 483.00000000000006
decision_type=2 2 2 2 2 2 2 2 2 2 2 2 2 2 1 2 2
left_child=1 -1 5 -4 -5 11 7 -6 -7 -10 -8 13 14 15 -13 -3 -16
right_child=-2 2 3 4 6 8 10 -9 9 -11 -12 12 -14 -15 16 -17 -18
leaf_value=0.053684219138159822 0.0092703427308194024 -0.0027708654785948044 0.025045296100115428 -0.029560033927303914 0.011590798696164688 -0.082817681169990484 -0.0048341710648847703 0.090928784985098376 0.067549644657726546 -0.08142317698123723 0.047617525600369491 0.018772674865592757 0 -0.029507072673243092 0 0.073787201106636155 0.23632172752274672
leaf_weight=31.874628685414791 1154.8825746774673 3788.3226122632623 538.40901800245047 369.11692128702998 599.61849549040198 66.077518776059151 1570.0883335936815 43.361455924808979 33.463037185370922 37.458165250718594 47.322921972721815 48.462761625647545 200.7119855619967 436.56811989843845 7.7976988554000837 29.997446950525045 7.8810332641005516
leaf_count=622 11122 79810 7803 7201 9310 1239 25980 567 619 657 355 798 3775 8839 139 643 169
internal_value=1.93599e-05 -0.00126453 -0.00161308 0.00303893 -0.00126997 -0.0049162 0.0031326 0.0187513 -0.0479082 -0.00297033 -0.0027261 -0.00340665 0.0178739 -0.00490696 0.0764228 -0.00188219 0.169371
internal_weight=9011.41 7856.53 7824.66 3167.92 2629.51 4656.74 2260.39 642.98 136.999 70.9212 1617.41 4519.74 264.853 4254.89 64.1415 3818.32 15.6787
internal_count=159648 148526 147904 51216 43413 96688 36212 9877 2515 1276 26335 94173 4881 89292 1106 80453 308
cat_boundaries=0 1
cat_threshold=1
is_linear=0
shrinkage=0.148754


Tree=22
num_leaves=18
num_cat=2
split_feature=4 11 11 11 11 11 11 11 4 11 11 11 9 1 6 9 1
split_gain=4.46173 6.77882 35.9901 9.32162 11.2878 19.6053 8.68524 13.5716 7.28123 7.04789 16.3285 18.0697 7.05782 5.29847 6.19396 5.59427 5.51895
threshold=8.5000000000000018 1224.5000000000002 1207.0000000000002 1180.5000000000002 866.50000000000011 897.50000000000011 1315.0000000000002 1343.5000000000002 3.5000000000000004 698.50000000000011 605.50000000000011 620.00000000000011 0 13.500000000000002 1.5000000000000002 1 168.50000000000003
decision_type=2 2 2 2 2 2 2 2 2 2 2 2 9 2 2 9 2
left_child=1 2 3 4 9 -6 -3 -8 -7 10 12 -12 -1 -2 16 -16 -15
right_child=13 6 -4 -5 5 8 7 -9 -10 -11 11 -13 -14 14 15 -17 -18
leaf_value=-0.019252917417339425 0.032141488604581193 -0.048431499076160144 0.10934539895847321 -0.057386856818568456 0.064413379236210377 0.014942893965553221 0.091035422229302748 -0.011467208267162746 -0.025118704849345277 -0.017810625659764944 0.11320883308874639 0.013132009072824604 -0.00081055519784827327 -0.0014865538948606637 0.047152509905641363 0 0.056841948919092715
leaf_weight=515.32431517355144 163.23002906516194 137.31664283946157 59.779555309563875 58.475283470004797 149.26498566940427 323.89373842254281 22.921016670763493 621.91762824729085 134.32125889509916 600.28040936216712 46.062947802245617 284.46385181322694 4135.5614049173892 1466.7023319713771 111.55233171954751 144.35547452419996 30.61056187748909
leaf_count=12226 1855 2746 693 1098 2140 5481 380 12093 1839 11444 352 3967 85659 14852 1150 1482 191
internal_value=6.35147e-05 -0.00158603 0 -0.00111344 -0.000420748 0.0186027 -0.0145916 -0.00600158 0.00162966 -0.00262509 -0.0006458 0.0308198 -0.00305868 0.00648734 0.00362705 0.0247237 0
internal_weight=9006.03 7089.58 6307.43 6247.65 6189.17 607.48 782.155 644.839 458.215 5581.69 4981.41 330.527 4650.89 1916.45 1753.22 255.908 1497.31
internal_count=159648 140118 124899 124206 123108 9460 15219 12473 7320 113648 102204 4319 97885 19530 17675 2632 15043
cat_boundaries=0 1 2
cat_threshold=4 9
is_linear=0
shrinkage=0.148754


Tree=23
num_leaves=18
num_cat=2
split_feature=4 1 1 7 6 4 9 11 11 11 11 9 7 11 11 11 0
split_gain=4.01887 5.13845 3.3369 3.00614 2.827 3.70789 2.98042 2.65989 2.96215 2.84663 4.39343 2.73655 2.58168 2.3944 2.75392 2.34228 2.71902
threshold=1.5000000000000002 1.5000000000000002 1.0000000180025095e-35 159.50000000000003 1.5000000000000002 4.5000000000000009 0 47.500000000000007 464.50000000000006 376.00000000000006 323.50000000000006 1 1.5000000000000002 175.50000000000003 905.00000000000011 17.500000000000004 7.5000000000000009
decision_type=2 2 2 2 2 2 9 2 2 2 2 9 2 2 2 2 2
left_child=2 13 -1 15 6 -6 -5 -4 9 10 -9 -12 -10 -2 -15 16 -3
right_child=1 3 7 4 5 -7 -8 8 12 -11 11 -13 -14 14 -16 -17 -18
leaf_value=0.0038083997356769964 0 0 0.0041265108704349462 -0.0093253629321675101 0 0.073256514464341033 0.02185898040674656 -0.014805003090214399 -0.0063742381072052186 -0.041274250127538936 -0.010017517373336966 0.030067914641192541 0.014723930002835289 0.039261242069338405 0 1.643405482195033e-05 0.077577201644252108
leaf_weight=719.96826641634107 75.438462670892477 5.7556353360414532 301.78550028987229 90.412220299243927 4.0500141605734816 33.042370237410069 119.42838931083679 917.79781402647495 638.1107213050127 94.23327024653554 27.107679016888142 71.758404856547713 145.39698043651879 157.55095266923308 81.062722720205784 5505.7392995655537 12.535239234566687
leaf_count=15729 1075 101 7673 784 49 271 992 23724 13752 2485 711 1834 2914 2072 1051 84270 161
internal_value=7.73325e-05 0.00232283 -0.0043821 0.00118463 0.0170979 0.0544805 0.00612898 -0.00736375 -0.00954168 -0.0145556 -0.0112129 0.0148909 -0.00155607 0.0207936 0.0279653 0.000338113 0.046302
internal_weight=9001.17 6085.02 2916.16 5770.96 246.933 37.0924 209.841 2196.19 1894.4 1110.9 1016.66 98.8661 783.508 314.052 238.614 5524.03 18.2909
internal_count=159648 90826 68822 86628 2096 320 1776 53093 45420 28754 26269 2545 16666 4198 3123 84532 262
cat_boundaries=0 1 2
cat_threshold=9 65
is_linear=0
shrinkage=0.148754


Tree=24
num_leaves=18
num_cat=2
split_feature=7 1 11 11 0 3 10 10 4 11 1 2 11 7 1 11 11
split_gain=3.44567 4.4058 3.89048 5.34926 5.22291 3.55884 7.85853 6.32567 4.56523 4.07124 3.50446 4.44078 3.2549 3.21554 3.68147 3.37776 3.12313
threshold=2.5000000000000004 1.0000000180025095e-35 83.500000000000014 97.500000000000014 8.5000000000000018 1.0000000180025095e-35 0 1 62.500000000000007 225.50000000000003 9.5000000000000018 2.5000000000000004 87.500000000000014 26.500000000000004 56.500000000000007 1207.0000000000002 274.50000000000006
decision_type=2 2 2 2 2 2 1 1 2 2 2 2 2 2 2 2 2
left_child=1 -1 4 12 -3 7 8 -2 10 -8 -7 13 -4 14 -12 -15 -11
right_child=5 2 3 -5 -6 6 9 -9 -10 16 11 -13 -14 15 -16 -17 -18
leaf_value=0.007374996032888834 0.013156740663971225 -0.0022639057752536634 0 -0.0049290399463171233 0.020796496269034379 0 -0.0021339475524938668 -0.0047576813531928679 0.033707458120819163 0.096943705116859805 -0.014712033965786173 0.002947986185781579 -0.054011279983951485 -0.046832713901420159 0.04114100730464449 -0.0043304902458535417 0.019257703271525057
leaf_weight=865.28006871417165 1465.3370177447796 690.63882874138653 47.896410187706351 3618.5104060601443 288.5884662270546 356.84669654071331 92.239066494628787 552.35695385187864 42.296758115291595 13.55345657840371 228.88802657276392 138.66309159994125 78.675972482189536 186.01739327609539 19.16564479842782 100.89208867028356 211.94899555854499
leaf_count=17351 19629 16603 1043 72019 4835 5918 1526 8237 244 224 3464 1064 1734 1950 206 918 2683
internal_value=0.000104636 -0.0020933 -0.00397145 -0.00622178 0.00396419 0.00389588 -0.00150961 0.00793368 -0.00802473 0.0182253 -0.0105518 -0.016848 -0.0363613 -0.0231485 -0.0069596 -0.0344981 0.0291773
internal_weight=8997.8 5589.59 4724.31 3745.08 979.227 3408.21 1390.51 2017.69 1072.77 317.742 1030.47 673.626 126.572 534.963 248.054 286.909 225.502
internal_count=159648 113585 96234 74796 21438 46063 18197 27866 13764 4433 13520 7602 2777 6538 3670 2868 2907
cat_boundaries=0 1 2
cat_threshold=1 1
is_linear=0
shrinkage=0.148754


Tree=25
num_leaves=18
num_cat=3
split_feature=9 11 10 10 6 5 4 3 3 7 5 11 11 11 6 11 11
split_gain=3.47013 5.04865 5.20197 4.63229 3.97791 3.49603 3.48901 3.12938 2.70573 5.63645 7.85086 4.44303 3.3029 17.5281 11.7792 8.32152 4.81858
threshold=0 25.500000000000004 1 2 1.5000000000000002 1.5000000000000002 4.5000000000000009 1.0000000180025095e-35 5.5000000000000009 125.50000000000001 4.5000000000000009 285.00000000000006 1224.5000000000002 1207.0000000000002 1.5000000000000002 1180.5000000000002 562.00000000000011
decision_type=9 2 1 1 2 2 2 2 2 2 2 2 2 2 2 2 2
left_child=3 2 -2 6 -3 -6 7 -1 12 10 -10 -12 13 15 -14 16 -5
right_child=1 4 -4 8 5 -7 -8 -9 9 -11 11 -13 14 -15 -16 -17 -18
leaf_value=-0.048529167589948907 0 0.004232418463007378 0.058954533231833785 -0.0038111517381131037 -0.031187508586854949 0 0 0 -0.0072180862782226917 -0.014909676341456853 0 0.086328219593613892 -0.016916966929833899 0.10233780888566067 0.056591346452691607 -0.058544824269521033 0.0075277061729435999
leaf_weight=108.0684801209718 31.176414996385574 3380.22978021577 66.400958325713873 2841.3904008083045 124.53033462166786 272.07852778956294 64.004829626530409 17.167463732883334 26.035703375935555 41.665605947375298 11.22225848212838 51.913300883024931 684.14869529753923 30.199094153940678 42.647033119574189 49.46345816552639 1155.0030841864645
leaf_count=2665 583 55846 1114 59658 2386 3393 829 383 321 286 90 399 11443 334 767 816 18335
internal_value=8.31581e-05 0.00350265 0.0363577 -0.00238026 0.00243424 -0.0111167 -0.0250485 -0.0389935 -0.00135453 0.0188127 0.0412924 0.0694808 -0.00206176 -0.000244952 -0.0112812 -0.00132503 -0.000366071
internal_weight=8997.35 3874.42 97.5774 5122.93 3776.84 396.609 189.241 125.236 4933.69 130.837 89.1713 63.1356 4802.85 4076.06 726.796 4045.86 3996.39
internal_count=159648 63322 1697 96326 61625 5779 3877 3048 92449 1096 810 489 91353 79143 12210 78809 77993
cat_boundaries=0 1 2 3
cat_threshold=13 2 4
is_linear=0
shrinkage=0.148754


Tree=26
num_leaves=18
num_cat=0
split_feature=2 7 7 7 11 11 11 11 4 11 11 6 11 11 11 11 11
split_gain=2.99817 2.98477 3.7002 2.7418 3.05547 10.0216 13.7983 7.87438 7.76567 6.93578 8.41895 9.71504 9.0931 8.08695 5.83784 5.60421 4.39863
threshold=5.5000000000000009 1.0000000180025095e-35 10.500000000000002 24.500000000000004 1132.5000000000002 603.00000000000011 620.00000000000011 1113.5000000000002 10.500000000000002 1602.0000000000002 1462.5000000000002 1.5000000000000002 1315.0000000000002 1343.5000000000002 1408.0000000000002 1631.0000000000002 1224.5000000000002
decision_type=2 2 2 2 2 2 2 2 2 2 2 2 2 2 2 2 2
left_child=3 -2 -3 4 5 -1 -7 8 -8 10 12 -12 16 -14 -15 -11 -6
right_child=1 2 -4 -5 9 6 7 -9 -10 15 11 -13 13 14 -16 -17 -18
leaf_value=-0.0036305606962334131 0 0.06560726491674658 0 0.0053941238862555358 -0.0050055977615222746 0.072654904216207378 0 0.072443028846373436 0.035052057050826278 0.04896791913634832 -0.068347082379767068 0.0059284005268612537 0.076620206100867699 -0.047378578243876514 0.021965598305661388 -8.6615429524526932e-05 -0.043165034218568224
leaf_weight=4691.9911125600338 50.585082858800888 43.480109851807356 55.456904143095016 1522.9510311298072 230.03775917738676 70.388956658542156 1270.1556081045419 34.025990769267082 153.46439044177532 49.412154665216804 122.24906370416284 33.06489042006433 35.844955706968904 33.064775926992297 78.976766457781196 392.78101136535406 129.72977560944855
leaf_count=97847 501 376 349 16192 3581 632 21416 654 1699 863 2554 696 488 779 1613 6686 2722
internal_value=4.23216e-05 0.0205612 0.0354193 -0.00024554 -0.00150977 -0.000120003 0.0102095 0.00645862 0.00412328 -0.00870593 -0.0184756 -0.0489109 -0.00743013 0.020972 0 0.00455284 -0.0210281
internal_weight=8997.66 149.522 98.937 8848.14 7325.19 6220.03 1528.03 1457.65 1423.62 1105.16 662.968 155.314 507.654 147.886 112.042 442.193 359.768
internal_count=159648 1226 725 158422 142230 122248 24401 23769 23115 19982 12433 3250 9183 2880 2392 7549 6303
is_linear=0
shrinkage=0.148754


Tree=27
num_leaves=18
num_cat=1
split_feature=9 6 1 1 11 5 11 11 11 11 6 6 11 1 11 11 11
split_gain=2.84464 3.89663 3.31973 2.90809 4.52722 2.87205 2.70649 6.06918 2.6317 8.14849 6.28689 5.70428 4.46323 3.88121 3.73733 6.93861 3.26263
threshold=0 2.5000000000000004 28.500000000000004 76.500000000000014 157.50000000000003 5.5000000000000009 635.00000000000011 805.00000000000011 324.50000000000006 376.00000000000006 1.5000000000000002 1.5000000000000002 1152.0000000000002 15.500000000000002 262.50000000000006 254.50000000000003 1171.0000000000002
decision_type=9 2 2 2 2 2 2 2 2 2 2 2 2 2 2 2 2
left_child=1 8 -2 4 -4 -5 -3 -8 14 11 16 13 -12 -10 15 -1 -11
right_child=2 6 3 5 -6 -7 7 -9 9 10 12 -13 -14 -15 -16 -17 -18
leaf_value=-0.0078292432831883214 0.00069114182261158967 0 0.046378022699914048 -0.043757382383535368 0.0084402911999112134 0.0024985946124663275 0.10045715459836697 0 0.058017477695982422 -0.00067576192125835583 0 -0.033466678572139162 0.061749313607299239 0 -0.033961370632978327 0.086634834821529699 -0.015537056772742766
leaf_weight=1196.2866526637226 5084.6364459674805 41.780556462705135 99.371825382113457 28.061067815870047 442.01353140547872 97.783340230584145 19.343916151672605 7.7409181632101527 99.299068339169025 1000.5034586563706 96.246827965602279 9.3459608759731037 44.098219696432352 20.605889949947596 129.35843000560999 10.366791997104881 565.75181955657899
leaf_count=26323 92246 603 977 267 4100 605 203 95 2280 17273 1472 217 691 272 2654 221 9149
internal_value=7.01389e-05 -0.0033692 0.00212387 0.0120074 0.0170288 -0.00448584 0.0290618 0.0608756 -0.00434241 -0.000309501 -0.00343072 0.0344067 0.0251859 0.0462035 -0.00937571 -0.00604758 -0.00649481
internal_weight=8992.59 3240.73 5751.87 667.23 541.385 125.844 68.8654 27.0848 3171.86 1835.85 1706.6 129.251 140.345 119.905 1336.01 1206.65 1566.26
internal_count=159648 61453 98195 5949 5077 872 901 298 60552 31354 28585 2769 2163 2552 29198 26544 26422
cat_boundaries=0 1
cat_threshold=12
is_linear=0
shrinkage=0.148754


Tree=28
num_leaves=18
num_cat=1
split_feature=9 11 11 1 4 5 4 1 1 1 1 0 11 11 11 7 11
split_gain=2.50942 3.08064 5.82488 3.31665 3.98159 3.51949 2.68188 3.52 2.77023 2.64667 3.81248 3.06038 3.41749 2.5961 9.16271 6.06381 2.77659
threshold=0 584.00000000000011 882.00000000000011 12.500000000000002 28.500000000000004 1.5000000000000002 5.5000000000000009 6.5000000000000009 31.500000000000004 1.0000000180025095e-35 2.5000000000000004 4.5000000000000009 290.50000000000006 3316.5000000000005 2898.0000000000005 73.500000000000014 45.500000000000007
decision_type=9 2 2 2 2 2 2 2 2 2 2 2 2 2 2 2 2
left_child=1 9 6 5 -5 -4 7 -3 -8 -1 -11 -12 -13 14 16 -16 -2
right_child=13 2 3 4 -6 -7 8 -9 -10 10 11 12 -14 -15 15 -17 -18
leaf_value=0.0042282513257728398 0.0094202330365751718 0.025431228667483805 -0.013394883688416128 -0.047824562318401154 0.001619774637802041 0.03313622380757307 0.080732041333094542 -0.032250087569364323 0 -0.043134191052254675 0.024391492642974844 -0.00090197631665269774 -0.03720011644494961 -0.020830906354517075 0.058245789450921868 0 -0.00022497778449723338
leaf_weight=83.853526838123798 711.54675223864615 72.240862730890512 78.623695369809866 75.691037213429809 22.770292919129133 50.974111277610064 28.041065361350775 21.84023367241025 12.105683404952286 117.34071462601423 35.447976410388947 219.69260238111019 98.424113793298602 109.0822085775435 96.919985469430685 60.291939839720726 7095.8112836200744
leaf_count=1944 14012 1379 1754 1019 184 865 355 392 112 3259 1003 4677 1916 1679 1386 480 123232
internal_value=8.24404e-05 -0.00714005 0.00194684 -0.0105206 -0.0307936 0.00082236 0.0272632 0.00443282 0.059087 -0.0143097 -0.0189774 -0.00856063 -0.0146201 0.000995229 0.0013924 0.0363247 0.000578112
internal_weight=8990.7 917.046 362.287 228.059 98.4613 129.598 134.228 94.0811 40.1467 554.759 470.905 353.565 318.117 8073.65 7964.57 157.212 7807.36
internal_count=159648 18859 6060 3822 1203 2619 2238 1771 467 12799 10855 7596 6593 140789 139110 1866 137244
cat_boundaries=0 1
cat_threshold=4
is_linear=0
shrinkage=0.148754


Tree=29
num_leaves=18
num_cat=3
split_feature=1 7 9 11 3 7 6 5 5 3 11 9 11 11 10 5 1
split_gain=2.25919 2.90445 3.24763 5.94292 4.04364 3.67399 3.21985 4.95304 5.22676 2.86275 2.75695 2.6296 2.79591 2.59651 2.40956 2.36957 3.85656
threshold=1.0000000180025095e-35 1.5000000000000002 0 141.50000000000003 1.5000000000000002 1.0000000180025095e-35 3.5000000000000004 7.5000000000000009 3.5000000000000004 1.0000000180025095e-35 40.500000000000007 1 392.00000000000006 1171.0000000000002 2 9.5000000000000018 43.500000000000007
decision_type=2 2 9 2 2 2 2 2 2 2 2 9 2 2 1 2 2
left_child=-1 2 3 -2 5 9 15 8 -8 14 -10 12 -6 -11 -4 -3 -17
right_child=1 6 4 -5 11 -7 7 -9 10 13 -12 -13 -14 -15 -16 16 -18
leaf_value=0.0070020491690885546 0.030569836286858866 0.00031635891537405816 -0.00098281315138296532 -0.0025824449064126794 0.080478496009835393 -0.015548921893881105 0 -8.7798262701948996e-05 0 0.027696458718093408 0.11587680072778359 0 0 -0.012884198093445548 -0.010419634210499209 0.049199249767983858 0.0014766766127269854
leaf_weight=937.78060061857104 163.50086173042655 3394.1329922489822 1949.6278889365494 307.60766083374619 23.657607492059469 719.55107597447932 13.33443610370159 16.430739313364029 1.2380117774009729 113.41555658169091 21.240613956004381 38.992529936134815 32.039511958137155 20.250970061868429 995.21767879649997 53.99892420321703 189.68413209915161
leaf_count=18393 3296 49151 39756 5787 414 14513 161 119 12 2382 210 622 491 400 22338 399 1204
internal_value=5.2986e-05 -0.000680715 -0.00333748 0.00765562 -0.00485085 -0.00577287 0.00228665 0.0374443 0.0675329 -0.00325181 0.103531 0.0233322 0.0396678 0.0166295 -0.00440614 0.00154176 0.0155934
internal_weight=8991.7 8053.92 4363.86 471.109 3892.75 3798.06 3690.06 52.2438 35.8131 3078.51 22.4786 94.6896 55.6971 133.667 2944.85 3637.82 243.683
internal_count=159648 141255 89999 9083 80916 79389 51256 502 383 64876 222 1527 905 2782 62094 50754 1603
cat_boundaries=0 1 2 3
cat_threshold=448 21 1
is_linear=0
shrinkage=0.148754


Tree=30
num_leaves=18
num_cat=3
split_feature=2 1 9 0 7 5 0 9 1 0 9 1 7 1 6 5 3
split_gain=2.00053 3.22727 7.76695 3.23702 2.40973 2.37977 3.85736 5.50219 2.46452 3.0485 2.68491 2.61709 2.17709 2.52411 2.15191 2.15138 2.11078
threshold=1.5000000000000002 2.5000000000000004 0 4.5000000000000009 168.50000000000003 3.5000000000000004 25.500000000000004 1 9.5000000000000018 8.5000000000000018 2 41.500000000000007 12.500000000000002 17.500000000000004 1.5000000000000002 3.5000000000000004 9.5000000000000018
decision_type=2 2 9 2 2 2 2 9 2 2 9 2 2 2 2 2 2
left_child=4 2 3 -2 5 8 7 -7 9 -1 -11 -10 13 -9 -12 -4 -3
right_child=1 16 15 -5 -6 6 -8 12 11 10 14 -13 -14 -15 -16 -17 -18
leaf_value=-0.0026892732540726018 -0.010322532101193344 0 0.04372357709722257 0.028102254225220395 0.021467088362420009 -0.0015256855485085465 -0.0042309321189284094 0.061493918010503863 -0.011650566965489457 -0.0021108549338513943 0.023972579825083769 0.017927149802320071 0.0081585086965542016 0 -0.0054730035969599265 0 0.028923976719334134
leaf_weight=3929.7847615033388 210.22667348012328 2290.5167341604829 170.03752252086997 55.321053337305784 90.444257479161024 156.27434054017067 322.32375486940145 82.091682642698288 988.47739163227379 168.4094924479723 262.37743616849184 49.108627794310451 103.01760219782591 26.48263044282794 24.969980049878359 7.5820676833391181 52.069905914366245
leaf_count=90174 3124 26326 2376 622 820 2105 3184 1332 17802 3623 5042 670 1161 409 488 66 324
internal_value=6.91449e-05 0.00344305 0.0151022 0 -0.00134373 -0.00180815 0.00608756 0.0167769 -0.00293784 -0.00121895 0.0099264 -0.00953367 0.0315435 0.0492147 0.0185198 0.0376251 0.000928318
internal_weight=8989.52 2785.75 443.167 265.548 6203.76 6113.32 690.19 367.866 5423.13 4385.54 455.757 1037.59 211.592 108.574 287.347 177.62 2342.59
internal_count=159648 32838 6188 3746 126810 125990 8191 5007 117799 99327 9153 18472 2902 1741 5530 2442 26650
cat_boundaries=0 1 2 3
cat_threshold=284 145 268
is_linear=0
shrinkage=0.148754


Tree=31
num_leaves=18
num_cat=2
split_feature=11 11 11 11 11 6 9 2 0 11 9 7 6 11 0 4 4
split_gain=1.87638 1.91387 15.7217 8.88646 14.1685 8.25157 3.88598 4.38087 3.82107 3.65493 4.0376 3.25531 3.41523 5.53081 3.13238 3.15737 3.06102
threshold=17.500000000000004 189.50000000000003 157.50000000000003 217.50000000000003 207.50000000000003 1.5000000000000002 0 2.5000000000000004 9.5000000000000018 195.50000000000003 1 166.50000000000003 3.5000000000000004 505.50000000000006 10.500000000000002 33.500000000000007 11.500000000000002
decision_type=2 2 2 2 2 2 9 2 2 2 9 2 2 2 2 2 2
left_child=-1 2 -2 4 9 8 7 -4 -6 10 -3 12 -5 -14 -15 -16 -9
right_child=1 3 6 11 5 -7 -8 16 -10 -11 -12 -13 13 14 15 -17 -18
leaf_value=0.030280412718418824 0.00054957828217166635 -0.0012568793319418991 -0.019224013672329499 -0.0009137663834893362 0.03495701586191434 0 -0.04669333340639692 0.086211802531420842 0.12982281595905695 -0.015864871129910103 0.053664087531701855 0.021717644559331954 -0.0052645100268903624 0 0.097325096416152612 0 0
leaf_weight=39.159368541091681 2527.9292601551861 32.339843614026904 126.97298428043723 5606.2993273902684 55.276348169893026 15.124194193631409 194.04032147862017 10.06802850589156 36.206295259296894 109.92529129236937 32.754077227786183 144.38441555574536 17.869400206953287 3.6866772584617129 28.956310082226995 2.9402544908225527 3.8179438486695281
leaf_count=665 51648 627 2784 93621 1252 296 3607 113 524 2117 686 1171 198 42 243 21 33
internal_value=7.53995e-05 -5.41242e-06 -0.00324334 0.00141341 0.0269349 0.0680518 -0.0332596 -0.00561659 0.0849578 0 0.0269206 3.65178e-05 -0.000425604 0.0347265 0.0680916 0.0831011 0.0514053
internal_weight=8987.75 8948.59 2862.83 6085.76 281.626 106.607 334.899 140.859 91.4826 175.019 65.0939 5804.14 5659.75 53.4526 35.5832 31.8966 13.886
internal_count=159648 158983 58185 100798 5502 2072 6537 2930 1776 3430 1313 95296 94125 504 306 264 146
cat_boundaries=0 1 2
cat_threshold=293 116
is_linear=0
shrinkage=0.148754


Tree=32
num_leaves=18
num_cat=1
split_feature=1 1 1 1 11 11 11 2 9 1 1 5 5 3 5 11 11
split_gain=1.74604 3.00846 2.77477 4.70788 3.75232 2.72174 3.464 1.99301 2.63192 2.10748 6.63439 3.51693 2.71135 2.27335 2.75375 2.08021 24.4529
threshold=176.50000000000003 245.50000000000003 83.500000000000014 64.500000000000014 1113.5000000000002 2512.5000000000005 200.50000000000003 5.5000000000000009 0 47.500000000000007 41.500000000000007 8.5000000000000018 13.500000000000002 3.5000000000000004 9.5000000000000018 1224.5000000000002 1207.0000000000002
decision_type=2 2 2 2 2 2 2 2 9 2 2 2 2 2 2 2 2
left_child=2 -2 3 7 -4 6 -5 9 -9 10 15 -11 -13 14 -12 16 -1
right_child=1 -3 4 5 -6 -7 -8 8 -10 11 13 12 -14 -15 -16 -17 -18
leaf_value=-0.00054536074719170027 0.065139090859859305 0 -0.041830688620854303 0 0 0 0.054767437027356869 0 0.035090669502338225 0 0.053107567302625863 -0.057447616213544758 0 0 0 -0.0066581599614980048 0.08341609593723881
leaf_weight=7110.0181843750179 18.62781829200685 14.294477008283136 75.966635525226593 21.057513877749443 67.970193102955818 19.561884246766567 74.408087063580751 57.562828429043293 65.824310760945082 135.9638430736959 84.388917688280344 50.132027365267277 4.6955425888299933 20.955788601189852 14.603900641202925 1079.062628287822 71.354189403355122
leaf_count=134167 114 92 574 172 474 157 589 512 536 1305 832 369 31 180 105 18702 737
internal_value=7.55147e-05 0.0314549 0 0.00027995 -0.02011 0.0294107 0.0402986 -5.17807e-05 0.0181616 -0.000402212 0 -0.0156141 -0.0454179 0.0338126 0.0430046 -0.000561185 0.000269961
internal_weight=8986.45 32.9223 8953.53 8809.59 143.937 115.027 95.4656 8694.56 123.387 8571.18 8380.38 190.791 54.8276 119.949 98.9928 8260.44 7181.37
internal_count=159648 206 159442 158394 1048 918 761 157476 1048 156428 154723 1705 400 1117 937 153606 134904
cat_boundaries=0 1
cat_threshold=172
is_linear=0
shrinkage=0.148754


Tree=33
num_leaves=18
num_cat=1
split_feature=9 11 11 1 4 11 0 1 1 0 11 5 7 0 1 11 11
split_gain=1.66061 2.30504 4.12629 2.56849 3.21458 2.91401 2.93815 1.99295 2.82527 2.50098 2.53539 1.99953 2.00205 1.86073 4.58439 1.84124 6.41542
threshold=0 584.00000000000011 882.00000000000011 12.500000000000002 28.500000000000004 1152.0000000000002 2.5000000000000004 1.0000000180025095e-35 2.5000000000000004 4.5000000000000009 290.50000000000006 2.5000000000000004 36.500000000000007 34.500000000000007 12.500000000000002 3316.5000000000005 2898.0000000000005
decision_type=9 2 2 2 2 2 2 2 2 2 2 2 2 2 2 2 2
left_child=1 7 -3 5 -5 -4 -7 -1 -9 -10 11 12 -11 14 -13 16 -2
right_child=15 2 3 4 -6 6 -8 8 9 10 -12 13 -14 -15 -16 -17 -18
leaf_value=0.0031216798647611651 0.00044528591651491812 0.022982617745679872 -0.020320906700410347 -0.042834014977244844 0 -0.0091270880686151728 0.038369875582187754 -0.037863507540554009 0.022141098350516496 -0.019663548887893435 -0.032757968829708897 0 0.0234568161592805 0 0.072256685462268461 -0.017720223796818285 0.029980933809358654
leaf_weight=84.441581640392542 7808.7682441864163 137.0924920104444 49.455401875078678 72.698459874838591 22.969441704452038 14.962164249271153 65.046167373657227 112.04420152306557 35.957949159666896 146.68698787689209 95.017228897660971 21.355619605630636 10.289692059159277 15.847298111766575 25.057274524122477 106.77904837206006 161.73292288929224
leaf_count=1944 137244 2238 866 1019 184 395 1358 3259 1003 3656 1916 346 171 161 343 1679 1866
internal_value=5.17571e-05 -0.00583798 0.00182401 -0.00853625 -0.0268803 0.000861734 0.0219717 -0.0121527 -0.0163269 -0.00708631 -0.0128099 -0.000636489 -0.0120948 0.0172942 0.034236 0.00080465 0.00114838
internal_weight=8986.2 908.922 362.224 225.132 95.6679 129.464 80.0083 546.698 462.256 350.212 314.254 219.237 156.977 62.2602 46.4129 8077.28 7970.5
internal_count=159648 18859 6060 3822 1203 2619 1753 12799 10855 7596 6593 4677 3827 850 689 140789 139110
cat_boundaries=0 1
cat_threshold=4
is_linear=0
shrinkage=0.148754


Tree=34
num_leaves=18
num_cat=5
split_feature=1 11 11 9 5 11 11 11 11 9 10 0 10 2 9 11 11
split_gain=1.56087 1.91272 5.28484 1.83247 2.71523 2.2381 3.67783 2.66205 2.28028 2.81846 3.36494 3.67622 1.8655 1.73605 3.98233 3.65839 5.30875
threshold=1.0000000180025095e-35 51.500000000000007 32.500000000000007 0 1.5000000000000002 45.500000000000007 35.500000000000007 50.500000000000007 33.500000000000007 1 2 2.5000000000000004 3 2.5000000000000004 4 210.50000000000003 107.50000000000001
decision_type=2 2 2 9 2 2 2 2 2 9 1 2 1 2 9 2 2
left_child=1 2 -1 4 -2 6 8 -7 9 -5 -11 -12 -8 -9 15 16 -15
right_child=3 -3 -4 5 -6 7 12 13 -10 10 11 -13 -14 14 -16 -17 -18
leaf_value=0.017841756102399648 -0.015971734899285602 0.0085352985769539605 -0.043134505270077221 -0.014964034448622165 0 -0.026349385993139355 -0.0035926624417803978 -0.0012852187230019774 -0.028812609400733668 -0.0064676969519286611 -0.018747349528844149 0.032279428058814556 0.02673696285358592 0 -0.0048366723656222054 0.0052184588846291161 0.064953372164819806
leaf_weight=42.390724964439869 400.38126494921744 846.55361446738243 54.899910397827625 85.830240435898304 377.21154519915581 82.245700821280479 10.117100538685918 5594.8350075539201 47.574041178449988 81.709372412413359 16.43565827421844 177.27150500938296 230.63770971819758 67.33820965513587 384.14922714978456 422.35755294561386 64.183157846331596
leaf_count=898 10429 16317 1178 1793 5714 1617 227 102290 942 1665 395 3048 4493 624 3727 3679 612
internal_value=3.33751e-05 0.00580016 -0.0108416 -0.000567055 -0.00736703 8.75681e-05 0.00845168 -0.000643138 0 0.00398458 0.0124719 0.0242711 0.0227873 -0.000196086 0.00558147 0.013775 0.036093
internal_weight=8986.12 943.844 97.2906 8042.28 777.593 7264.68 649.576 6615.11 408.821 361.247 275.417 193.707 240.755 6532.86 938.028 553.879 131.521
internal_count=159648 18393 2076 141255 16143 125112 12563 112549 7843 6901 5108 3443 4720 110932 8642 4915 1236
cat_boundaries=0 1 2 3 4 5
cat_threshold=4 1 2 4 209
is_linear=0
shrinkage=0.148754


Tree=35
num_leaves=18
num_cat=2
split_feature=9 7 0 11 0 3 5 0 0 3 7 11 11 9 1 0 3
split_gain=1.33397 2.6692 6.98895 3.81415 3.25232 3.4596 2.73396 5.58899 5.39137 2.46605 4.16081 4.62978 3.90271 3.56565 2.93444 2.29683 2.21249
threshold=0 59.500000000000007 13.500000000000002 25.500000000000004 34.500000000000007 1.0000000180025095e-35 6.5000000000000009 21.500000000000004 13.500000000000002 1.0000000180025095e-35 6.5000000000000009 830.50000000000011 528.00000000000011 1 6.5000000000000009 11.500000000000002 1.0000000180025095e-35
decision_type=9 2 2 2 2 2 2 2 2 2 2 2 2 9 2 2 2
left_child=1 3 -3 -1 5 -4 7 8 9 10 13 -12 15 14 -5 -11 -10
right_child=-2 2 4 6 -6 -7 -8 -9 16 12 11 -13 -14 -15 -16 -17 -18
leaf_value=0.03803599802069145 -0.00090564854630046754 0.051970898284491245 0 0.042418619947709263 0.019398846868587612 -0.05312224235414769 0.027104408146641782 -0.025718869484717008 0.034010407667623442 0.046807902615052535 -0.050722724587229116 0.0034286781553887241 -0.0059682938010930907 -0.0047947293568413353 -0.0011382137749811369 0 0
leaf_weight=53.009698133915663 7026.5974784512073 81.318790670484304 59.084731973707676 66.955572126433253 97.135385360568762 32.673589434474707 69.212650388479233 186.21102303639054 135.67014883086085 70.309265613555908 79.472521658986807 23.677482079714537 56.328868312761188 872.35269115492702 15.505453916266559 10.019996903836725 52.250277437269688
leaf_count=867 127585 987 548 1409 665 333 588 2239 1935 1397 1325 321 919 17255 293 180 802
internal_value=0 0.00346504 0.0171907 0.000856745 0 -0.0183806 -9.18481e-05 -0.0018037 0.00105211 -0.00218162 -0.00509781 -0.0328902 0.015114 -0.00123069 0.0246485 0.0367383 0.0243537
internal_weight=8987.79 1961.19 270.212 1690.98 188.894 91.7583 1637.97 1568.75 1382.54 1194.62 1057.96 103.15 136.658 954.814 82.461 80.3293 187.92
internal_count=159648 32063 2533 29530 1546 881 28663 28075 25836 23099 20603 1646 2496 18957 1702 1577 2737
cat_boundaries=0 1 2
cat_threshold=480 384
is_linear=0
shrinkage=0.148754


Tree=36
num_leaves=18
num_cat=1
split_feature=11 11 11 11 11 11 11 11 11 11 6 11 6 2 10 11 11
split_gain=1.3991 16.641 10.4379 15.3781 9.72433 6.74719 9.62776 16.4609 8.8103 10.9406 13.6873 8.16545 7.14352 6.5754 6.22827 6.17933 10.6061
threshold=464.50000000000006 376.00000000000006 489.50000000000006 483.00000000000006 335.50000000000006 274.50000000000006 254.50000000000003 262.50000000000006 239.50000000000003 207.50000000000003 1.5000000000000002 157.50000000000003 1.5000000000000002 2.5000000000000004 0 217.50000000000003 225.50000000000003
decision_type=2 2 2 2 2 2 2 2 2 2 2 2 2 2 1 2 2
left_child=1 4 3 -2 5 6 8 12 9 11 15 -1 -8 -13 -5 -11 -17
right_child=2 -3 -4 14 -6 -7 7 -9 -10 10 -12 13 -14 -15 -16 16 -18
leaf_value=0.00096277882679681132 0.010555821819928585 -0.032084482612920698 0.00016709032013730962 0.024105095064718765 0.026790129002876539 -0.020934121154144725 0.16982996308992743 0 -0.041761841927936964 0.070385887629250007 -0.038491519117654922 -0.026702725433002436 0 0.017960469929613237 0.2046982393834732 -0.026481114410648779 0.040445941343460315
leaf_weight=2571.5033336244524 172.31224646046758 362.92927562259138 4117.867040656507 22.518244653940201 290.67034910619259 340.83697489835322 19.320069355890155 95.336169542744756 105.96918316371739 97.217734824866056 49.427888713777065 436.70736433193088 15.123755155131219 64.845419477671385 10.273076031357048 61.145802609622478 153.05907247960567
leaf_count=52313 2923 7242 62920 429 5603 6381 391 2009 2091 1776 838 9356 245 611 178 1225 3117
internal_value=0 -0.00173065 0.00197993 0.0342483 0.000722904 -0.00104379 0.000659888 0.0395934 -0.000651762 0.000501752 0.0249264 -0.00220067 0.119219 -0.0195071 0.120751 0.0375797 0.0182021
internal_weight=8987.06 4664.09 4322.97 205.104 4301.16 4010.49 3669.66 129.78 3539.88 3433.91 360.85 3073.06 34.4438 501.553 32.7913 311.423 214.205
internal_count=159648 93198 66450 3530 85956 80353 73972 2645 71327 69236 6956 62280 636 9967 607 6118 4342
cat_boundaries=0 1
cat_threshold=1
is_linear=0
shrinkage=0.148754


Tree=37
num_leaves=18
num_cat=3
split_feature=4 10 9 0 2 11 11 11 4 4 11 11 4 11 10 11 5
split_gain=1.31054 1.87845 3.97826 1.69597 3.26975 3.66949 2.49872 2.48373 2.85637 2.34819 2.32892 9.38412 5.86352 3.40256 9.20094 3.75013 3.29436
threshold=1.5000000000000002 0 1 7.5000000000000009 3.5000000000000004 799.50000000000011 50.500000000000007 17.500000000000004 5.5000000000000009 12.500000000000002 1631.0000000000002 1315.0000000000002 8.5000000000000018 1343.5000000000002 2 1496.0000000000002 3.5000000000000004
decision_type=2 1 9 2 2 2 2 2 2 2 2 2 2 2 1 2 2
left_child=1 2 -1 4 -2 6 -6 9 -9 -5 11 -10 -12 -13 15 -15 -16
right_child=3 -3 -4 7 5 -7 -8 8 10 -11 12 13 -14 14 16 -17 -18
leaf_value=-0.048014311882780797 0.0037091165669921808 -0.0014682318409456195 0 0.076457377017158823 0 0 0.081447107500897578 -0.005717858591525191 0.0011003477143116621 0 -0.042916900779353964 0.066608088302744839 0 0 0.01342444603296049 0.076878050907996334 -0.037323784765619011
leaf_weight=45.166946426033974 1693.1034923344851 2773.6806686725467 60.467796331271529 11.956318296492098 4.7098005264997473 12.868609920144079 29.121473666280508 1539.868613878265 2151.4946632497013 2.6367226466536513 76.264142610132694 60.577557761222124 388.30900305509567 9.8499215021729452 27.104723196476698 44.709226924926043 51.166356366127729
leaf_count=1279 31372 66037 1506 144 46 122 272 27062 24855 19 1107 489 3737 134 384 516 567
internal_value=5.06131e-05 -0.00248524 -0.0218527 0.00135393 0.00528174 0.0429799 0.0668643 -6.93734e-05 -0.000461264 0.0510122 0.00219657 0.00427746 -0.00685206 0.0352539 0.0139806 0.0598794 -0.0124011
internal_weight=8983.06 2879.32 105.635 6103.74 1739.8 46.6999 33.8313 4363.94 4349.34 14.593 2809.48 2344.9 464.573 193.408 132.83 54.5591 78.2711
internal_count=159648 68822 2785 90826 31812 440 318 59014 58851 163 31789 26945 4844 2090 1601 650 951
cat_boundaries=0 1 2 3
cat_threshold=4 97 2
is_linear=0
shrinkage=0.148754


Tree=38
num_leaves=18
num_cat=0
split_feature=11 11 7 11 11 11 11 11 11 11 11 11 11 11 11 11 11
split_gain=1.29364 3.54863 4.0154 2.89409 19.2709 7.5197 7.03764 9.12894 15.8733 11.1406 7.18148 7.68047 4.72593 13.7816 7.06564 15.929 6.69783
threshold=2898.0000000000005 3316.5000000000005 73.500000000000014 1462.5000000000002 1496.0000000000002 1552.5000000000002 1315.0000000000002 1224.5000000000002 1207.0000000000002 1180.5000000000002 1343.5000000000002 1408.0000000000002 866.50000000000011 882.00000000000011 698.50000000000011 603.00000000000011 620.00000000000011
decision_type=2 2 2 2 2 2 2 2 2 2 2 2 2 2 2 2 2
left_child=3 2 -2 6 -5 -6 7 8 9 12 -8 -12 14 -14 15 -1 -17
right_child=1 -3 -4 4 5 -7 10 -9 -10 -11 11 -13 13 -15 -16 16 -18
leaf_value=-0.0012468691742851916 0.041091218348491783 -0.0049456473912390586 0 -0.073068126965702626 0.049071426449817795 -0.0054514762740712434 0.059926902460842105 -0.035689508579625231 0.064316482658983987 -0.05037963434707475 -0.050528654849910704 0.026060464040570403 0.053362023212244078 0.0014290308512901577 -0.014229544646393838 0.066084033851875709 0.015673294965595767
leaf_weight=5466.7373655866832 107.66850091144443 132.52850413322449 64.743640586733818 85.412386663258076 56.655682569369674 501.51027668826282 81.891120934858918 151.20356966555119 79.111770711839199 90.527448881417513 34.132605707272887 92.518699480220675 135.95560121908784 701.8438488021493 769.05380869656801 87.852943923324347 341.88032291084528
leaf_count=106929 1475 2105 509 1799 942 7306 788 3031 765 1462 814 1755 1586 9936 13287 748 4411
internal_value=5.05326e-05 0.00952863 0.0240594 -0.0002147 -0.00981394 0 0.000480949 -0.000166076 0.000477946 -0.000153832 0.0270722 0 0.000407037 0.0109513 -0.000830331 0.000820856 0.0282522
internal_weight=8981.23 304.941 172.412 8676.29 643.578 558.166 8032.71 7824.17 7672.96 7593.85 208.542 126.651 7503.32 837.799 6665.52 5896.47 429.733
internal_count=159648 4089 1984 155559 10047 8248 145512 142155 139124 138359 3357 2569 136897 11522 125375 112088 5159
is_linear=0
shrinkage=0.148754


Tree=39
num_leaves=18
num_cat=7
split_feature=1 5 3 9 10 11 11 11 9 10 7 3 10 10 0 9 11
split_gain=1.11805 1.49263 2.21945 1.90307 2.73377 2.2751 1.5032 3.30741 1.72144 2.24073 1.43982 2.37683 4.55223 3.93105 3.12193 10.1989 4.00406
threshold=1.0000000180025095e-35 1.5000000000000002 1.5000000000000002 0 1 2204.0000000000005 51.500000000000007 32.500000000000007 2 3 1.5000000000000002 1.0000000180025095e-35 4 5 26.500000000000004 6 2204.0000000000005
decision_type=2 2 2 9 1 2 2 2 9 1 2 2 1 1 2 9 2
left_child=1 6 3 -3 5 -5 7 -1 -8 -10 -2 12 14 -13 -12 -16 -17
right_child=10 2 -4 4 -6 -7 8 -9 9 -11 11 13 -14 -15 15 16 -18
leaf_value=0.0043586213074373985 -0.0023665347578095213 0 0 0.065800599522649383 0 0 -0.0019647217708613951 -0.041800570941344581 0.00081250005811281368 0.027422086575198113 0.012602806021445291 -0.0075844347814222829 -0.0054428263092492143 0.010099153014118664 0.017686977882007321 -0.042687042893590502 0
leaf_weight=39.206715267151594 4334.0549387838691 27.645898628979921 33.173977378755808 56.989697314798832 18.045539118349552 2.8183633647859088 329.48334395140409 46.976642522960901 264.04873315244913 129.50400732085109 1255.8171694502234 1090.8928265664726 624.58796044811606 344.2581151612103 215.95625764131546 131.76474943384528 33.293170381337404
leaf_count=850 89999 311 397 644 232 33 6945 1105 5192 2684 19091 14310 9680 4830 1818 1216 311
internal_value=3.14784e-05 0.00490934 0.019334 0.0304072 0.0393184 0.0581539 0.00151708 -0.014918 0.00447212 0.011194 -0.000467198 0.00158538 0.00469741 -0.00286908 0.00896601 -0.00136158 -0.0291289
internal_weight=8978.52 947.893 138.673 105.499 77.8536 59.8081 809.219 86.1834 723.036 393.553 8030.63 3696.57 2261.42 1435.15 1636.83 381.014 165.058
internal_count=159648 18393 1617 1220 909 677 16776 1955 14821 7876 141255 51256 32116 19140 22436 3345 1527
cat_boundaries=0 1 2 3 4 5 6 7
cat_threshold=16 1 9 1 1 1 209
is_linear=0
shrinkage=0.148754


Tree=40
num_leaves=18
num_cat=1
split_feature=1 1 1 1 11 11 11 6 7 2 6 2 11 11 11 11 9
split_gain=1.11992 2.31379 2.18594 2.97821 2.79734 2.06713 2.56149 1.78563 1.77549 2.32904 1.8603 1.56301 1.47906 9.09713 4.81551 10.3453 6.7243
threshold=176.50000000000003 245.50000000000003 83.500000000000014 64.500000000000014 1113.5000000000002 2512.5000000000005 200.50000000000003 1.5000000000000002 166.50000000000003 4.5000000000000009 2.5000000000000004 8.5000000000000018 991.00000000000011 866.50000000000011 698.50000000000011 603.00000000000011 0
decision_type=2 2 2 2 2 2 2 2 2 2 2 2 2 2 2 2 9
left_child=2 -2 3 12 7 6 -5 11 9 10 -8 -4 13 14 15 -1 -16
right_child=1 -3 4 5 -6 -7 8 -9 -10 -11 -12 -13 -14 -15 16 -17 -18
leaf_value=-0.00090364663991817555 0.054573025204056311 0 -0.053672151142995443 0 0 0 0.069111463721346481 0 0 0 0 0 -0.0040872612069851252 0.020098401774818142 0.014203281726166726 0.022853135248341563 -0.018991099317976771
leaf_weight=5346.5503613613546 19.331796145066619 14.317959673702715 57.696108445525169 21.085275001823902 68.257923200726509 19.606435008347034 56.767417673021555 14.611006204038857 7.3543030694127074 10.844252914190291 2.1735818684101096 1.5557146742939938 1669.3549661114812 498.67799166217446 139.51940303482115 430.45799192786217 600.93016974627972
leaf_count=106032 114 92 447 172 474 157 457 117 44 69 19 10 27106 6102 2465 5105 10666
internal_value=1.3717e-05 0.0249419 -2.50118e-05 0.00020411 -0.0179924 0.023113 0.0327513 -0.0370557 0.0449931 0.0523216 0.0631256 -0.0477872 -4.85382e-05 0.00082312 -0.000570288 0.000777303 -0.0118692
internal_weight=8979.09 33.6498 8945.44 8803.32 142.121 117.831 98.2248 73.8628 77.1396 69.7853 58.941 59.2518 8685.49 7016.14 6517.46 5777.01 740.45
internal_count=159648 206 159442 158394 1048 918 761 574 589 545 476 457 157476 130370 124268 111137 13131
cat_boundaries=0 1
cat_threshold=68
is_linear=0
shrinkage=0.148754


Tree=41
num_leaves=18
num_cat=1
split_feature=2 7 7 5 7 3 11 0 4 11 11 3 7 9 11 11 11
split_gain=1.00172 2.15483 2.82226 1.22436 1.7203 1.41959 0.975769 1.10172 1.548 0.871081 14.4347 3.64119 5.18956 3.17676 2.54309 13.7351 4.55457
threshold=5.5000000000000009 1.0000000180025095e-35 8.5000000000000018 15.500000000000002 140.50000000000003 28.500000000000004 17.500000000000004 7.5000000000000009 5.5000000000000009 986.50000000000011 974.00000000000011 7.5000000000000009 132.50000000000003 0 897.50000000000011 887.00000000000011 882.00000000000011
decision_type=2 2 2 2 2 2 2 2 2 2 2 2 2 9 2 2 2
left_child=3 -2 -3 6 -5 -6 7 -1 -9 10 14 13 -13 -11 15 16 -8
right_child=1 2 -4 4 5 -7 9 8 -10 11 -12 12 -14 -15 -16 -17 -18
leaf_value=0 -0.0036434529748019247 0.052231447467690643 0 0 0.076022667140042369 0 -3.2957013861329195e-05 0.073076807480180542 0 0.0038822369010394625 0.074382490926202194 0.059872202340598792 -0.0081437702992840314 -0.0092476549761129102 -0.017517002389727972 0.079796991923743052 -0.046647820492107049
leaf_weight=24.599659878760576 52.171973552554846 41.963389497250319 60.984661445021629 15.423369601368906 10.401241168379782 1.5572456270456303 6629.1532633565366 8.588764011859892 7.3410441204905501 515.11962128989398 51.41562158614397 41.327463265508413 20.834245972335339 1234.9535865485668 180.23112465068698 41.332185748964548 40.775288365781307
leaf_count=476 501 343 382 98 55 8 125288 120 64 7484 605 298 129 20483 2225 559 530
internal_value=0 0.0116737 0.025125 -0.000144664 0.0280179 0.059593 -0.000325367 0.0208115 0.0449189 -0.000511585 0.000159505 -0.00342982 0.0289442 -0.00504549 -0.000366696 1.33588e-05 -0.000457639
internal_weight=8978.17 155.12 102.948 8823.05 27.3819 11.9585 8795.67 40.5295 15.9298 8755.14 6942.91 1812.23 62.1617 1750.07 6891.49 6711.26 6669.93
internal_count=159648 1226 725 158422 161 63 158261 660 184 157601 129207 28394 427 27967 128602 126377 125818
cat_boundaries=0 1
cat_threshold=336
is_linear=0
shrinkage=0.148754


Tree=42
num_leaves=18
num_cat=4
split_feature=11 0 9 4 11 11 11 10 11 11 11 11 4 9 10 4 4
split_gain=0.948138 2.64418 2.24719 2.02068 1.80157 15.2804 6.17706 10.2362 5.40304 6.52743 11.6965 8.31025 4.97508 4.19564 3.79071 3.25184 3.19675
threshold=2898.0000000000005 15.500000000000002 0 21.500000000000004 1462.5000000000002 1496.0000000000002 1631.0000000000002 1 1315.0000000000002 1224.5000000000002 1207.0000000000002 1180.5000000000002 4.5000000000000009 2 3 1.5000000000000002 11.500000000000002
decision_type=2 2 9 2 2 2 2 1 2 2 2 2 2 9 1 2 2
left_child=4 2 -2 -3 8 -6 7 -7 9 10 11 -1 -10 -11 -12 -15 -17
right_child=1 3 -4 -5 5 6 -8 -9 12 13 14 -13 -14 15 -16 16 -18
leaf_value=0.00020633708667440267 0.033521054759270537 -0.018026903065829412 0 0.011447623744742803 -0.066389834319179247 0.055937208445112852 -0.0092555527266674053 -0.010143103130796109 0 0.016939977794914646 0 -0.044597445738294057 0.04358639954364027 0 0.073590210860648778 -0.067694837376802666 0
leaf_weight=7507.7272552233189 98.511094570159912 92.262471539899707 25.044793725013733 90.916485492140055 79.458101252093911 96.536480452865362 384.59098135307431 74.693947779014707 96.491261186078191 13.350508112460375 25.485765196382999 86.361889688298106 114.93887906894088 38.847335373982787 57.129242099821568 78.441557042300701 15.024570487439631
leaf_count=136897 1841 1146 392 710 1799 1565 5334 1349 2194 257 238 1462 1163 1133 527 1487 154
internal_value=1.86449e-05 0.00812146 0.0246996 -8.88527e-05 -0.00019914 -0.00783085 2.84791e-05 0.0241197 0.000329518 -0.000231808 0.00028877 -0.000253995 0.0234838 -0.0308185 0.0540045 -0.0392347 -0.0564069
internal_weight=8975.81 306.735 123.556 183.179 8669.08 635.28 555.821 171.23 8033.8 7822.37 7676.7 7594.09 211.43 145.664 82.615 132.313 93.4661
internal_count=159648 4089 2233 1856 155559 10047 8248 2914 145512 142155 139124 138359 3357 3031 765 2774 1641
cat_boundaries=0 1 2 3 4
cat_threshold=29 2 64 2
is_linear=0
shrinkage=0.148754


Tree=43
num_leaves=18
num_cat=1
split_feature=9 11 11 7 1 5 11 3 11 0 2 11 2 7 1 1 11
split_gain=0.990574 2.43877 3.38218 4.68277 3.35907 2.9509 2.91018 5.08877 2.2124 2.55607 2.19823 2.31755 2.09343 1.81912 4.1246 2.78814 1.8515
threshold=0 85.500000000000014 192.50000000000003 1.0000000180025095e-35 1.5000000000000002 3.5000000000000004 69.500000000000014 1.0000000180025095e-35 103.50000000000001 2.5000000000000004 1.5000000000000002 29.500000000000004 3.5000000000000004 59.500000000000007 11.500000000000002 60.500000000000007 2898.0000000000005
decision_type=9 2 2 2 2 2 2 2 2 2 2 2 2 2 2 2 2
left_child=1 6 3 8 -5 -6 10 -8 -3 -10 11 -1 -12 -4 16 -16 -15
right_child=-2 2 13 4 5 -7 7 -9 9 -11 12 -13 -14 14 15 -17 -18
leaf_value=0.020039147481210658 -0.00075484335859470823 -0.024674691175594982 0.00052376610424686629 0.015975289790268854 -0.05235690957032825 0 0.060973435643775796 -0.0063212024352499729 -0.0077480996613413407 0.029655582765211939 0.036140826633054894 -0.011980982355833674 0 0.053057228103883608 -0.010001462522595865 0.034814391337992141 0
leaf_weight=58.919237203896046 7011.4408436287194 32.890131931751966 1067.5438930820674 6.8255607206374398 102.20690590515733 35.919184967875481 58.661949999630451 13.533138059079645 30.830457761883736 84.374846525490284 71.896400555968285 169.69016162678599 19.080950647592545 61.214901726692915 110.68497717380524 35.078268639743328 4.4577185735106459
leaf_count=1099 127585 688 17679 139 1865 339 1103 190 742 1701 895 3559 166 679 963 211 45
internal_value=5.30511e-07 0.00300799 0 -0.0138403 -0.0326193 -0.0400803 0.013448 0.0406093 0.000921361 0.0144369 0.0046745 -0.000665776 0.0239343 0.00369246 0.0162524 0 0.0454997
internal_weight=8975.25 1963.81 1572.03 293.047 144.952 138.126 391.782 72.1951 148.095 115.205 319.587 228.609 90.9774 1278.98 211.436 145.763 65.6726
internal_count=159648 32063 25051 5474 2343 2204 7012 1293 3131 2443 5719 4658 1061 19577 1898 1174 724
cat_boundaries=0 1
cat_threshold=480
is_linear=0
shrinkage=0.148754


Tree=44
num_leaves=18
num_cat=4
split_feature=10 3 0 1 4 7 7 9 1 11 11 11 9 9 3 11 5
split_gain=0.911334 3.68907 2.81234 9.48095 3.39545 2.72832 3.95936 3.52851 3.07405 2.72975 3.49951 2.27892 4.2269 2.43687 3.40533 3.19905 3.06204
threshold=0 1.0000000180025095e-35 26.500000000000004 21.500000000000004 18.500000000000004 55.500000000000007 139.50000000000003 1 29.500000000000004 1631.0000000000002 58.500000000000007 45.500000000000007 2 3 1.5000000000000002 49.500000000000007 5.5000000000000009
decision_type=1 2 2 2 2 2 2 9 2 2 2 2 9 9 2 2 2
left_child=11 2 3 -2 -4 7 9 8 -3 10 -7 12 -1 14 15 -13 -16
right_child=1 5 4 -5 -6 6 -8 -9 -10 -11 -12 13 -14 -15 16 -17 -18
leaf_value=0.027597210975667048 -0.0050188530426450344 0.019614443138611437 0.029836101241883333 -0.07588234742925265 -0.0042866308689256125 0 0 -0.019417687289179367 -0.014939812318777513 0 0.07634935169266284 -0.041053095876025951 0 -0.0020689150367358051 -0.026643096263473862 0.0077413519631524376 0.0055537806057028051
leaf_weight=181.74743926897645 1937.7905109040439 234.48094011843204 100.99384800344706 38.399866433814168 95.234553821384907 4.1797583773732176 46.279507856816053 97.796887040138245 48.384736403822899 7.5498704686760894 49.513937640935183 20.345422480255365 376.90256660431623 3767.8406132217497 132.76500640623271 1764.9518642537296 69.832774430513382
leaf_count=3063 41466 4370 1210 549 795 50 395 1712 495 66 527 415 7442 63942 1849 30792 510
internal_value=0 -0.00223945 -0.00505949 -0.00695405 0.0104573 0.00890883 0.0295366 0.00103293 0.010898 0.0526373 0.0642567 0.00103658 0.0100642 3.835e-05 0.00433918 0.00668487 -0.0126139
internal_weight=8974.99 2660.6 2172.42 1976.19 196.228 488.186 107.523 380.663 282.866 61.2436 53.6937 6314.39 558.65 5755.74 1987.9 1785.3 202.598
internal_count=159648 51635 44020 42015 2005 7615 1038 6577 4865 643 577 108013 10505 97508 33566 31207 2359
cat_boundaries=0 1 2 3 4
cat_threshold=1 60 208 417
is_linear=0
shrinkage=0.148754


Tree=45
num_leaves=18
num_cat=1
split_feature=11 11 11 11 11 11 11 5 11 11 11 11 11 11 11 11 9
split_gain=0.881933 11.7252 7.89 7.51831 12.6172 4.55758 7.54494 5.22227 4.67498 13.194 7.81246 9.30005 4.90595 17.3721 9.17416 8.50615 4.92809
threshold=822.50000000000011 805.00000000000011 827.50000000000011 777.00000000000011 734.50000000000011 603.00000000000011 620.00000000000011 4.5000000000000009 528.00000000000011 537.00000000000011 544.50000000000011 562.00000000000011 479.50000000000006 489.50000000000006 376.00000000000006 372.50000000000006 0
decision_type=2 2 2 2 2 2 2 2 2 2 2 2 2 2 2 2 9
left_child=1 3 -2 4 5 8 -7 -8 12 -10 -11 -12 14 -14 15 -1 -16
right_child=2 -3 -4 -5 -6 6 7 -9 9 10 11 -13 13 -15 16 -17 -18
leaf_value=6.9382340867921556e-05 0.066297349760150559 -0.068600456003279048 0.0010151044242489617 0.042464131622275289 -0.036361933877968482 0.050491650818244603 -0.00060522789336093369 0.040007601160049061 -0.075154344620199973 0.054421522008813963 -0.076258259779454662 0 0.074707177199291125 0 0 0.066302633610517761 -0.032356669583694715
leaf_weight=4257.6686594951898 36.174185428768396 50.029623821377754 2500.3979083839804 83.267332041636109 208.81515065394342 93.232401330024004 474.19828534126282 71.181941658258438 64.892987659201026 37.798134159296751 36.570914406329393 207.53074247390032 81.000373773276806 256.45956772007048 195.57966108247638 37.409256886690855 284.7293188944459
leaf_count=85273 496 1022 36901 1463 4108 748 7396 585 1287 655 678 3258 1205 4323 3844 683 5723
internal_value=0 -0.000912174 0.00235909 -0.000215458 -0.000922298 0.000220929 0.0121337 0.00391259 -0.00106641 -0.0176262 -0.000812063 -0.0130793 0 0.0172418 -0.00115699 0.000890926 -0.0205772
internal_weight=8976.94 6440.36 2536.57 6390.33 6307.07 6098.25 638.613 545.38 5459.64 346.793 281.9 244.102 5112.85 337.46 4775.39 4295.08 480.309
internal_count=159648 122251 37397 121229 119766 115658 8729 7981 106929 5878 4591 3936 101051 5528 95523 85956 9567
cat_boundaries=0 1
cat_threshold=168
is_linear=0
shrinkage=0.148754


Tree=46
num_leaves=18
num_cat=2
split_feature=1 0 7 7 3 11 11 11 9 11 11 7 9 11 11 4 1
split_gain=0.818989 1.21367 2.29328 2.5593 1.84856 1.89404 2.89529 2.71323 2.90828 1.97291 2.58564 1.86578 1.82744 1.66488 1.23387 1.06451 1.04915
threshold=1.0000000180025095e-35 3.5000000000000004 76.500000000000014 129.50000000000003 1.0000000180025095e-35 464.50000000000006 544.50000000000011 217.50000000000003 0 203.00000000000003 47.500000000000007 3.5000000000000004 1 25.500000000000004 147.50000000000003 1.5000000000000002 3.5000000000000004
decision_type=2 2 2 2 2 2 2 2 9 2 2 2 9 2 2 2 2
left_child=-1 2 4 14 5 7 12 8 -2 10 13 -6 -7 -10 -4 -12 -3
right_child=1 16 3 -5 11 6 -8 -9 9 -11 15 -13 -14 -15 -16 -17 -18
leaf_value=0.004127655021262765 0.0054050134393720632 0.0049472620813605052 0 0 0.045553163540808544 -0.003546544964836619 -0.0049453864968231152 -0.026697640979055928 -0.027247990936309585 0.017519985805751086 -0.032587138541025525 0 0.034374787119344788 0.014509378914311623 0.082039847258572871 0 -0.00039783639639239389
leaf_weight=951.13528479635715 242.78756059333682 921.02839708887041 2.4475284740328815 13.528683573007582 22.704794432967901 5.5855792798101902 417.94792875275016 216.25303374417126 23.758814940229058 12.85270315594971 172.98908743448555 13.121549131348727 63.251276172697544 63.233087038621306 11.055619712918995 25.774617085233331 5794.8359830528498
leaf_count=18393 6338 18911 41 169 559 130 8724 5844 603 332 4970 276 1528 1687 144 602 90397
internal_value=0 -0.000475062 -0.0046394 0.0310717 -0.00604139 -0.00743896 0 -0.0120613 -0.00479948 -0.0148483 -0.0193665 0.0210716 0.0267537 0 0.0671296 -0.0285208 0.000242936
internal_weight=8974.29 8023.16 1307.29 27.0318 1280.26 1244.43 486.785 757.649 541.396 298.608 285.756 35.8263 68.8369 86.9919 13.5031 198.764 6715.86
internal_count=159648 141255 31947 354 31593 30758 10382 20376 14532 8194 7862 835 1658 2290 185 5572 109308
cat_boundaries=0 1 2
cat_threshold=225 64
is_linear=0
shrinkage=0.148754


Tree=47
num_leaves=18
num_cat=3
split_feature=11 11 11 11 6 9 11 9 1 1 7 0 0 7 9 4 4
split_gain=0.684868 10.2355 5.79161 5.64558 4.15727 3.95997 2.93128 3.27299 2.85456 3.53483 4.68398 2.58418 4.48372 5.02647 2.5801 2.45723 3.037
threshold=189.50000000000003 157.50000000000003 217.50000000000003 207.50000000000003 1.5000000000000002 0 195.50000000000003 1 28.500000000000004 66.500000000000014 15.500000000000002 9.5000000000000018 22.500000000000004 118.50000000000001 2 5.5000000000000009 12.500000000000002
decision_type=2 2 2 2 2 9 2 9 2 2 2 2 2 2 9 2 2
left_child=1 8 3 6 11 15 7 -2 -1 10 -10 -5 13 -13 -8 -3 -17
right_child=2 5 -4 4 -6 -7 14 -9 9 -11 -12 12 -14 -15 -16 16 -18
leaf_value=-4.939974170828401e-05 0 -0.016780608100425261 0 0.018136561533595223 0 -0.040128044783917828 0.0071288467978965226 0.049660371465423306 0 -0.0093372865046232531 0.058077159935524029 0.14215041863242184 0 0 -0.029278088685073481 0.055227784822247147 0
leaf_weight=2392.0426128339022 31.543316893279552 98.271252632141113 5795.4653618969023 60.858359161764383 14.588829258456824 183.2491677030921 42.604656208306551 33.612159723415971 73.648792305961251 37.174870876595378 66.190995287150145 23.310866978019479 15.520009182393549 3.7221971452236167 63.846343122422695 24.046709053218365 13.296337235718964
leaf_count=50611 627 2435 95296 1252 296 3623 709 686 847 295 560 332 154 38 1408 340 139
internal_value=0 -0.00184975 0.000928573 0.0212374 0.0456104 -0.0268043 0 0.0265724 0.00105346 0.0189833 0.0310145 0.0565389 0.0889362 0.120802 -0.011344 -0.000419027 0.023962
internal_weight=8972.99 2887.92 6085.07 289.607 118 318.863 171.606 65.1555 2569.06 177.015 139.84 103.411 42.5531 27.0331 106.451 135.614 37.343
internal_count=159648 58850 100798 5502 2072 6537 3430 1313 52313 1702 1407 1776 524 370 2117 2914 479
cat_boundaries=0 1 2 3
cat_threshold=37 116 432
is_linear=0
shrinkage=0.148754


Tree=48
num_leaves=18
num_cat=1
split_feature=2 11 4 3 11 10 1 4 1 3 2 11 7 11 3 11 1
split_gain=0.773685 1.1602 1.04111 0.941913 0.86475 2.11474 0.857379 3.22271 2.92769 1.53468 1.89689 1.3834 1.29055 2.59893 2.0971 2.09081 1.30238
threshold=8.5000000000000018 180.00000000000003 8.5000000000000018 4.5000000000000009 1315.0000000000002 0 78.500000000000014 61.500000000000007 71.500000000000014 10.500000000000002 4.5000000000000009 3316.5000000000005 12.500000000000002 1552.5000000000002 7.5000000000000009 3316.5000000000005 96.500000000000014
decision_type=2 2 2 2 2 1 2 2 2 2 2 2 2 2 2 2 2
left_child=6 -2 -3 4 5 -4 8 12 -1 10 11 -10 13 14 -8 -15 -14
right_child=1 2 3 -5 -6 -7 7 -9 9 -11 -12 -13 16 15 -16 -17 -18
leaf_value=-3.5841774181209596e-05 0 0 0.10201084571664791 0 0 0 -0.049473195297867451 0.0085719187991733382 0.066793682832155657 0 0 0 0 0.07264963511487886 0 0 -0.05376611193359964
leaf_weight=8711.4593816995621 5.8726612105965641 1.2307356372475649 8.4827040731906855 2.6660656407475463 3.1862028613686553 1.7340485379099888 22.839048191905025 74.173687987029552 32.23705081269145 2.5729122459888449 4.5909863784909239 1.9613730758428563 40.00786130875349 8.8179780468344671 4.4023343436419955 3.62725238315761 42.842814192175865
leaf_count=157746 50 12 60 15 20 11 251 431 243 16 30 20 281 83 33 42 304
internal_value=0 0.0241301 0.0426772 0.0543837 0.0665179 0.0803216 -5.76609e-05 -0.00965905 9.10005e-05 0.0369319 0.0468741 0.059047 -0.0255971 0 -0.0271419 0.0420226 -0.0356095
