tree
version=v4
num_class=1
num_tree_per_iteration=1
label_index=0
max_feature_idx=11
objective=binary sigmoid:1
feature_names=activity_len actions_0 actions_2 actions_3 unique_items unique_categories unique_brands day_span has_1111 age_range gender merchant_freq
feature_infos=[0:37] [0:1268] [0:10] [0:107] [0:504] [0:33] [0:19] [0:184] [0:1] -1:3:0:4:2:5:6:7:8 -1:0:1:2 [1:3379]
tree_sizes=3334 3410 3427 3448 3450 3469 3445 3476 3457 3475 3461 3478 3439 3489 3486 3490 3461 3449 3473 3456 3476 3443 3470 3445 3456 3458 3482 3458 3447 3445 3482 3456 3496 3480 3468 3459 3460 3424 3445 3484 3451 3460 3429 3462 3461 3490 3501 3478 3458 3483 3442 3489 3415 3492 3449 3500 3451 3471 3450 3507 3502 3506 3401 3406 3503 3441 3453 3419 3480 3416 3432 3520 3467 3440 3429 3456 3530 3439 3425 3439 3484 3481 3448 3438 3428 3454 3458 3468 3436 3490 3477 3450 3377 3460 3433 3460 3419 3453 3409 3472 3452 3428 3433 3429 3436 3505 3473 3445 3460 3416 3464 3461 3441 3484 3437 3414 3467 3454 3452 3442 3423 3409 3443 3457 3429 3503 3475 3438 3442 3418 3473 3432 3457 3455 3468 3498 3467 3466 3448 3441 3428 3481 3463 3499 3488 3447 3475 3439 3438 3478 3427 3462 3488 3461 3453 3420 3424 3441 3428 3433 3403 3486 3418 3453 3427 3420 3442 3457 3434 3416 3477 3477 3478 3408 3482 3463 3470 3466 3419 3432 3474 3490 3431 3446 3453 3479 3421 3432 3473 3449 3412 3455 3421 3443 3457 3404 3427 3435 3443 3445 3414 3468 3423 3409 3417 3447 3397 3420 3411 3406 3456 3439 3437 3447 3447 3415 3409 3441 3485 3427 3447 3456 3444 3415 3481 3423 3440 3432 3445 3464 3385 3419 3444 3426 3443 3414 3464 3427 3427 3444 3464 3460 3498 3416 3451 3466 3448 3477 3416 3424 3453 3489 3462 3454 3470 3452 3440 3419 3423 3466 3393 3440 3480 3485 3478 3436

Tree=0
num_leaves=31
num_cat=0
split_feature=4 2 5 7 4 2 7 2 7 3 7 5 1 11 7 11 11 11 11 2 4 11 7 4 2 1 1 1 4 7
split_gain=376.404 127.509 74.8777 45.1068 44.185 24.8039 21.2814 29.6093 19.5821 15.1356 14.5381 13.8526 24.3175 13.0622 12.6976 11.0819 18.6415 13.8111 65.6463 10.9983 9.92472 9.56403 12.6314 9.31289 8.06606 8.04258 16.8319 7.90025 7.86512 7.80276
threshold=8.5000000000000018 1.5000000000000002 5.5000000000000009 11.500000000000002 44.500000000000007 2.5000000000000004 12.500000000000002 3.5000000000000004 24.500000000000004 15.500000000000002 58.500000000000007 9.5000000000000018 44.500000000000007 469.50000000000006 10.500000000000002 537.00000000000011 698.50000000000011 605.50000000000011 620.00000000000011 1.5000000000000002 48.500000000000007 505.50000000000006 140.50000000000003 17.500000000000004 2.5000000000000004 84.500000000000014 135.50000000000003 48.500000000000007 3.5000000000000004 152.50000000000003
decision_type=2 2 2 2 2 2 2 2 2 2 2 2 2 2 2 2 2 2 2 2 2 2 2 2 2 2 2 2 2 2
left_child=1 3 8 15 6 14 -4 23 19 -6 27 -11 -13 -5 -3 -1 17 -17 28 -2 -14 22 -12 -8 -10 -22 -27 -9 -19 -28
right_child=2 5 4 13 9 -7 7 10 24 11 21 12 20 -15 -16 16 -18 18 -20 -21 25 -23 -24 -25 -26 26 29 -29 -30 -31
leaf_value=-3.8465967013494571 -3.8203636504592096 -3.8218635774947813 -3.7811459797697671 -3.8308140856053559 -3.6823350530318208 -3.7897457412150373 -3.7779298530567234 -3.6538570349058426 -3.7809809956494052 -3.834725549130412 -3.3085948792660367 -1.4770438143644915 -2.9193902710035786 -3.8056830414420548 -3.7896485769185784 -3.8369620335803152 -3.8425997370957892 -3.6329031047700098 -3.81722022388742 -3.7931256552963641 -3.8809546041332537 -3.6354245168873294 -3.6138533981827483 -3.7327746028270061 -3.727251863919725 -2.9691263566367878 -3.6624172536783246 -3.8034090925457393 -3.4242115430334752 -3.3421470008441108
leaf_weight=1280.2731702555902 79.838652965147048 261.67256305133924 55.856897913850844 114.67771605215967 12.209271687082945 104.2935953582637 19.65547143202275 2.2567393160425122 49.513068510219455 0.27039272850379248 0.65518238488584779 0.015599580947309621 0.077997903339564689 94.159067875239998 34.636268568690866 57.396056483499706 479.07871640007943 3.4267078563570972 50.012255063746125 69.168539931066334 0.12479664385318734 2.1891411342658103 0.70198112400248647 27.247267291415483 8.1325813066214305 0.15079594636335969 0.51478615729138255 1.450760986190289 0.51998601900413621 0.30159189132973552
leaf_count=84417 5376 17599 3878 7658 912 7193 1368 172 3438 18 62 3 9 6414 2389 3814 31691 265 3376 4758 8 169 55 1962 588 17 39 99 46 28
internal_value=-3.82987 -3.83655 -3.77973 -3.84152 -3.74896 -3.81072 -3.75949 -3.73716 -3.79815 -3.66416 -3.64315 -3.51178 -3.43813 -3.81948 -3.8181 -3.84398 -3.83832 -3.81989 -3.80173 -3.80772 -3.46428 -3.57077 -3.46649 -3.7517 -3.7734 -3.5032 -3.45445 -3.71238 -3.60541 -3.5441
internal_weight=2810.48 2480.15 330.332 2079.54 123.679 400.602 110.013 54.1565 206.653 13.6652 7.2538 1.45596 1.18557 208.837 296.309 1870.71 590.434 111.355 53.9589 149.007 1.16997 3.5463 1.35716 46.9027 57.6456 1.09197 0.967174 3.7075 3.94669 0.816378
internal_count=187821 164862 22959 137681 8799 27181 7765 3887 14160 1034 557 122 104 14072 19988 123609 39192 7501 3687 10134 101 286 117 3330 4026 92 84 271 311 67
is_linear=0
shrinkage=1


Tree=1
num_leaves=31
num_cat=0
split_feature=4 2 7 7 5 2 2 2 5 6 3 11 7 11 11 11 11 11 2 1 11 4 5 1 4 6 11 11 3 11
split_gain=323.954 114.948 57.086 41.3235 34.0373 24.0761 20.8536 16.8314 11.8269 11.4527 13.4561 11.4012 10.8191 10.3726 16.9287 12.1239 11.6674 34.3741 9.84203 9.24862 8.62049 8.19356 7.51565 10.7924 7.17946 6.60846 16.9134 6.59146 6.56917 6.48261
threshold=8.5000000000000018 1.5000000000000002 27.500000000000004 11.500000000000002 9.5000000000000018 2.5000000000000004 2.5000000000000004 3.5000000000000004 16.500000000000004 1.5000000000000002 1.5000000000000002 469.50000000000006 9.5000000000000018 537.00000000000011 698.50000000000011 598.50000000000011 620.00000000000011 605.50000000000011 4.5000000000000009 121.50000000000001 1152.0000000000002 18.500000000000004 4.5000000000000009 5.5000000000000009 1.5000000000000002 5.5000000000000009 635.00000000000011 986.50000000000011 15.500000000000002 822.50000000000011
decision_type=2 2 2 2 2 2 2 2 2 2 2 2 2 2 2 2 2 2 2 2 2 2 2 2 2 2 2 2 2 2
left_child=1 3 5 13 7 22 12 21 18 -9 -11 -5 -3 24 15 -15 17 -17 -6 25 -10 -4 -2 -24 -1 28 -27 -20 -7 -16
right_child=2 6 4 11 8 19 -8 9 20 10 -12 -13 -14 14 29 16 -18 -19 27 -21 -22 -23 23 -25 -26 26 -28 -29 -30 -31
leaf_value=-0.019064954698825284 0.012163628834838231 0.0073914093760317004 0.043607973813355891 -0.00089868328647190973 0.1093761721050181 0.049837729913406743 0.036644169752650675 0.10502416378384648 0.14659443039437334 0.16065596814733757 0.53905915708023577 0.022437153735821051 0.035714521584151122 -0.0099930991090205566 -0.02241367267407712 0.0085727459388922813 0.011867904574789078 0.17065191257220425 0.17116404675954389 0.18124076001195513 0.37599615562115679 0.075552006772950001 0.46443891199027904 0.033261587081052139 -0.011259601062150308 0.02838066166015752 0.37610207902502957 0.38379322886898304 0.265675875193639 -0.008878451296295482
leaf_weight=790.16871197381988 102.73482472589239 260.96095589641482 58.44117404287681 114.57398522458971 16.803788482211537 61.276236806996167 108.37462550308555 8.0767435422167164 0.81908632395788916 0.76655130553990491 0.33875956665724516 96.363861814141273 38.719664076343179 47.158503785263747 117.76726609561592 9.8490052237175387 50.621475800871849 4.8981695594266048 1.235463867895304 1.451871973928063 0.81900634290650487 30.576816686894745 0.145471200812607 61.167140234261751 469.75466989725828 0.94295756239443906 0.55585621017962694 0.517007884569466 0.3545683715492477 355.50550405867398
leaf_count=52820 6817 17415 3855 7658 1090 4083 7193 512 51 50 29 6414 2573 3147 7822 667 3376 311 78 102 62 2021 13 4026 31597 61 46 39 24 23869
internal_value=-2.50627e-05 -0.00639331 0.0452051 -0.011203 0.0733861 0.0306118 0.0178481 0.0612287 0.132504 0.125682 0.27663 0.00976195 0.0110508 -0.0135989 -0.00810193 0.00932954 0.0232693 0.0624062 0.121136 0.0564717 0.26129 0.0545804 0.0204313 0.0342846 -0.0161548 0.0536022 0.157338 0.233893 0.0510795 -0.0122465
internal_weight=2811.74 2464.72 347.023 2056.66 118.394 228.629 408.055 98.2 20.1944 9.18205 1.10531 210.938 299.681 1845.72 585.8 112.527 65.3687 14.7472 18.5563 64.5815 1.63809 89.018 164.047 61.3126 1259.92 63.1296 1.49881 1.75247 61.6308 473.273
internal_count=187821 164862 22959 137681 7787 15172 27181 6467 1320 591 79 14072 19988 123609 39192 7501 4354 978 1207 4316 113 5876 10856 4039 84417 4214 107 117 4107 31691
is_linear=0
shrinkage=0.05


Tree=2
num_leaves=31
num_cat=0
split_feature=4 2 5 4 7 7 2 2 7 2 7 11 5 11 3 11 2 11 11 11 11 2 3 2 4 2 1 11 11 11
split_gain=285.43 73.6248 69.7383 24.8042 24.7171 21.9598 17.0512 14.0852 11.9545 16.7587 11.0269 10.206 8.65355 9.65516 8.64828 8.51868 8.4002 7.85455 13.5886 11.809 30.2513 7.66048 7.6072 7.47759 7.38544 8.01621 6.83355 6.37242 6.31516 19.2632
threshold=5.5000000000000009 1.5000000000000002 5.5000000000000009 19.500000000000004 9.5000000000000018 9.5000000000000018 1.5000000000000002 3.5000000000000004 34.500000000000007 7.5000000000000009 13.500000000000002 73.500000000000014 7.5000000000000009 39.500000000000007 9.5000000000000018 537.00000000000011 1.5000000000000002 537.00000000000011 689.50000000000011 605.50000000000011 620.00000000000011 3.5000000000000004 15.500000000000002 2.5000000000000004 56.500000000000007 3.5000000000000004 90.500000000000014 67.500000000000014 1224.5000000000002 1207.0000000000002
decision_type=2 2 2 2 2 2 2 2 2 2 2 2 2 2 2 2 2 2 2 2 2 2 2 2 2 2 2 2 2 2
left_child=1 5 4 14 6 17 -2 10 16 11 -3 12 -10 -14 21 -7 -5 -1 19 -19 -21 -4 -18 -6 25 -13 -27 -23 29 -20
right_child=2 7 3 8 23 15 -8 -9 9 -11 -12 24 13 -15 -16 -17 22 18 28 20 -22 27 -24 -25 -26 26 -28 -29 -30 -31
leaf_value=-0.016144019927227866 0.00082032801943545156 0.0077232208273420007 0.031008394086044042 0.022446812410181829 0.032273906296043639 -0.0044104833095602062 0.025828698751573079 0.048857205577813173 -0.011960626968586793 0.3818184511889321 0.042801651107501684 0.069506083532264715 0.10498825643702557 0.39131534336250456 0.1724270863694238 0.016910893761550225 0.071580465059956855 -0.0074919091713082919 -0.010007309426079539 0.13756291277152877 0.011690789956670361 -0.026856677813327234 0.25723203080935753 0.063912396775758537 0.13625391132410022 0.17714279538783653 0.026062820071702297 0.080375093614529505 -0.020129414650824747 0.072418913849034885
leaf_weight=1168.4870998039842 155.57688212115318 281.27709183096886 63.417829433456063 10.69120100000873 133.64994847727939 122.93328028731048 121.30218854779378 25.992344707250595 0.31701123155653377 0.519081543199717 24.34207877703011 26.169004713650796 0.47971777198836185 0.76225780555978417 1.2289611427113403 75.691180807538331 22.083945523016158 52.491137859877199 257.90855188947171 5.4843277232721439 36.821279939264059 1.5347825661301602 0.56592196831479569 21.708865763153881 7.1845809072256079 3.3310737847350529 0.96537993336096395 14.241443973965941 168.10527120158076 7.2885515168309203
leaf_count=79496 10436 18460 4024 660 8696 8213 7873 1687 17 35 1573 1559 29 56 81 4952 1393 3532 17503 298 2429 87 33 1360 405 190 48 892 11279 525
internal_value=-4.32355e-05 -0.00821236 0.031014 0.0599658 0.020733 -0.0120154 0.0117766 0.0135223 0.0810527 0.0995799 0.0105172 0.0958434 0.221205 0.28072 0.0408071 0.0037146 0.0589764 -0.0138569 -0.00879636 0.00835104 0.0280083 0.0387646 0.0762191 0.0366949 0.0906525 0.0798984 0.143196 0.0699431 -0.0125478 -0.00774195
internal_weight=2812.55 2226.82 585.73 153.492 432.238 1895.21 276.879 331.612 73.0692 39.7281 305.619 39.209 1.55899 1.24198 80.423 198.624 33.3411 1696.59 528.099 94.7967 42.3056 79.1941 22.6499 155.359 37.65 30.4655 4.29645 15.7762 433.302 265.197
internal_count=187821 149947 37874 9509 28365 128227 18309 21720 4425 2339 20033 2304 102 85 5084 13165 2086 115062 35566 6259 2727 5003 1426 10056 2202 1797 238 979 29307 18028
is_linear=0
shrinkage=0.05


Tree=3
num_leaves=31
num_cat=0
split_feature=5 2 4 7 7 2 7 11 11 11 2 2 11 11 11 11 7 2 11 11 2 11 11 4 0 7 11 3 5 5
split_gain=254.151 69.4309 58.3932 27.2785 18.3453 16.9399 12.8129 12.1623 15.8429 21.5274 11.9064 10.4657 9.69009 11.1644 11.0117 29.8522 7.70332 7.49833 7.25313 10.2042 6.67071 6.49442 11.0063 6.40335 6.17218 6.13404 5.92889 5.8327 5.82761 5.61494
threshold=2.5000000000000004 1.5000000000000002 16.500000000000004 24.500000000000004 30.500000000000004 3.5000000000000004 9.5000000000000018 537.00000000000011 1224.5000000000002 1207.0000000000002 2.5000000000000004 8.5000000000000018 698.50000000000011 822.50000000000011 605.50000000000011 620.00000000000011 168.50000000000003 2.5000000000000004 991.00000000000011 974.00000000000011 1.5000000000000002 875.50000000000011 897.50000000000011 3.5000000000000004 18.500000000000004 9.5000000000000018 986.50000000000011 18.500000000000004 15.500000000000002 1.5000000000000002
decision_type=2 2 2 2 2 2 2 2 2 2 2 2 2 2 2 2 2 2 2 2 2 2 2 2 2 2 2 2 2 2
left_child=1 3 5 7 20 6 -2 -1 9 12 25 17 14 -14 -9 -16 21 28 19 -15 -4 -5 -23 -18 26 -3 -21 -22 -6 -10
right_child=2 10 4 16 11 -7 -8 8 29 -11 -12 -13 13 18 15 -17 23 -19 -20 24 27 22 -24 -25 -26 -27 -28 -29 -30 -31
leaf_value=-0.015453198533774862 0.010997532810547024 0.0053550491384543016 0.018813094369033587 0.0029413938152078678 0.062980492032181173 0.05129262561893793 0.030300684451258459 -0.0065198764934957208 -0.024044263395894785 0.073020655488487254 0.030164942348481466 0.31053794048873562 -0.019744638014308442 0.0037380223596629823 0.12304703006985394 0.011515030887815893 0.021399149745477571 0.10474480193470757 -0.010236644577105429 0.076395701043342007 0.050442089675753948 0.17046344318220744 0.023891879407009476 0.13163613329445872 0.27530747699858166 0.028823244646103276 0.0035427128516410606 0.21192695497218594 0.1542824848122229 -0.0027283397914544113
leaf_weight=1233.3421538663097 236.25880803214386 237.06860212190077 22.31821865029633 87.167789338622242 45.785829129628837 42.650236287154257 135.13931671017781 56.119130514096469 134.71484415186569 9.564582981169222 79.260399505030364 0.48226005444303055 116.6092635714449 66.380465636961162 6.7908368268981567 51.487266800366342 2.9302962291985741 17.494928826577961 76.244809585157782 7.1595616796985233 41.652743671555072 1.3536034394055629 23.814203702844679 2.3931896551512182 0.3063793205656119 31.549149506725371 4.5785929965786636 0.56678160186856885 1.8170721610076714 40.08749565994367
leaf_count=84939 15574 15518 1390 5682 2611 2584 8547 3789 9148 651 4922 25 7947 4551 334 3371 194 922 5173 520 2503 97 1519 166 25 1958 314 26 86 2735
internal_value=-5.76773e-05 -0.00741772 0.0306303 -0.0111398 0.0598478 0.0214485 0.0180213 -0.0126616 -0.00662184 -0.00107845 0.0131361 0.0784723 -0.00291607 -0.00806269 0.00928851 0.0245113 0.0121864 0.0767531 0.000744616 0.0114206 0.0409224 0.0094013 0.031775 0.0709565 0.0537612 0.00811139 0.0479786 0.05261 0.0664656 -0.0191559
internal_weight=2813.09 2268.92 544.166 1921.04 130.118 414.048 371.398 1803.39 570.043 395.241 347.878 65.5801 385.676 271.279 114.397 58.2781 117.659 65.0978 154.67 78.425 64.5377 112.336 25.1678 5.32349 12.0445 268.618 11.7382 42.2195 47.6029 174.802
internal_count=187821 153553 34268 131155 7563 26705 24121 123497 38558 26675 22398 3644 26024 18530 7494 3705 7658 3619 10583 5410 3919 7298 1616 360 859 17476 834 2529 2697 11883
is_linear=0
shrinkage=0.05


Tree=4
num_leaves=31
num_cat=1
split_feature=4 2 5 7 7 0 2 2 7 9 4 11 11 11 4 1 2 7 7 2 7 5 11 11 7 7 6 11 1 11
split_gain=226.072 60.8463 46.4806 18.7494 18.2652 14.742 13.6543 10.3882 8.4486 7.50521 7.36089 7.20109 5.72893 10.5272 5.25187 5.16896 5.07632 4.77396 4.6942 4.90447 6.10404 5.00785 4.58664 5.08194 4.26623 6.01989 4.57028 5.68478 4.49722 4.25197
threshold=5.5000000000000009 1.5000000000000002 5.5000000000000009 9.5000000000000018 8.5000000000000018 34.500000000000007 1.5000000000000002 3.5000000000000004 13.500000000000002 0 53.500000000000007 207.50000000000003 573.00000000000011 698.50000000000011 2.5000000000000004 25.500000000000004 2.5000000000000004 158.50000000000003 12.500000000000002 3.5000000000000004 22.500000000000004 7.5000000000000009 827.50000000000011 3316.5000000000005 2.5000000000000004 4.5000000000000009 1.5000000000000002 637.00000000000011 7.5000000000000009 537.00000000000011
decision_type=2 2 2 2 2 2 2 2 2 9 2 2 2 2 2 2 2 2 2 2 2 2 2 2 2 2 2 2 2 2
left_child=1 3 4 9 6 18 -2 8 12 29 15 -5 -3 24 -11 -7 17 22 -4 -20 21 -21 -6 -24 26 -26 -14 -28 -27 -1
right_child=2 7 5 11 16 10 -8 -9 -10 14 -12 -13 13 -15 -16 -17 -18 -19 19 20 -22 -23 23 -25 25 28 27 -29 -30 -31
leaf_value=-0.01788436210846971 5.0292580289180842e-05 0.0017787806689489817 0.021619845124889864 -0.0091620221754682672 0.017349851041215083 0.19679775632067167 0.022470778317933832 0.040907675923291621 0.036466839633589578 -0.010510251371453932 0.095369299494995174 0.010521258151394007 0.034261642105727068 0.0095019201608536087 0.00098789825034392774 0.055103262983356417 0.051552108698944069 0.054716060500664604 0.039461718713529492 0.34249456090628844 0.067036276191865474 0.097202462525043012 0.041370850473830073 -0.017178477967041757 0.23476579041378193 0.15028843988855015 0.24844283876039555 0.030447541787556966 -0.020143075033614372 -0.01095114946435876
leaf_weight=710.75235740002245 150.582044263836 191.82041242998093 42.87830312224105 73.373277782928199 84.60882019251585 0.64891512086614866 123.68581614270806 28.204147156327963 26.075510414782912 499.43212969601154 14.16817227937281 126.71422010473907 11.710439230781047 78.952173016499728 123.96050848066807 79.04088385310024 25.37795053422451 14.388291865587233 29.330085447523743 0.41242782911285658 3.2600413975305855 0.41994917951524258 45.085337435360998 4.0381223689764729 0.74326247815042679 0.7446205993182955 0.58413883857428917 0.61278910888358951 0.80607608146965504 321.01464923005551
leaf_count=49706 10091 12334 2561 4931 5251 35 7682 1687 1573 34814 669 8234 775 5106 8623 4323 1436 876 1717 28 154 22 2791 238 57 53 45 40 50 21919
internal_value=-6.95705e-05 -0.00758886 0.0266466 -0.0111535 0.0181931 0.0488919 0.0101612 0.0118477 0.00922117 -0.0129012 0.0621612 0.00330328 0.00673687 0.0168381 -0.00809403 0.0562571 0.0308899 0.0273498 0.0325692 0.0466162 0.0978921 0.21874 0.0244055 0.0365579 0.0549403 0.117772 0.0437736 0.136836 0.0616955 -0.0155763
internal_weight=2813.43 2195.5 617.925 1855.25 447.766 170.159 274.268 340.254 312.049 1655.16 93.858 200.087 285.974 94.1535 623.393 79.6898 173.499 148.121 76.3008 33.4225 4.09242 0.832377 133.732 49.1235 15.2013 2.29396 12.9074 1.19693 1.5507 1031.77
internal_count=187821 149947 37874 128227 28365 9509 17773 21720 20033 115062 5027 13165 18460 6126 43437 4358 10592 9156 4482 1921 204 50 8280 3029 1020 160 860 85 103 71625
cat_boundaries=0 1
cat_threshold=13
is_linear=0
shrinkage=0.05


Tree=5
num_leaves=31
num_cat=0
split_feature=5 2 4 7 2 7 11 7 2 11 11 11 11 11 11 11 7 7 11 2 4 11 11 4 11 11 4 2 1 11
split_gain=200.394 56.9164 38.8578 23.1363 13.7183 12.1297 11.467 9.45303 9.2737 7.69936 14.0156 15.2969 8.72249 12.2427 16.7943 8.31404 7.6865 6.93793 6.7562 6.19703 5.44417 5.43333 7.3379 5.40723 4.91044 5.82912 4.85609 4.82288 4.72095 5.50525
threshold=2.5000000000000004 1.5000000000000002 16.500000000000004 9.5000000000000018 1.5000000000000002 30.500000000000004 537.00000000000011 158.50000000000003 2.5000000000000004 537.00000000000011 1224.5000000000002 1207.0000000000002 689.50000000000011 605.50000000000011 620.00000000000011 822.50000000000011 3.5000000000000004 15.500000000000002 3316.5000000000005 2.5000000000000004 2.5000000000000004 991.00000000000011 974.00000000000011 12.500000000000002 573.00000000000011 1224.5000000000002 4.5000000000000009 1.5000000000000002 42.500000000000007 94.500000000000014
decision_type=2 2 2 2 2 2 2 2 2 2 2 2 2 2 2 2 2 2 2 2 2 2 2 2 2 2 2 2 2 2
left_child=1 3 4 9 17 27 7 -5 24 -1 11 12 13 -11 -15 -14 -6 -2 19 -7 -9 22 23 -17 26 -26 -3 -4 -19 -30
right_child=2 8 5 6 16 18 -8 20 -10 10 -12 -13 15 14 -16 21 -18 28 -20 -21 -22 -23 -24 -25 25 -27 -28 -29 29 -31
leaf_value=-0.014642812633674561 0.0041999953246830242 -0.0018214435906801934 0.015298259017187836 -0.0067219674011569121 0.01998688283423149 0.057419041039551491 0.019604674378496657 -0.011361195812703543 0.026069887038304748 -0.0072357349672072585 -0.019675535228935379 0.061205593469565736 -0.018164500754217803 0.097461933409182966 0.014811103460989676 0.00095452361329601454 0.039942289169501467 0.020665603650384626 0.0095097536515022923 0.090413602258240244 0.091962820113430335 -0.01019280078089984 0.045393441949940459 0.16147411670367584 0.02375198548453062 -0.0045578549300334227 0.019039348796791249 0.043110873260529932 0.37014183963289154 0.074768405444946895
leaf_weight=1134.0695294970647 151.66777976276353 145.25355987949297 23.473609413485974 131.0103152715601 114.25366750964895 48.829680515453219 82.986058125272393 1.887536254711448 83.386803669854999 52.212334412615746 160.34292773762718 9.3401526357047242 118.32102500507608 7.3570137089118353 37.345283480826765 61.054990470409393 83.538410480134189 78.742026177700609 5.5124321491457513 20.084658485837281 3.9277742640115321 70.394445246085525 11.78781053656712 0.52918365877121587 69.074302615597844 24.679799155797809 34.529209489934146 46.393172619864345 0.17797913309186597 1.3880548779852686
leaf_count=80480 10069 9342 1390 8705 6933 2484 5200 124 4922 3587 11239 595 8266 320 2440 4219 4864 4741 256 904 253 4882 806 39 4418 1556 2160 2529 14 84
internal_value=-7.75983e-05 -0.0068336 0.0262785 -0.0103044 0.0187408 0.0487288 0.00494074 -0.00395308 0.0114727 -0.0123197 -0.00733659 -0.00196533 -0.00360884 0.00920768 0.0284136 -0.00834814 0.0284151 0.0104921 0.0627745 0.0670351 0.0584259 -0.000269182 0.00925172 0.00233384 0.00702285 0.0162997 0.0021851 0.0337665 0.0223752 0.108337
internal_weight=2813.55 2239.49 574.061 1882.57 429.768 144.294 219.812 136.826 356.924 1662.75 528.685 368.342 359.002 96.9146 44.7023 262.087 197.792 231.976 74.4268 68.9143 5.81531 143.766 73.372 61.5842 273.537 93.7541 179.783 69.8668 80.3081 1.56603
internal_count=187821 153553 34268 131155 26705 7563 14282 9082 22398 116873 36393 25154 24559 6347 2760 18212 11797 14908 3644 3388 377 9946 5064 4258 17476 5974 11502 3919 4839 98
is_linear=0
shrinkage=0.05


Tree=6
num_leaves=31
num_cat=2
split_feature=4 2 7 2 7 4 2 9 7 2 11 7 9 4 2 7 4 6 2 1 11 5 7 11 5 11 11 4 11 11
split_gain=179.831 50.1508 33.0585 16.9419 15.6707 15.1787 8.10086 7.14628 6.84805 6.14805 5.94519 5.2314 5.10783 4.96383 5.36499 5.00606 4.72633 4.31531 7.06523 5.83233 4.27321 4.27311 8.1538 5.74163 9.19374 6.77883 4.16281 4.40592 4.20783 14.511
threshold=5.5000000000000009 1.5000000000000002 9.5000000000000018 2.5000000000000004 9.5000000000000018 14.500000000000002 3.5000000000000004 0 13.500000000000002 6.5000000000000009 207.50000000000003 20.500000000000004 1 59.500000000000007 3.5000000000000004 47.500000000000007 2.5000000000000004 3.5000000000000004 3.5000000000000004 8.5000000000000018 469.50000000000006 7.5000000000000009 1.0000000180025095e-35 474.00000000000006 12.500000000000002 649.00000000000011 73.500000000000014 9.5000000000000018 562.00000000000011 698.50000000000011
decision_type=2 2 2 2 2 2 2 9 2 2 2 2 9 2 2 2 2 2 2 2 2 2 2 2 2 2 2 2 2 2
left_child=1 4 3 26 7 9 8 -1 12 17 -6 -11 20 14 -7 -16 -9 -4 19 -19 -3 -5 -23 -24 25 -25 27 -2 -28 -30
right_child=2 6 5 21 10 13 -8 16 -10 11 -12 -13 -14 -15 15 -17 -18 18 -20 -21 -22 22 23 24 -26 -27 28 -29 29 -31
leaf_value=-0.014601017234021661 0.011297456050792729 0.0049284937657548085 0.023505223430813207 0.02659908786753222 -0.0086490677641918763 0.040735446960527423 0.035215583035357149 -0.0095991042983784233 0.031904787850440458 0.31478968124780327 0.0092362729354477421 0.077831975703039735 -0.0027160990115028209 0.079299894826750497 0.040950451284866685 0.093172115536293246 0.0013633600380728965 0.24842572790326867 0.27314644623494649 0.024717544125393964 0.020705615917938233 0.0088063252804147629 0.037689120469312366 0.24659087107710864 0.29302722097840844 0.07078659638734798 -0.0025865749461025695 0.054364046535548882 0.065514239693277118 0.0055627784399513514
leaf_weight=1004.6126359058544 18.430226860567931 105.88839589944109 155.04665300017223 78.587996583431959 72.507578360382468 94.810571382753551 30.029944481793791 488.69921482307836 27.482087452895939 0.30704840645193943 129.35557588003576 0.96487032063305378 112.55625069700181 12.054807032458482 8.2217618576250988 10.386847515590487 123.08459379849955 0.33357055718079198 0.42307805782183994 2.3020011633634567 72.168917804956436 5.8049563374370328 3.9213535594753903 0.6287207668647169 0.65242586936801661 4.287934894207865 111.4716658545658 8.7622041944414359 11.030918249860404 118.76012951182202
leaf_count=71625 1233 6780 8996 4462 4931 4895 1687 34814 1573 20 8234 48 7101 486 387 422 8623 23 25 134 4579 297 201 38 38 224 7150 562 720 7513
internal_value=-8.52156e-05 -0.00699431 0.0230421 0.0130226 -0.0103231 0.0357872 0.0103917 -0.0119634 0.00804823 0.0255462 0.00281201 0.135035 0.00579222 0.0487953 0.0455531 0.0700992 -0.00727466 0.0246654 0.0834779 0.0530311 0.0107211 0.0313051 0.0554844 0.0840358 0.11667 0.0932677 0.00662886 0.0251748 0.00453857 0.010658
internal_weight=2813.57 2166.39 647.19 362.339 1818.26 284.851 348.126 1616.4 318.096 159.377 201.863 1.27192 290.614 125.474 113.419 18.6086 611.784 158.105 3.05865 2.63557 178.057 93.8834 15.2954 9.49044 5.56908 4.91666 268.455 27.1924 241.263 129.791
internal_count=187821 149947 37874 22438 128227 15436 21720 115062 20033 9246 13165 68 18460 6190 5704 809 43437 9178 182 157 11359 5260 798 501 300 262 17178 1795 15383 8233
cat_boundaries=0 1 2
cat_threshold=13 113
is_linear=0
shrinkage=0.05


Tree=7
num_leaves=31
num_cat=0
split_feature=5 2 4 7 2 11 11 11 11 11 11 11 7 2 11 11 7 7 3 1 5 4 7 2 11 11 11 4 4 11
split_gain=159.82 46.8638 26.6661 19.6586 10.4583 10.0286 13.7698 15.7177 8.13126 9.82006 8.68512 18.7678 8.01898 7.19165 6.01375 7.54457 5.65514 5.4447 5.35379 6.27171 5.20097 4.95912 4.88824 4.87416 4.4779 8.20678 4.31716 4.11717 3.98648 4.01638
threshold=2.5000000000000004 1.5000000000000002 16.500000000000004 24.500000000000004 1.5000000000000002 537.00000000000011 1224.5000000000002 1207.0000000000002 698.50000000000011 822.50000000000011 605.50000000000011 620.00000000000011 12.500000000000002 2.5000000000000004 991.00000000000011 974.00000000000011 3.5000000000000004 170.50000000000003 7.5000000000000009 25.500000000000004 1.5000000000000002 1.5000000000000002 15.500000000000002 2.5000000000000004 875.50000000000011 897.50000000000011 3316.5000000000005 5.5000000000000009 14.500000000000002 827.50000000000011
decision_type=2 2 2 2 2 2 2 2 2 2 2 2 2 2 2 2 2 2 2 2 2 2 2 2 2 2 2 2 2 2
left_child=1 3 4 5 18 21 7 8 10 -10 -7 -12 23 -3 15 28 -6 24 22 -20 -8 -1 -2 -4 -5 -26 -14 -13 29 -11
right_child=2 13 12 17 16 6 20 -9 9 14 11 27 26 -15 -16 -17 -18 -19 19 -21 -22 -23 -24 -25 25 -27 -28 -29 -30 -31
leaf_value=-0.016021097156011851 0.0032115834572016689 0.0061401262367867214 0.013101051897180457 0.0022851126620002768 0.017550084416279789 -0.0052170654062071138 -0.022328913456662138 0.059483991888011303 -0.018069415137320684 0.055073601161824574 0.092653069389384293 0.0078607544477576705 0.052177679702964587 0.022598158419847442 -0.0087835866278477056 0.045873351575216367 0.034236320356457434 0.061682399854568339 0.047771638481359395 0.26439531528353755 -0.0014709861792681323 -0.0092848012099839422 0.018346235717290302 0.041954414860108383 0.13146255343455548 0.018316349393934044 0.010836306353101644 0.070486932032075941 0.15819129515822511 0.00026335083853863201
leaf_weight=737.76521972939372 151.41414214624092 277.65516999131069 32.776903325691819 89.597445150837302 118.21915346011519 54.560012334957719 126.94091533310711 10.721020165830849 110.86100162845105 3.533199922181665 8.1961449533700925 48.953929534181952 90.874460433144122 87.229277648963034 73.68632847070694 13.012156868819146 89.006656532175839 4.8664216422475866 2.1438144207932051 0.39582026563584793 39.090415686834604 433.89636464137584 82.377942103892565 26.446911870036274 1.7084665130823875 25.870170161128044 6.7865321831777683 2.7730421326123169 0.41765178041532536 61.874827946536243
leaf_count=53836 9989 17476 1835 5733 6933 3789 9148 651 7947 252 334 3194 4093 4922 5173 859 4864 290 126 27 2735 31103 4766 1329 100 1535 306 177 27 4272
internal_value=-9.38152e-05 -0.00630071 0.0227846 -0.00953341 0.016518 -0.0109045 -0.00536539 -0.000215654 -0.00190947 -0.00674511 0.00921562 0.0223566 0.0405019 0.0100746 0.00148587 0.0110843 0.0247171 0.00986017 0.00932871 0.081534 -0.0174181 -0.0135265 0.00854436 0.0259858 0.00770794 0.0253256 0.0493048 0.0112181 0.00420732 0.00322408
internal_weight=2813.65 2213.21 600.442 1848.32 443.558 1726.28 554.621 388.589 377.868 263.385 114.483 59.9231 156.885 364.884 152.524 78.8378 207.226 122.043 236.332 2.53963 166.031 1171.66 233.792 59.2238 117.176 27.5786 97.661 51.727 65.8257 65.408
internal_count=187821 153553 34268 131155 26705 123497 38558 26675 26024 18530 7494 3705 7563 22398 10583 5410 11797 7658 14908 153 11883 84939 14755 3164 7368 1635 4399 3371 4551 4524
is_linear=0
shrinkage=0.05


Tree=8
num_leaves=31
num_cat=3
split_feature=4 2 5 7 7 2 9 0 2 7 11 9 4 11 0 11 11 1 4 11 11 11 11 4 1 11 3 10 7 7
split_gain=143.975 41.0376 24.104 13.2993 10.4369 8.19582 6.78473 6.77388 6.44425 5.6906 5.06975 4.47054 4.11197 4.08095 3.79269 3.73711 3.60368 3.58807 4.59954 3.57326 3.54194 7.04849 6.12717 3.44671 3.4086 3.98429 3.3432 3.34937 3.3147 4.86239
threshold=5.5000000000000009 1.5000000000000002 5.5000000000000009 9.5000000000000018 8.5000000000000018 1.5000000000000002 0 34.500000000000007 3.5000000000000004 22.500000000000004 207.50000000000003 1 2.5000000000000004 3316.5000000000005 3.5000000000000004 469.50000000000006 1224.5000000000002 2.5000000000000004 1.5000000000000002 217.50000000000003 537.00000000000011 689.50000000000011 598.50000000000011 53.500000000000007 28.500000000000004 1192.5000000000002 1.0000000180025095e-35 2 158.50000000000003 174.50000000000003
decision_type=2 2 2 2 2 2 9 2 2 2 2 9 2 2 2 2 2 2 2 2 2 2 2 2 2 2 2 1 2 2
left_child=1 3 4 6 5 -2 20 -4 9 11 -5 15 -8 26 -11 -3 -17 18 -10 -12 -1 22 -22 24 25 -9 -6 -28 -29 -30
right_child=2 8 7 10 13 -7 12 23 17 14 19 -13 -14 -15 -16 16 -18 -19 -20 -21 21 -23 -24 -25 -26 -27 27 28 29 -31
leaf_value=-0.015856672677412104 -8.3332644763636776e-05 0.0043072399510160481 0.024072592835239028 -0.008174026946350485 0.030140388121033125 0.016920952780215451 -0.0087159731480198812 0.1623147975246082 -0.0010026114271557043 0.12795831679479994 0.061271994685528235 -0.0026445428860001697 0.0015446972864268137 -0.021469887449838049 0.027104010288386483 0.024753736456026021 -0.0009012908701032025 0.017760826898360654 0.071053012970319018 0.0070712415923428256 -0.010757938610002939 -0.012998225148492075 0.021915595926345108 0.06278090920993902 0.037643779694073842 0.0060953081746094769 0.010985569369582525 0.027633926177610138 0.13532916146987711 -0.05151062482852159
leaf_weight=670.8946852972731 150.95518557121977 109.73483489686623 84.703681151382625 71.723043302074075 104.25382151547819 133.55818322487175 478.71060136007145 1.1593488850630809 2.974146323278549 0.97578513389453547 3.1147812195122233 116.20448565855622 122.66177121596411 5.0246327975764862 20.858828802593052 58.242160788737237 17.893314744811505 20.048737155739218 8.6735248579643649 128.10533674200997 27.324750235304236 251.66860799118876 30.214541924651712 18.093829283490777 92.78255700180307 0.62991151586174954 62.508761431556195 17.719242826569829 1.6050534215755754 0.44469490461051453
leaf_count=49706 10091 6906 4482 4931 5806 7682 34814 54 154 59 217 7254 8623 277 1138 3582 1094 1053 480 8017 1928 18125 1866 669 4279 25 3402 997 89 21
internal_value=-9.86507e-05 -0.00644367 0.0200643 -0.00953459 0.0139735 0.00789893 -0.0110809 0.0347556 0.00906645 0.00696091 0.00251522 0.00517913 -0.00651477 0.022996 0.0316112 0.0096913 0.0187243 0.0305833 0.0526541 0.00835781 -0.0136766 -0.00938861 0.00639931 0.0427872 0.038962 0.107318 0.0241938 0.0166588 0.0345974 0.0947941
internal_weight=2813.46 2140.02 673.439 1784.42 476.07 284.513 1581.47 197.369 355.606 323.909 202.943 302.075 601.372 191.556 21.8346 185.87 76.1355 31.6964 11.6477 131.22 980.103 309.208 57.5393 112.666 94.5718 1.78926 186.532 82.2778 19.769 2.04975
internal_count=187821 149947 37874 128227 28365 17773 115062 9509 21720 20033 13165 18836 43437 10592 1197 11582 4676 1687 634 8234 71625 21919 3794 5027 4358 79 10315 4509 1107 110
cat_boundaries=0 1 2 3
cat_threshold=13 113 1
is_linear=0
shrinkage=0.05


Tree=9
num_leaves=31
num_cat=0
split_feature=4 2 7 7 2 2 11 11 11 11 11 11 11 11 2 5 4 4 7 5 7 11 11 7 11 11 11 11 11 11
split_gain=128.19 37.2516 21.0497 12.3418 11.4541 10.8591 7.65045 10.4721 11.9731 6.35874 8.94501 6.70357 13.4895 5.93865 5.82308 5.02236 5.01956 4.87471 4.80611 4.74804 4.24986 3.89241 3.84462 3.73202 3.72907 5.48764 3.68911 3.66739 3.62615 3.5321
threshold=5.5000000000000009 1.5000000000000002 9.5000000000000018 26.500000000000004 2.5000000000000004 1.5000000000000002 537.00000000000011 1224.5000000000002 1207.0000000000002 689.50000000000011 822.50000000000011 605.50000000000011 620.00000000000011 827.50000000000011 2.5000000000000004 1.5000000000000002 105.50000000000001 1.5000000000000002 13.500000000000002 5.5000000000000009 144.50000000000003 1180.5000000000002 544.50000000000011 5.5000000000000009 573.00000000000011 689.50000000000011 1464.5000000000002 73.500000000000014 709.50000000000011 866.50000000000011
decision_type=2 2 2 2 2 2 2 2 2 2 2 2 2 2 2 2 2 2 2 2 2 2 2 2 2 2 2 2 2 2
left_child=1 3 4 6 27 16 17 8 9 11 -11 22 -13 -12 18 -9 -4 -1 24 -7 -18 29 -8 -10 -3 -26 28 -2 -20 -15
right_child=2 14 5 -5 -6 19 7 15 23 10 13 12 -14 21 -16 -17 20 -19 26 -21 -22 -23 -24 -25 25 -27 -28 -29 -30 -31
leaf_value=-0.015017438138279691 0.022501047905804344 -0.001681771619711561 0.019455318270904715 0.0073697314919173298 0.02508159516358794 0.029733132449453283 0.029974058135323292 -0.021158426953391981 0.043021018736480399 -0.016879228805031867 0.061008582404085125 0.079250003425231544 0.0098244763830569667 -0.01510441194623121 0.019558809529943266 -0.0013074175800465793 0.028659494698115046 -0.0081819502115011971 0.019715830989516233 0.048533904511402298 0.21543743911408933 -0.025282192854093801 -0.0091929786932764702 0.14053288658370688 0.041464896351272901 0.0058454386404847344 -0.031565760099947791 0.0034522705604103435 0.064643433500649314 0.0066602529258032702
leaf_weight=718.41698752203956 28.160915889777243 162.0065695438534 175.28350574756041 106.32650274271145 101.35587128391489 67.961038244422525 7.2530130483210078 119.15979791479185 8.6096713631413859 112.55227470817044 4.1248042769730082 8.4453351800329965 40.791698159649968 22.611536903772503 89.696289413142949 43.492378761526197 0.61404033936560043 409.49515009764582 15.990658798255032 66.384299691300839 0.60425312072038651 13.606015894562004 46.015654282644391 1.107438493054359 12.806087360251693 69.481308431364596 2.5140833836048833 245.92902874201536 6.2452200818806878 106.1579301408492
leaf_count=53895 1795 10347 9213 6693 5260 3425 523 8881 492 8232 283 312 2596 1560 4956 3064 20 29976 856 2755 23 959 3220 69 777 4315 125 15383 344 7472
internal_value=-0.000101616 -0.00616447 0.0186879 -0.00914502 0.0107201 0.0283115 -0.0102017 -0.00527088 -0.000636112 -0.0021081 -0.00627916 0.00843301 0.0217326 0.00186459 0.00852614 -0.0158504 0.0201583 -0.0125358 0.00484797 0.0390232 0.121298 0.000151113 -0.00386003 0.0541342 0.00272088 0.0113888 0.0258434 0.00540941 0.0323343 0.00283844
internal_weight=2813.2 2126.91 686.293 1768.17 375.446 310.847 1661.84 533.928 371.275 361.558 259.053 102.506 49.237 146.5 358.74 162.652 176.502 1127.91 269.044 134.345 1.21829 142.375 53.2687 9.71711 244.294 82.2874 24.75 274.09 22.2359 128.769
internal_count=187821 149947 37874 128227 22438 15436 121534 37663 25718 25157 18506 6651 2908 10274 21720 11945 9256 83871 16764 6180 43 9991 3743 561 15439 5092 1325 17178 1200 9032
is_linear=0
shrinkage=0.05


Tree=10
num_leaves=31
num_cat=2
split_feature=5 2 4 7 7 11 2 7 9 7 11 3 9 4 2 5 1 4 11 11 11 11 11 11 11 11 11 0 7 0
split_gain=115.784 34.9162 16.8163 14.9706 8.84318 8.08931 6.9871 6.97586 6.23868 5.08701 4.62615 4.36674 4.36023 3.77618 3.69275 3.99225 3.6912 3.53928 3.50206 3.4538 6.82325 8.19097 4.29137 4.98595 4.60459 3.22701 4.40261 4.2403 4.04605 4.63855
threshold=2.5000000000000004 1.5000000000000002 9.5000000000000018 8.5000000000000018 30.500000000000004 537.00000000000011 2.5000000000000004 158.50000000000003 0 9.5000000000000018 3316.5000000000005 6.5000000000000009 1 2.5000000000000004 3.5000000000000004 15.500000000000002 43.500000000000007 9.5000000000000018 17.500000000000004 537.00000000000011 1224.5000000000002 1207.0000000000002 689.50000000000011 598.50000000000011 822.50000000000011 79.500000000000014 69.500000000000014 34.500000000000007 2.5000000000000004 22.500000000000004
decision_type=2 2 2 2 2 2 2 2 9 2 2 2 9 2 2 2 2 2 2 2 2 2 2 2 2 2 2 2 2 2
left_child=1 3 6 8 25 7 18 -5 19 12 14 -12 -3 -9 15 -6 -10 -18 -2 -1 21 22 23 -21 -24 26 -4 28 29 -28
right_child=2 9 4 5 10 -7 -8 13 16 -11 11 -13 -14 -15 -16 -17 17 -19 -20 20 -22 -23 24 -25 -26 -27 27 -29 -30 -31
leaf_value=-0.014965692576531166 0.14730921293303612 -0.0019999045745359343 0.028778579056927669 -0.006475511681516501 0.033221202033499687 0.014651420041270305 0.024655833233264531 -0.012255575827746073 -0.0062056227287218694 0.023183976624659861 -0.019988678895916552 0.069376460523556116 0.01003650788333243 0.071110674181113068 0.058075934252251771 0.088845167611316236 0.18443378773156074 0.020285015358115263 0.0062504448261749314 -0.009249818733431588 -0.019752917384597411 0.059048228273676201 -0.019703456557057568 0.020038208944858433 -0.002010044302791095 0.017425216157406814 0.10643910680026243 0.032212192581924461 0.08139885539291028 0.36932349159007094
leaf_weight=654.03932593250647 0.44080436509102483 115.48422701843083 13.699447367340328 141.51485911943018 106.69981254683807 93.308888439554721 67.660659722983837 1.9296314185485233 598.15179767878726 49.740589302498847 6.2892060554586333 1.7466067788191137 210.32656170381233 4.5881415470503271 20.375542661175132 3.3263369500637046 0.47773912269621988 1.0503730447962878 244.50859474157915 27.242393341846764 94.193593312986195 5.0932631436735383 64.413513450417668 31.143989553675056 85.686003547161818 166.85737768141553 0.31699541723355562 1.3431629077531397 0.84699073154479265 0.35652592824772
leaf_count=49704 31 7058 713 9506 4801 5580 3579 124 43825 2632 271 74 12708 253 684 100 38 70 15082 1943 7111 288 4825 1843 6045 8769 20 69 49 26
internal_value=-0.000104186 -0.00557887 0.0186926 -0.00846804 0.0267149 0.00312148 0.010433 -0.00414614 -0.0102593 0.00829058 0.0362547 -0.000564912 0.00601684 0.0464295 0.0385237 0.0349028 -0.00590882 0.0716034 0.00650429 -0.0127775 -0.00854257 -0.00359853 -0.00512897 0.00637276 -0.00960297 0.0195147 0.0405645 0.0969469 0.154131 0.245596
internal_weight=2812.85 2178.38 634.468 1802.83 321.858 241.342 312.61 148.033 1561.49 375.551 138.438 8.03581 325.811 6.51777 130.402 110.026 599.68 1.52811 244.949 961.812 307.773 213.579 208.486 58.3864 150.1 183.421 16.5631 2.86367 1.52051 0.673521
internal_count=187821 153553 34268 131155 15576 15463 18692 9883 115692 22398 5930 345 19766 377 5585 4901 43933 108 15113 71759 22055 14944 14656 3786 10870 9646 877 164 95 46
cat_boundaries=0 1 2
cat_threshold=13 268
is_linear=0
shrinkage=0.05


Tree=11
num_leaves=31
num_cat=1
split_feature=4 2 7 7 2 2 9 11 11 1 11 2 11 11 11 11 11 11 11 11 11 11 4 11 11 1 11 1 1 7
split_gain=103.233 30.712 15.7625 10.4787 9.03333 8.00927 6.97785 4.98372 9.16048 4.44173 8.93906 9.51405 4.42121 5.94606 4.47319 3.97775 6.16383 9.90773 4.0323 5.32819 5.7948 4.19747 3.97572 3.90944 5.16673 5.42872 4.00774 4.12192 3.88549 3.71075
threshold=5.5000000000000009 1.5000000000000002 9.5000000000000018 26.500000000000004 2.5000000000000004 1.5000000000000002 0 573.00000000000011 681.50000000000011 1.0000000180025095e-35 635.00000000000011 2.5000000000000004 1132.5000000000002 1113.5000000000002 777.00000000000011 537.00000000000011 1224.5000000000002 1207.0000000000002 689.50000000000011 822.50000000000011 827.50000000000011 598.50000000000011 2.5000000000000004 897.50000000000011 866.50000000000011 5.5000000000000009 794.50000000000011 1.5000000000000002 64.500000000000014 157.50000000000003
decision_type=2 2 2 2 2 2 9 2 2 2 2 2 2 2 2 2 2 2 2 2 2 2 2 2 2 2 2 2 2 2
left_child=1 3 4 6 -2 28 15 -3 9 10 -9 -12 13 14 -10 -1 17 18 21 -20 -21 -17 -8 24 26 -26 27 -16 -4 -30
right_child=2 7 5 -5 -6 -7 22 8 12 -11 11 -13 -14 -15 23 16 -18 -19 19 20 -22 -23 -24 -25 25 -27 -28 -29 29 -31
leaf_value=-0.014297299247055202 0.0047761640712181046 0.0032766162550758858 0.015135494932221714 0.0066856250672999778 0.021964352746788512 0.033342591790096444 -0.0072053809495413075 0.023189985596002122 -0.0040684789390525037 0.038459054974539525 0.1280547195774781 0.45873182701316439 -0.0021407310862125344 0.14093060344353012 0.16261163005855928 -0.0078087783395596319 -0.017805874290870931 0.066957424451867725 -0.019747202441912186 0.058981538644744806 -0.0036477689380593676 0.018249307181546128 0.0024016008573434036 0.007403053959117039 0.1118607577384492 0.024311535459505484 0.010952888890593995 0.041381377467490855 0.02521634502157697 0.075316628579856659
leaf_weight=681.8636057083495 277.10913705406711 238.48897299356759 164.8731578849256 107.55314266495407 105.56030800146982 143.04493504576385 487.52476509194821 1.3412906010635226 18.529884234070778 16.000665984582156 0.83627353888004996 0.29398621525615454 44.273890411946923 0.97563250549137492 0.87643557041884079 28.647576982155442 101.10765039967373 4.9597582053393117 64.924900070764124 3.8575191628187886 86.797330921981484 33.555982331745327 138.22472228994593 18.097987214569002 4.0600790716707698 3.140081035438925 14.254513541236518 3.5060645868070424 12.930004288908096 5.17517933435738
leaf_count=52370 17178 14389 8532 6693 5260 6180 36227 75 1063 899 53 22 2593 65 57 2046 7670 266 4920 250 6109 1963 9713 1041 255 181 821 206 530 194
internal_value=-0.000104209 -0.00566428 0.0164004 -0.00843081 0.00951757 0.0244791 -0.00942735 0.00752835 0.015564 0.0480952 0.110479 0.214065 0.00998515 0.0184475 0.0165345 -0.0120108 -0.00756746 -0.00292003 -0.0045114 -0.00881335 -0.000982785 0.00624837 -0.00500329 0.0252239 0.0377068 0.0736794 0.0238092 0.0656256 0.01755 0.039537
internal_weight=2812.39 2103.69 708.693 1739.02 382.669 326.023 1631.46 364.676 126.187 18.4722 2.47155 1.13026 107.715 63.4407 62.465 1005.71 323.851 222.743 217.783 155.58 90.6549 62.2036 625.749 43.9352 25.8372 7.20016 18.637 4.3825 182.978 18.1052
internal_count=187821 149947 37874 128227 22438 15436 121534 21720 7331 1049 150 75 6282 3689 3624 75594 23224 15554 15288 11279 6359 4009 45940 2561 1520 436 1084 263 9256 724
cat_boundaries=0 1
cat_threshold=13
is_linear=0
shrinkage=0.05


Tree=12
num_leaves=31
num_cat=2
split_feature=5 2 4 7 11 7 2 9 2 7 10 7 11 11 1 11 0 7 4 1 6 2 11 5 7 11 11 11 4 7
split_gain=93.8948 28.5388 12.9806 12.7177 7.03122 5.87709 5.66148 5.4198 4.70713 4.31043 3.92996 3.63279 3.21434 3.18626 4.62264 4.18734 3.1833 3.03225 3.00683 3.00499 3.05605 2.93261 3.52843 6.11822 3.50185 4.78961 4.00237 4.11681 3.04229 2.98118
threshold=2.5000000000000004 1.5000000000000002 16.500000000000004 8.5000000000000018 537.00000000000011 158.50000000000003 3.5000000000000004 0 2.5000000000000004 1.5000000000000002 1 12.500000000000002 42.500000000000007 986.50000000000011 42.500000000000007 435.50000000000006 6.5000000000000009 170.50000000000003 2.5000000000000004 1.5000000000000002 2.5000000000000004 2.5000000000000004 474.00000000000006 12.500000000000002 6.5000000000000009 701.00000000000011 598.50000000000011 501.00000000000006 49.500000000000007 11.500000000000002
decision_type=2 2 2 2 2 2 2 9 2 2 1 2 2 2 2 2 2 2 2 2 2 2 2 2 2 2 2 2 2 2
left_child=1 3 6 7 5 -5 9 -1 -3 -2 -9 21 -11 15 -15 -10 -8 -18 -7 -14 -21 -4 -23 24 25 26 27 -24 -25 -26
right_child=2 8 11 4 -6 18 16 10 13 12 -12 -13 19 14 -16 -17 17 -19 -20 20 -22 22 23 28 29 -27 -28 -29 -30 -31
leaf_value=-0.0046424061860246835 0.0038656781587578393 0.0040835865085322139 0.0086362786243903422 -0.0062050918436612852 0.013441699355557389 -0.012041783001447844 0.070832870662723091 -0.0093722736451248064 0.01273294898839411 0.043167906043355103 -0.015767733860072713 0.033205252990569367 0.054916568533109861 -0.010676513538197853 0.14160853823091685 0.036970660436415267 0.022542233172072233 0.13570218038076906 0.061647470180623047 0.011265283106320571 0.040356239679547323 0.0094347102300662167 0.17565750773468447 0.20548278440698861 -0.027509539613800746 0.035741473544292322 0.24370250501943613 -0.011832151530824725 0.061251538109275618 0.094566403958237802
leaf_weight=466.31316792173311 165.44574594497681 287.72391439322382 35.151721119415015 140.67733451118693 95.01466375309974 1.9193817363120604 3.8771968591026953 701.4196406789124 53.55809872597456 9.2563810739666206 365.3086116858758 115.54117007926106 4.2312661767937234 13.486613987479355 0.51744828745722848 26.704413545783609 50.992735183797777 0.59894970525056024 4.9660505698993802 229.63511526118964 9.397309407591818 12.4439894836396 0.54906308650971059 0.82341300044208654 3.0769434440881009 10.990537833422421 0.50725947506725777 0.62727032322436571 0.65760371554642916 0.59717463050037611
leaf_count=34499 10166 17476 1835 9506 5580 124 191 53395 2811 537 27798 4399 240 687 28 1396 2366 27 253 12655 523 542 27 37 123 496 27 28 22 27
internal_value=-0.000105657 -0.00513739 0.0164844 -0.00780458 0.00283322 -0.00399751 0.0121306 -0.00948782 0.00726055 0.0101387 -0.0114551 0.0278744 0.0142487 0.0169574 -0.0050496 0.0207972 0.0271396 0.023856 0.0411059 0.0131483 0.012409 0.0184601 0.029867 0.0441279 0.0353121 0.0477716 0.126305 0.0756802 0.141441 -0.00766786
internal_weight=2812.01 2157.61 654.401 1775.62 242.577 147.563 473.435 1533.04 381.99 417.966 1066.73 180.966 252.52 94.2666 14.0041 80.2625 55.4689 51.5917 6.88543 243.264 239.032 65.425 30.2733 17.8293 16.3482 12.6741 1.68359 1.17633 1.48102 3.67412
internal_count=187821 153553 34268 131155 15463 9883 26705 115692 22398 24121 81193 7563 13955 4922 715 4207 2584 2393 377 13418 13178 3164 1329 787 728 578 82 55 59 150
cat_boundaries=0 1 2
cat_threshold=432 1
is_linear=0
shrinkage=0.05


Tree=13
num_leaves=31
num_cat=2
split_feature=4 2 2 7 11 11 11 11 7 7 4 1 11 11 11 11 11 7 7 10 5 11 7 11 11 11 4 11 10 11
split_gain=85.0093 19.9491 16.5953 14.9987 6.93032 8.5622 7.54126 5.64086 5.41417 5.33826 4.94897 4.41872 4.33222 6.85448 4.3926 8.742 10.7913 6.40817 4.99243 4.23038 4.18212 4.13102 4.09826 4.08032 4.97016 4.04948 4.01303 3.95587 3.92145 6.9522
threshold=3.5000000000000004 2.5000000000000004 1.5000000000000002 24.500000000000004 479.50000000000006 1224.5000000000002 1207.0000000000002 489.50000000000006 46.500000000000007 56.500000000000007 8.5000000000000018 159.50000000000003 866.50000000000011 991.00000000000011 698.50000000000011 605.50000000000011 620.00000000000011 7.5000000000000009 145.50000000000003 0 1.5000000000000002 974.00000000000011 15.500000000000002 573.00000000000011 1132.5000000000002 17.500000000000004 14.500000000000002 42.500000000000007 1 483.00000000000006
decision_type=2 2 2 2 2 2 2 2 2 2 2 2 2 2 2 2 2 2 2 1 2 2 2 2 2 2 2 2 1 2
left_child=2 3 4 10 19 6 7 28 11 23 25 -3 14 21 15 -9 17 -17 -18 -1 -7 -14 -8 -4 -25 -2 -5 -12 -6 -30
right_child=1 8 9 26 5 20 22 12 -10 -11 27 -13 13 -15 -16 16 18 -19 -20 -21 -22 -23 -24 24 -26 -27 -28 -29 29 -31
leaf_value=-0.0088703199293091641 0.10796390867819626 0.019709331779824892 -0.00065080601694750338 0.012940800431533065 0.014391181774128009 -0.019473395080540839 0.03359845027596705 -0.0097732980477246746 0.039690228820349949 0.04934998754567152 0.044997959891363883 0.10305928413913362 0.011242855425450832 -0.0051806712785095969 -0.013355272935506366 0.055556541180708435 0.004371469992290866 0.22758798034513497 0.15736047774658843 -0.01577385033389209 0.0011838264775734543 0.044559765094312316 0.15193198762101179 0.021632773924465085 -0.0044368462481339617 -0.00038762629512020639 0.026148524927891766 0.0082866646863700971 -0.0039030565196792734 0.14754003475629823
leaf_weight=624.21323885302991 0.86427306151017447 180.34441010002047 173.55061209248379 152.9978340184316 6.6968609439209086 109.34814059128985 8.6677456595934892 94.654993905685842 45.725220307707787 6.5663389433175317 7.6524435617029658 1.6042511640116561 36.110482839867473 62.745574765838683 115.33894336642697 7.7400249773636443 48.852618732023984 0.58203214220702637 0.53913620533421536 344.31477415049449 31.576940414961427 12.533167564310132 0.79914491809904653 54.477371548768133 27.517725771293044 381.72135224798694 92.151433177292347 178.63136700401083 1.3287873808294535 1.7636125436984003
leaf_count=48276 62 8561 10570 8141 521 8544 453 6982 1633 338 438 59 2507 4530 8640 261 3117 36 35 26688 2182 805 49 3116 1652 25474 3722 10175 102 152
internal_value=-0.000106587 0.0112261 -0.00677648 0.00756676 -0.00879511 -0.00425231 -0.000505025 -0.0015784 0.0243095 0.00483574 0.00311134 0.0204442 -0.00254608 0.00574019 -0.00599387 -0.000421493 0.0149162 0.0675882 0.00604142 -0.0113245 -0.0148448 0.019827 0.0435875 0.00369193 0.0128838 -0.000142857 0.0179056 0.00979475 0.0358958 0.0824658
internal_weight=2811.61 1041.69 1769.92 814.019 1507.81 539.278 398.353 388.886 227.674 262.112 568.869 181.949 379.097 111.389 267.708 152.369 57.7138 8.32206 49.3918 968.528 140.925 48.6437 9.46689 255.546 81.9951 382.586 245.149 186.284 9.78926 3.0924
internal_count=187821 58265 129556 48012 113880 38916 28190 27688 10253 15676 36149 8620 26913 7842 19071 10431 3449 297 3152 74964 10726 3312 502 15338 4768 25536 11863 10613 775 254
cat_boundaries=0 1 2
cat_threshold=1 1
is_linear=0
shrinkage=0.05


Tree=14
num_leaves=31
num_cat=3
split_feature=4 5 2 2 7 11 11 11 11 11 7 9 11 10 11 11 11 11 5 0 10 1 11 7 1 11 11 7 7 11
split_gain=76.4123 17.5683 15.1379 9.05935 7.06193 6.39014 7.86901 6.52365 4.90695 4.70435 4.88851 4.30389 4.04308 3.95706 3.92188 6.05935 4.03522 7.86401 3.90048 3.76014 3.97235 5.48895 3.45742 3.7238 3.48421 3.44285 5.92625 5.27327 3.80955 3.41779
threshold=3.5000000000000004 5.5000000000000009 1.5000000000000002 2.5000000000000004 8.5000000000000018 479.50000000000006 1224.5000000000002 1207.0000000000002 489.50000000000006 573.00000000000011 15.500000000000002 0 1132.5000000000002 1 866.50000000000011 991.00000000000011 698.50000000000011 598.50000000000011 1.5000000000000002 6.5000000000000009 2 1.0000000180025095e-35 974.00000000000011 11.500000000000002 1.5000000000000002 620.00000000000011 605.50000000000011 11.500000000000002 145.50000000000003 17.500000000000004
decision_type=2 2 2 2 2 2 2 2 2 2 2 9 2 1 2 2 2 2 2 2 1 2 2 2 2 2 2 2 2 2
left_child=2 3 5 4 11 13 7 8 19 -4 12 29 -11 -1 16 22 17 -10 -8 20 -7 -22 23 24 -16 26 -19 -28 -27 -2
right_child=1 -3 9 -5 -6 6 18 -9 14 10 -12 -13 -14 -15 15 -17 -18 25 -20 -21 21 -23 -24 -25 -26 28 27 -29 -30 -31
leaf_value=-0.0085010703883660766 0.1455125024575388 0.022839080171913412 -8.0065020413980415e-05 0.018459428591173912 0.011231386826123863 -0.0081229604059417093 -0.018859770864125117 0.039654396275691374 -0.010488894967769318 0.018915613407318174 0.059792717830429915 -0.0033974915929313888 -0.0049440459913001715 -0.015220892945372867 0.025754206257024237 -0.0049468451998785712 -0.012855982462923033 0.0017796078216928898 0.0011233270033647342 0.094773973969848491 0.21110045188468357 0.032526754833246206 0.040526444902032215 0.052857610473440425 -0.0083153823581395055 0.0041351426071627295 0.049955929749763303 0.20554561595518375 0.12830589070030199 0.0066954080416855612
leaf_weight=618.89891784172505 0.44457160914316673 227.79076175624505 177.45408018724993 145.84094050666317 258.33976669469848 5.2556659504771224 107.31329813972116 9.8682052274234575 85.252961564343423 53.899896100629121 5.497113363351672 251.45314095821232 26.476872887928039 339.11716288467869 12.04783443035558 62.434007697273046 113.86579840490595 8.5163450883701444 31.612776328343898 1.9719471847638477 0.52461371291428749 2.3942295745946467 13.07664360757917 4.5548770204186431 19.898822602815926 49.056958544068038 8.2717733252793533 0.58295526821166355 0.62557279737666149 168.79923804430291
leaf_count=48276 29 9509 10766 6951 13937 403 8544 502 6397 3032 274 16820 1604 26688 867 4530 8640 585 2182 151 44 177 805 254 1386 3117 265 32 35 11019
internal_value=-0.000107213 0.0105473 -0.00648528 0.00715287 0.00472449 -0.00843217 -0.00406669 -0.000492034 -0.00151223 0.00456893 0.0141758 0.000728757 0.011056 -0.0108797 -0.00243285 0.00541615 -0.00573591 -0.000412874 -0.0143126 0.0328016 0.017852 0.0646224 0.0184663 0.0105633 0.00453306 0.0123979 0.0315584 0.0601993 0.00569863 0.00666617
internal_weight=2811.14 1052.67 1758.47 824.878 679.037 1495.14 537.125 398.199 388.331 263.328 85.8739 420.697 80.3768 958.016 378.185 112.012 266.172 152.307 138.926 10.1465 8.17451 2.91884 49.5782 36.5015 31.9467 67.0536 17.3711 8.85473 49.6825 169.244
internal_count=187821 58265 129556 48756 41805 113880 38916 28190 27688 15676 4910 27868 4636 74964 26913 7842 19071 10431 10726 775 624 221 3312 2507 2253 4034 882 297 3152 11048
cat_boundaries=0 1 2 3
cat_threshold=112 1 1
is_linear=0
shrinkage=0.05


Tree=15
num_leaves=31
num_cat=2
split_feature=5 2 7 4 11 11 4 11 11 11 11 7 2 5 11 0 2 7 3 4 10 9 11 11 0 11 11 11 11 11
split_gain=68.8117 21.58 10.2484 8.92981 6.70386 9.84109 6.25288 5.05065 10.0541 6.77864 5.41856 4.57137 4.45965 3.93945 3.61725 3.53492 3.4628 3.44428 3.32367 3.25568 3.1669 2.84217 2.81442 3.68087 4.02976 3.1439 2.79533 5.37543 2.79471 2.7244
threshold=2.5000000000000004 1.5000000000000002 24.500000000000004 9.5000000000000018 562.00000000000011 698.50000000000011 3.5000000000000004 1224.5000000000002 822.50000000000011 1207.0000000000002 1180.5000000000002 30.500000000000004 1.5000000000000002 1.5000000000000002 3316.5000000000005 1.5000000000000002 2.5000000000000004 170.50000000000003 6.5000000000000009 1.5000000000000002 0 1 274.50000000000006 266.00000000000006 11.500000000000002 270.50000000000006 875.50000000000011 897.50000000000011 887.00000000000011 986.50000000000011
decision_type=2 2 2 2 2 2 2 2 2 2 2 2 2 2 2 2 2 2 2 2 1 9 2 2 2 2 2 2 2 2
left_child=1 2 4 12 19 6 15 8 -7 10 -10 -5 -2 -9 -13 -6 -3 26 -16 20 -1 -21 23 -23 -25 -26 -4 28 -28 -18
right_child=3 16 17 11 5 7 -8 13 9 -11 -12 14 -14 -15 18 -17 29 -19 -20 21 -22 22 -24 24 25 -27 27 -29 -30 -31
leaf_value=-0.009779202408886533 0.0023058348888084132 0.0033723683243096873 0.00058219242272189865 0.014166996369354751 0.029671296982869619 -0.014908902075924643 0.04292693907090487 -0.018678426251542892 0.0052734553755028474 0.039770883672829743 -0.026549896699640776 0.027453702222554346 0.014023641562910805 -7.4701079835821644e-05 -0.022415844907136523 0.0016537901434407283 0.017673577123020649 0.044618233369156907 0.05001635769587557 -0.011923790647852324 -0.016893726498506591 -0.00087481584571115229 -0.011238329865397585 0.0171161441281555 0.26585161755171954 0.075435030287526905 0.053927647943542836 0.012282230357205128 0.17511039627392488 -0.0059590864535967528
leaf_weight=432.67052000574768 174.50517278211191 291.36727671464905 92.448829165194184 197.91769804898649 13.272397443652151 101.38546881265938 13.116693438496439 112.97845472814515 135.82512958254665 12.999426451977341 14.837366291321812 147.92165641672909 151.85998380184174 38.036395220085979 6.7713835057802481 74.175682571716607 83.799810290336609 5.7143292301334432 2.0673035457730293 154.65764160547405 244.97989464271814 181.72541044838727 77.396681138314307 2.5715795308351512 0.31563545297831275 0.69205792341381311 1.4185261800885229 28.269427762366831 0.71586682554334391 14.272064725868402
leaf_count=34540 10835 17476 5733 9646 857 7947 791 9148 9509 651 1074 5585 7857 2735 271 4738 4207 290 74 11946 19769 13781 5730 200 28 53 64 1535 36 715
internal_value=-0.000107661 -0.0045318 -0.00691282 0.0137268 -0.00799657 -0.00330175 0.0107348 -0.00669446 -0.00253619 0.00512847 0.00213947 0.0192189 0.00775821 -0.0139927 0.0255971 0.00590614 0.00610774 0.00667241 -0.00547449 -0.0102116 -0.0123512 -0.00673759 -0.00311202 0.000114173 0.0503267 0.135078 0.00490741 0.0180591 0.0945719 0.0142344
internal_weight=2810.69 2129.64 1740.2 681.043 1611.64 516.627 100.565 416.062 265.047 163.662 150.662 354.678 326.365 151.015 156.76 87.4481 389.439 128.567 8.83869 1095.01 677.65 417.359 262.701 185.305 3.57927 1.00769 122.853 30.4038 2.13439 98.0719
internal_count=187821 153553 131155 34268 123497 37450 6386 31064 19181 11234 10583 15576 18692 11883 5930 5595 22398 7658 345 86047 54309 31738 19792 14062 281 81 7368 1635 100 4922
cat_boundaries=0 1 2
cat_threshold=1 12
is_linear=0
shrinkage=0.05


Tree=16
num_leaves=31
num_cat=3
split_feature=4 2 2 7 11 11 11 11 11 2 7 7 11 9 3 10 11 11 5 11 11 11 11 4 11 11 0 10 1 11
split_gain=62.2685 14.1507 12.4272 10.707 5.4979 6.71387 4.90644 4.43408 4.20322 4.07232 4.02811 4.01708 3.87085 3.86362 4.71611 3.50858 3.47652 3.47285 4.19098 3.35144 3.29251 5.22691 5.73252 3.68979 3.48098 6.71237 2.93727 3.38597 3.67649 2.9225
threshold=3.5000000000000004 2.5000000000000004 1.5000000000000002 24.500000000000004 479.50000000000006 1224.5000000000002 1207.0000000000002 489.50000000000006 573.00000000000011 1.5000000000000002 46.500000000000007 18.500000000000004 681.50000000000011 0 10.500000000000002 1 2898.0000000000005 42.500000000000007 6.5000000000000009 3316.5000000000005 866.50000000000011 986.50000000000011 974.00000000000011 2.5000000000000004 698.50000000000011 598.50000000000011 6.5000000000000009 2 1.0000000180025095e-35 620.00000000000011
decision_type=2 2 2 2 2 2 2 2 2 2 2 2 2 9 2 1 2 2 2 2 2 2 2 2 2 2 2 1 2 2
left_child=2 3 4 9 15 6 7 26 -4 -2 13 12 -10 14 -3 -1 -7 18 -11 -18 24 22 -22 -24 25 -9 27 -6 -29 -27
right_child=1 10 8 -5 5 16 -8 20 11 17 -12 -13 -14 -15 -16 -17 19 -19 -20 -21 21 -23 23 -25 -26 29 -28 28 -30 -31
leaf_value=-0.0078051179712049683 -0.00029073245215483878 0.02467328430558853 -0.00040773890555595519 0.014775183416389642 -0.0073746929428112062 -0.016572902693015128 0.033115041300708303 -0.009840752534865875 0.035295687632422662 0.030208063626454191 0.032789561635523413 0.054746359261767935 0.0055183131713988608 0.0067743410793857581 0.1247117319036789 -0.014206915570929374 0.025028785758139296 0.0072006054611621203 0.17138059153643079 -0.017046438734283333 0.00942810261853139 -0.0039638734741757218 0.043839635574371857 0.15327598262056988 -0.01200546368204583 0.028568706809713129 0.083043473116629268 0.1664143823770822 0.031063875111570272 0.0050819078133292105
leaf_weight=609.11491871671751 400.47865249123424 95.172209473326802 178.56591925024986 256.31212330702692 5.1672499491833142 116.13811869826168 10.614723836071787 83.938824559561908 12.961493079550563 8.5830909535288775 49.278500665444881 5.3994738482870153 69.079539369791746 95.102182095870376 1.1928885462693859 329.9688477749005 10.69139539450407 165.6284686755389 0.5600229427218445 8.4919737689197063 37.167854867875576 67.218346667010337 7.7502926923334581 0.85521923750638951 111.434889244847 17.99006256274879 2.1429840335622421 0.63181971106678192 2.4363451935350895 50.21411733655259
leaf_count=48276 26427 4347 10766 11863 403 9218 502 6397 679 493 1633 253 3978 4229 44 26688 832 9200 29 676 2507 4828 453 54 8640 882 151 44 177 3152
internal_value=-0.000109197 0.00936606 -0.00595531 0.00627555 -0.00775265 -0.00369612 -0.000421803 -0.00134178 0.00399043 0.00248839 0.020041 0.0129721 0.0102228 0.0167599 0.0234755 -0.0100545 -0.0133158 0.00885659 0.038855 0.00640319 -0.00223035 0.00491038 0.0179422 0.0547155 -0.00529146 -0.000373891 0.0308988 0.01733 0.0589363 0.011277
internal_weight=2810.28 1072.31 1737.97 831.562 1471.97 532.884 397.563 386.948 266.006 575.25 240.746 87.4405 82.041 191.467 96.3651 939.084 135.321 174.772 9.14311 19.1834 376.57 112.992 45.7734 8.60551 263.578 152.143 10.3784 8.23541 3.06816 68.2042
internal_count=187821 58265 129556 48012 113880 38916 28190 27688 15676 36149 10253 4910 4657 8620 4391 74964 10726 9722 522 1508 26913 7842 3014 507 19071 10431 775 624 221 4034
cat_boundaries=0 1 2 3
cat_threshold=81 1 1
is_linear=0
shrinkage=0.05


Tree=17
num_leaves=31
num_cat=3
split_feature=5 2 7 4 11 9 11 11 1 7 7 0 1 7 9 11 2 11 11 10 0 4 4 2 3 7 11 1 1 3
split_gain=56.2407 17.6537 9.07146 7.14863 5.28139 5.05735 5.02875 3.80491 3.6615 3.62977 3.23014 3.63493 2.95404 2.94086 3.6965 2.72922 2.72909 2.64811 4.62524 5.04042 2.98657 2.88427 2.50636 2.46412 2.43407 2.41285 2.41184 2.40706 2.37303 3.84206
threshold=2.5000000000000004 1.5000000000000002 8.5000000000000018 9.5000000000000018 207.50000000000003 0 214.50000000000003 3316.5000000000005 1.5000000000000002 30.500000000000004 168.50000000000003 6.5000000000000009 43.500000000000007 10.500000000000002 1 537.00000000000011 1.5000000000000002 761.00000000000011 474.00000000000006 2 4.5000000000000009 4.5000000000000009 9.5000000000000018 8.5000000000000018 20.500000000000004 175.50000000000003 157.50000000000003 1.0000000180025095e-35 2.5000000000000004 1.0000000180025095e-35
decision_type=2 2 2 2 2 9 2 2 2 2 2 2 2 2 9 2 2 2 2 1 2 2 2 2 2 2 2 2 2 2
left_child=1 2 5 8 26 27 -6 9 17 24 15 -12 -7 14 -3 -8 -10 18 -2 20 -20 -22 -14 -11 -5 -13 -4 -1 29 -16
right_child=3 13 4 7 6 12 10 -9 16 23 11 25 22 -15 28 -17 -18 -19 19 -21 21 -23 -24 -25 -26 -27 -28 -29 -30 -31
leaf_value=-0.0041909617052196197 0.028607879758366019 -0.0033362789046987476 -0.0037892458772342181 0.013349910757775921 0.070018021566484553 -0.0041892264344694881 -0.0034619743939585191 -0.0027048959615238715 0.0015670132118322765 0.023467196010412691 -0.011701412456902434 0.090795754356378947 0.14845021976030084 0.016609764663666138 0.012337420894285541 0.010473988521242756 0.010879198235818913 0.007678800420190016 0.23854105835447675 -0.025268623944734826 0.0069070706776059743 0.19281145421962295 0.018338478612607251 0.09382002226957166 0.10730516820700564 -0.027114061783614266 -0.026632961773157323 -0.011377212887830297 0.004297806465556258 0.060275777695773636
leaf_weight=137.52197642903775 5.6101983096450549 120.17312214896083 70.613819631747901 187.61662102257833 3.1971232830546787 572.7911487291567 55.872351606376469 22.882722338661551 173.13463580422103 153.03381150914356 1.8856022721156467 3.066124281380326 0.56331027718260784 50.73411619104445 62.088402868248522 94.643420982174575 144.21362882200629 6.1145013771019876 0.68896503653377272 0.47358055971562851 0.42626183899119496 0.40866727521643043 1.0792679525911806 1.2548297084867943 0.69187763333320518 0.50539868138730515 13.815184260252861 763.23630398372188 156.8622467671521 4.481301875319331
leaf_count=11087 282 7123 4942 8949 213 43825 3694 1022 10701 5555 96 143 38 2418 3662 5412 7305 299 41 22 20 22 70 30 20 21 942 60672 8922 273
internal_value=-0.00010701 -0.00416845 -0.00635747 0.0122142 0.00258143 -0.00783355 0.00794336 0.0170352 0.00689219 0.0183537 0.00667096 0.0444599 -0.00392882 0.00537273 0.00371355 0.00530088 0.00579878 0.0321791 0.0518707 0.117208 0.161485 0.0979005 0.0629594 0.0240394 0.0136951 0.0741106 -0.00752718 -0.0101672 0.00732671 0.0155645
internal_weight=2809.68 2113.13 1718.79 696.55 243.599 1475.19 159.17 365.48 331.07 342.597 155.973 5.45713 574.434 394.339 343.605 150.516 317.348 13.7222 7.60767 1.99747 1.52389 0.834929 1.64258 154.289 188.308 3.57152 84.429 900.758 223.432 66.5697
internal_count=187821 153553 131155 34268 15463 115692 9579 15576 18692 14554 9366 260 43933 22398 19980 9106 18006 686 387 105 83 42 108 5585 8969 164 5884 71759 12857 3935
cat_boundaries=0 1 2 3
cat_threshold=13 268 1
is_linear=0
shrinkage=0.05


Tree=18
num_leaves=31
num_cat=3
split_feature=4 4 2 9 1 11 11 11 5 11 11 11 5 10 11 10 6 11 11 11 11 11 11 7 7 7 4 3 7 7
split_gain=51.3651 11.4575 10.1268 5.90038 6.13943 4.95321 6.21114 4.30714 4.20355 3.91697 3.68464 3.50576 3.31053 3.28531 3.09625 3.05011 4.4152 2.97985 4.62423 4.80699 3.23194 6.22928 6.83295 3.27819 2.84507 2.80966 2.76341 2.80603 5.77588 2.69147
threshold=3.5000000000000004 8.5000000000000018 1.5000000000000002 0 2.5000000000000004 479.50000000000006 1224.5000000000002 1207.0000000000002 5.5000000000000009 489.50000000000006 573.00000000000011 1132.5000000000002 1.5000000000000002 1 1113.5000000000002 2 1.5000000000000002 866.50000000000011 986.50000000000011 974.00000000000011 698.50000000000011 605.50000000000011 620.00000000000011 11.500000000000002 169.50000000000003 145.50000000000003 1.5000000000000002 1.0000000180025095e-35 4.5000000000000009 11.500000000000002
decision_type=2 2 2 9 2 2 2 2 2 2 2 2 2 1 2 1 2 2 2 2 2 2 2 2 2 2 2 2 2 2
left_child=2 3 5 -2 -5 13 7 9 -3 26 -4 14 -8 -1 15 -12 -17 20 19 29 21 -11 23 -23 -6 -24 -7 -28 -29 -19
right_child=1 8 10 4 24 6 12 -9 -10 17 11 -13 -14 -15 -16 16 -18 18 -20 -21 -22 22 25 -25 -26 -27 27 28 -30 -31
leaf_value=-0.0071566507119121521 -0.0095254748045720053 0.0097536638194371181 -0.00069267242816673815 0.035683225161802182 0.0041002360071063946 0.0086027356062767686 -0.01700648068127919 0.030868167920104935 0.018892542095514508 -0.008269399250498518 0.024587114252123697 -0.0025367472199201422 0.001582557988389653 -0.013409827276368009 0.1039304504000329 -0.0061377452193648006 0.10380917454727451 0.003854938085174136 -0.0035165887346368034 0.049816142126286926 -0.011336031519482554 0.042735973520762145 0.0036574491265481662 0.1528769604067691 0.039453813599322859 0.10254871758017332 0.042806519744553462 0.31331040312896979 0.018338929947858903 0.043244824338364199
leaf_weight=600.26711194775999 67.337607030756772 279.06969383498654 179.54384706821293 16.312429996207356 491.34634669777006 6.5010473518632335 101.58635678142309 10.8973679873161 229.14007056830451 91.39049781113863 41.257796884514391 28.988117892760783 31.340001682750881 323.10913884732872 1.0454063499346364 16.836557286325846 0.96547371428459783 32.33353392360732 66.597377164755017 9.0161449867300671 109.5912672560662 8.8754050619900191 49.474803377874196 0.7312389053404339 5.7573786778375498 0.72883372474461694 3.4615848339162767 0.30876242974773038 0.35882393131032586 5.0084570911712936
leaf_count=48276 4183 14160 10766 801 30050 482 8544 502 8799 6982 2206 1708 2182 26688 58 885 53 2253 4828 507 8640 265 3117 32 272 35 245 27 21 254
internal_value=-0.000106025 0.00839163 -0.00548537 0.00359393 0.00539507 -0.00713573 -0.00327399 -0.000129783 0.0138742 -0.0010086 0.00343231 0.0117451 -0.0126237 -0.00934477 0.0186331 0.0171233 -0.000174894 -0.00185983 0.00492395 0.0170495 -0.00479805 -5.92809e-05 0.0124858 0.0511197 0.0045097 0.00509311 0.0289198 0.0609075 0.154765 0.00913807
internal_weight=2809.18 1088.96 1720.21 580.754 513.416 1451.58 528.202 395.275 508.21 384.378 268.637 89.0934 132.926 923.376 60.1052 59.0598 17.802 373.748 112.956 46.3581 260.792 151.201 59.8103 9.60664 497.104 50.2036 10.6302 4.12917 0.667586 37.342
internal_count=187821 58265 129556 35306 31123 113880 38916 28190 22959 27688 15676 4910 10726 74964 3202 3144 938 26913 7842 3014 19071 10431 3449 297 30322 3152 775 293 48 2507
cat_boundaries=0 1 2 3
cat_threshold=132 1 1
is_linear=0
shrinkage=0.05


Tree=19
num_leaves=31
num_cat=4
split_feature=4 2 2 7 11 11 11 7 11 11 11 0 11 7 10 11 11 4 1 9 10 0 11 4 1 9 5 11 7 11
split_gain=46.216 10.797 9.22119 7.87168 4.54754 5.68964 3.77753 3.65121 3.5327 3.42496 13.7773 4.1664 3.42424 3.24803 3.23884 3.22832 3.16492 3.11026 3.09005 3.06688 3.0549 3.05479 3.01345 8.80038 3.00851 3.75354 3.28504 3.30758 3.36729 8.40756
threshold=3.5000000000000004 2.5000000000000004 1.5000000000000002 8.5000000000000018 479.50000000000006 1224.5000000000002 1207.0000000000002 56.500000000000007 61.500000000000007 562.00000000000011 698.50000000000011 10.500000000000002 489.50000000000006 135.50000000000003 0 2898.0000000000005 528.00000000000011 13.500000000000002 9.5000000000000018 1 2 1.5000000000000002 29.500000000000004 21.500000000000004 146.50000000000003 3 10.500000000000002 1283.0000000000002 89.500000000000014 497.00000000000006
decision_type=2 2 2 2 2 2 2 2 2 2 2 2 2 2 1 2 2 2 2 9 1 2 2 2 2 9 2 2 2 2
left_child=2 3 4 8 20 6 12 14 -2 16 11 -11 -6 18 -4 -7 -10 -5 -9 -16 -1 -17 23 -19 25 26 -3 28 -28 -30
right_child=1 24 7 17 5 15 -8 13 9 10 -12 -13 -14 -15 19 21 -18 22 -20 -21 -22 -23 -24 -25 -26 -27 27 -29 29 -31
leaf_value=-0.0068471894831140792 0.013980761882861518 0.021825352330389947 0.0060983480853186505 0.0072003556855007164 0.02660125525653096 -0.015371112792532546 0.028470915278000913 0.048259043049168775 -0.0036016166239520846 0.011792193674251267 -0.00076445672687745585 0.053801455323592144 -0.0017761020470494389 -0.005647455690590681 0.0056289841720174663 0.0581344253291479 -0.030952340897080322 0.20385279572206125 0.17408519467920536 -0.012311068246765056 -0.012909894771054331 -0.00093318893945088975 0.015878657163476913 -0.035688235850200797 0.051084431294387792 0.0075153168075147089 0.009658180213617475 0.10607576241657386 0.21092066769506751 -0.013607795409115928
leaf_weight=596.13474847003818 46.427010766696185 115.66183961648494 177.74517358234152 242.03607721813023 10.942478056531398 112.29928727028891 11.215594064444302 4.1244144430384031 200.66293330444023 9.300196341704579 186.37498452980071 16.15379677247256 373.06361092068255 2.7098431368358433 34.36725251050666 2.5238206181675222 11.165617506485431 0.78168472042307147 0.55340779712423671 50.024676788598299 318.94861912727356 16.493761551100761 133.04437707317993 0.75257181189954281 6.3155872765928498 120.98309720586985 3.9854860398918381 2.2705175820738077 0.80222255922853924 0.86811128631234169
leaf_count=48276 3023 4883 10402 12721 775 9218 502 192 13201 548 11675 926 26913 117 2001 225 729 40 29 2935 26688 1283 5123 26 172 4952 124 75 28 19
internal_value=-0.000106348 0.00790185 -0.00524308 0.0052024 -0.00683014 -0.00312804 -0.000132071 0.00324573 0.00088721 -0.000547662 0.00394796 0.0384524 -0.000967473 0.0379114 0.00226876 -0.0121449 -0.00504329 0.0105885 0.0631449 -0.00579706 -0.00896032 0.00690567 0.0166821 0.086355 0.017012 0.0161322 0.0221658 0.0550988 0.0346342 0.094228
internal_weight=2808.73 1097.59 1711.15 846.699 1441.62 526.539 395.222 269.525 470.085 423.658 211.829 25.454 384.006 7.38767 262.137 131.317 211.829 376.615 4.67782 84.3919 915.083 19.0176 134.579 1.53426 250.887 244.571 123.588 7.92634 5.65582 1.67033
internal_count=187821 58265 129556 48012 113880 38916 28190 15676 30102 27079 13149 1474 27688 338 15338 10726 13930 17910 221 4936 74964 1508 5189 66 10253 10081 5129 246 171 47
cat_boundaries=0 1 2 3 4
cat_threshold=1 112 1 81
is_linear=0
shrinkage=0.05


Tree=20
num_leaves=31
num_cat=3
split_feature=5 4 2 1 7 4 11 11 1 10 7 9 11 1 11 11 11 11 1 11 2 5 11 11 7 10 2 6 11 11
split_gain=41.7782 13.4444 7.40546 5.23798 5.04899 5.03501 3.41183 5.04464 3.63058 3.35093 3.33609 3.18373 3.05355 3.04729 2.97465 5.47657 3.99197 3.84114 3.70928 3.21478 2.89665 3.5062 5.07708 3.11579 4.14161 2.8708 2.77602 2.67585 3.96187 8.00676
threshold=2.5000000000000004 1.5000000000000002 1.5000000000000002 1.0000000180025095e-35 2.5000000000000004 18.500000000000004 1224.5000000000002 1207.0000000000002 38.500000000000007 0 165.50000000000003 1 2898.0000000000005 11.500000000000002 598.50000000000011 1283.0000000000002 620.00000000000011 605.50000000000011 20.500000000000004 875.50000000000011 2.5000000000000004 3.5000000000000004 649.00000000000011 521.50000000000011 1.0000000180025095e-35 2 2.5000000000000004 2.5000000000000004 584.00000000000011 752.50000000000011
decision_type=2 2 2 2 2 2 2 2 2 1 2 9 2 2 2 2 2 2 2 2 2 2 2 2 2 1 2 2 2 2
left_child=1 3 4 12 -3 11 7 26 -8 13 -6 20 -1 -9 25 16 17 -16 19 -18 -2 22 23 -22 -25 -5 -4 -13 -29 -30
right_child=5 2 6 14 10 -7 8 9 -10 -11 -12 27 -14 -15 15 -17 18 -19 -20 -21 21 -23 -24 24 -26 -27 -28 28 29 -31
leaf_value=-0.0018522575365706542 0.0098880412760958269 -0.0058126601760992913 0.0047097651093856545 -0.0089024838945460771 0.0015850163803068501 0.017570160562101474 -0.012090481232249565 0.046033716784032244 0.12406410016228425 0.01466734835013783 0.031813981815928143 0.0034399755098702776 0.048853674770284919 0.22725807321139749 0.00069910252766608103 -0.019817409398738908 -0.0090717195063265126 0.070226185412268882 0.15904396299056195 0.0056250000250575392 0.056214086844194745 0.014977228157389142 0.0060161395636888128 0.041268683344425044 0.26372582298954705 -0.016198265013180006 0.01568203116481438 0.0082290090574956443 0.11571380725295072 -0.0010469306861528112
leaf_weight=229.44838631083257 148.86456086905673 451.62647813814692 206.22693563438952 370.30235304543748 294.70279384008609 179.15132148144767 28.367309733759615 0.38525316445156821 0.49821095587685604 0.75585369812324643 9.4187781433574838 316.13369627343491 3.0080437699798486 0.58298068260774016 4.1010287604294708 45.552324106916785 81.393305298872292 3.8527780156582594 0.35683790035545726 68.544742821948603 9.2683222163468564 36.217219402547926 5.8442101422697297 0.40259181708097536 0.43561398517340422 212.04313935246319 80.01137881539762 14.828725821804257 2.9074378032237282 2.966192003339529
leaf_count=18207 8219 34831 11968 29763 19768 6338 1613 23 28 40 442 16410 253 37 272 3919 6025 121 27 4801 453 1502 263 18 24 17630 3785 754 142 145
internal_value=-0.000104811 -0.0036759 0.000231006 -0.00778983 -0.00245901 0.0103102 0.00664766 0.00829042 -0.00974049 0.0935614 0.00252122 0.00789212 -0.00119611 0.15515 -0.00973953 -0.00454049 -0.000142985 0.0343776 -0.00196986 -0.00235306 0.0128041 0.0235796 0.0431119 0.064563 0.156879 -0.011559 0.00777681 0.00444834 0.0219951 0.0567495
internal_weight=2808.2 2091.18 1072.58 1018.6 755.748 717.02 316.828 287.962 28.8655 1.72409 304.122 537.869 232.456 0.968234 786.147 203.801 158.249 7.95381 150.295 149.938 201.033 52.168 15.9507 10.1065 0.838206 582.345 286.238 336.836 20.7024 5.87363
internal_count=187821 153553 72535 81018 55041 34268 17494 15853 1641 100 20210 27930 18460 60 62558 15165 11246 393 10853 10826 10479 2260 758 495 42 47393 15753 17451 1041 287
cat_boundaries=0 1 2 3
cat_threshold=1 97 1
is_linear=0
shrinkage=0.05


Tree=21
num_leaves=31
num_cat=3
split_feature=4 2 2 7 9 5 7 11 11 11 2 10 11 11 1 11 1 1 7 3 11 7 11 11 11 7 2 0 10 1
split_gain=37.6498 8.88571 7.79451 6.75679 4.07612 3.97453 3.99171 3.42496 3.2483 3.24118 3.91637 3.13935 3.13588 3.50822 3.61052 3.5965 3.62348 3.10375 2.94542 2.93017 2.87671 2.85422 2.71414 2.53198 3.0584 3.87467 4.91188 4.18852 2.37214 2.529
threshold=3.5000000000000004 1.5000000000000002 1.5000000000000002 32.500000000000007 0 5.5000000000000009 1.5000000000000002 323.50000000000006 573.00000000000011 351.00000000000006 2.5000000000000004 1 1000.0000000000001 866.50000000000011 2.5000000000000004 897.50000000000011 16.500000000000004 207.50000000000003 15.500000000000002 1.0000000180025095e-35 681.50000000000011 3.5000000000000004 459.50000000000006 3316.5000000000005 2898.0000000000005 29.500000000000004 3.5000000000000004 33.500000000000007 2 4.5000000000000009
decision_type=2 2 2 2 9 2 2 2 2 2 2 1 2 2 2 2 2 2 2 2 2 2 2 2 2 2 2 2 1 2
left_child=2 3 4 -2 11 12 -7 17 -4 10 -9 21 13 14 -3 19 -17 -8 20 28 -10 -1 -23 24 -11 26 27 -26 -15 -30
right_child=1 5 8 -5 -6 6 7 9 18 23 -12 -13 -14 15 -16 16 -18 -19 -20 -21 -22 22 -24 -25 25 -27 -28 -29 29 -31
leaf_value=-0.0080042531569780046 -0.0005504096211633629 0.037794241002740578 -0.00090051821753839171 0.01099573051398494 -0.0027210141043344654 0.0043526680896992546 0.0075090349195760979 0.038229376800687692 0.029101849909829471 0.02649835039532171 0.21371396141036009 -0.012672025428893228 -0.00025197689920942367 0.016347356408884677 0.0083461729388317387 -0.0053744935078688166 0.049682282447452868 0.11721261976773972 0.043325902177845599 0.0030364551259871916 0.0041204069257231961 -0.0059827629823655491 0.010085684743776795 -0.0036207488706942598 0.20500094564332208 0.038647339946322169 0.2596451892931112 0.020492340871963586 -0.028655133581115017 0.083902764908721145
leaf_weight=472.76968270237558 420.78961907187477 10.868095351383088 180.25938094500452 181.30305090546608 549.28359732218087 37.332227316685021 32.970965867396444 0.82871085498481878 13.782410384621469 68.672682768665254 0.51584988832473755 295.09893180197105 73.00986153492704 2.20424087299034 246.23799109645188 9.7357437368482334 4.3120480896905056 0.65760064125060935 6.4294052068144074 2.7351328539662054 70.324721564538777 60.07697862945497 46.714724919060245 6.1298131272196761 0.43814523471519251 5.4234438063576818 0.48026997596025456 1.0322375698015092 0.53899718541652131 6.7321760361082852
leaf_count=38742 27290 470 10766 8130 42844 1562 1096 32 677 2318 23 24542 3531 104 12075 468 203 20 274 120 3959 4676 3076 209 24 157 22 40 22 349
internal_value=-0.00010318 0.00704163 -0.00479523 0.00292638 -0.00627396 0.0118918 0.0185903 0.0231275 0.00298045 0.0285523 0.105555 -0.0083783 0.00898816 0.0113689 0.00959097 0.0287775 0.0115255 0.00965427 0.0107075 0.0486253 0.00821405 -0.00633659 0.00104618 0.0272924 0.0297841 0.0603836 0.120817 0.0754723 0.0617848 0.0755591
internal_weight=2807.69 1112.95 1694.74 602.093 1423.94 510.856 154.482 117.15 270.796 83.5212 1.34456 874.66 356.374 283.364 257.106 26.2583 14.0478 33.6286 90.5365 12.2105 84.1071 579.561 106.792 82.1766 76.0468 7.3741 1.95065 1.47038 9.47541 7.27117
internal_count=187821 58265 129556 35420 113880 22845 5503 3941 15676 2825 55 71036 17342 13811 12545 1266 671 1116 4910 595 4636 46494 7752 2770 2561 243 86 64 475 371
cat_boundaries=0 1 2 3
cat_threshold=13 1 2
is_linear=0
shrinkage=0.05


Tree=22
num_leaves=31
num_cat=2
split_feature=4 2 9 7 7 9 4 2 7 11 11 11 11 11 11 7 11 6 7 2 3 11 11 11 2 7 6 7 4 7
split_gain=34.1918 10.5984 6.42728 5.02959 3.7234 3.35697 3.20698 3.05213 3.98425 2.8714 4.8937 2.92509 5.52618 3.1989 7.22626 3.92576 3.90442 4.90819 3.14 2.77796 2.76765 2.63788 4.20974 2.57678 2.50634 3.12574 2.49098 3.90296 3.47432 5.40229
threshold=5.5000000000000009 1.5000000000000002 0 9.5000000000000018 126.50000000000001 1 14.500000000000002 5.5000000000000009 1.0000000180025095e-35 537.00000000000011 689.50000000000011 822.50000000000011 827.50000000000011 1224.5000000000002 1207.0000000000002 3.5000000000000004 2898.0000000000005 1.5000000000000002 13.500000000000002 3.5000000000000004 1.0000000180025095e-35 598.50000000000011 544.50000000000011 1180.5000000000002 6.5000000000000009 21.500000000000004 1.5000000000000002 166.50000000000003 14.500000000000002 173.50000000000003
decision_type=2 2 9 2 2 9 2 2 2 2 2 2 2 2 2 2 2 2 2 2 2 2 2 2 2 2 2 2 2 2
left_child=1 2 9 7 -4 6 24 -2 -9 -1 21 -12 -13 14 23 -16 17 -15 20 -3 -19 22 -11 -14 -5 -26 -7 -28 -29 -30
right_child=3 19 4 5 -6 26 -8 8 -10 10 11 12 13 16 15 -17 -18 18 -20 -21 -22 -23 -24 -25 25 -27 27 28 29 -31
leaf_value=-0.0098655036851375208 0.0038866179323520963 0.0024560233116235784 -0.0019063795240022185 0.010975949124294448 0.024846737169913834 0.0033014544447708769 0.023536432428493775 0.0015156686659910997 0.046485262573985192 0.03709071335599453 -0.016539492241131916 0.048141808041881354 -0.00024801568068247342 -0.019753328090974236 0.027651035932761244 0.11388776125199514 0.010304302468183082 -0.0090410449546501053 0.090098254482484014 0.016694412907817553 0.080798948778797258 0.016658182600469251 -0.012397685559453848 -0.02960028676329822 0.18162283221591413 0.025316087756375161 0.014954284885763057 0.00096097719384183572 0.25207329589030159 0.042080718528547216
leaf_weight=649.64267648337409 393.64028027234599 350.28004211792722 622.01955546601675 122.42509144823998 13.283335642423479 128.36555178510025 107.97706398693845 9.8281522984616476 9.8738919612951559 5.2507456648163524 63.688099037157372 4.9064608239568761 85.822043188847601 78.283568648388609 4.8741362038999787 1.8097066949121652 16.726514889625832 4.7859106992837033 1.4143158257938919 37.970022987574339 1.0443189935758708 37.752232864964753 23.663482669740915 8.1907066130079311 0.47925948165357002 0.96156070102006197 20.290368185844276 0.70801578275859256 0.57374725397676207 0.65697781182825565
leaf_count=54588 21637 20033 47932 5672 761 5136 3675 406 395 396 5187 311 5936 6431 210 86 1293 413 87 1687 92 2118 1777 609 18 32 829 28 25 21
internal_value=-0.000101647 -0.00357255 -0.00534762 0.00867137 -0.00132613 0.0128039 0.0165252 0.00484784 0.0240527 -0.00784109 -0.00418441 -0.00716448 -0.00429196 -0.00555957 0.000766122 0.0510004 -0.0117889 -0.0161096 0.0232641 0.00384851 0.00705122 0.007954 -0.00341073 -0.00280528 0.0117475 0.0773083 0.00560525 0.0214305 0.0892089 0.139976
internal_weight=2807.19 2011.41 1623.16 795.78 635.303 382.438 231.843 413.342 19.702 987.855 338.212 271.546 207.858 202.951 100.697 6.68384 102.255 85.5281 7.24455 388.25 5.83023 66.6665 28.9142 94.0127 123.866 1.44082 150.595 22.2291 1.93874 1.23073
internal_count=187821 149947 128227 37874 48693 15436 9397 22438 801 79534 24946 20655 15468 15157 6841 296 8316 7023 592 21720 505 4291 2173 6545 5722 50 6039 903 74 46
cat_boundaries=0 1 2
cat_threshold=13 113
is_linear=0
shrinkage=0.05


Tree=23
num_leaves=31
num_cat=4
split_feature=4 2 7 1 7 11 9 2 10 7 4 1 11 11 4 7 11 7 9 9 5 1 7 4 1 1 11 11 11 2
split_gain=31.4396 9.84854 6.55801 5.87468 4.33899 4.23524 4.09765 4.10695 3.39791 3.22775 3.17435 3.11602 3.02501 4.62215 3.51143 4.13023 2.57174 2.50033 2.32122 2.25948 3.83372 4.04016 5.51403 2.22327 2.36431 2.80757 2.14055 2.77131 2.43421 2.12421
threshold=2.5000000000000004 1.5000000000000002 31.500000000000004 1.0000000180025095e-35 3.5000000000000004 17.500000000000004 0 2.5000000000000004 1 84.500000000000014 1.5000000000000002 2.5000000000000004 3316.5000000000005 2898.0000000000005 7.5000000000000009 29.500000000000004 2898.0000000000005 2.5000000000000004 2 3 3.5000000000000004 4.5000000000000009 1.5000000000000002 80.500000000000014 256.50000000000006 183.50000000000003 1780.5000000000002 866.50000000000011 991.00000000000011 3.5000000000000004
decision_type=2 2 2 2 2 2 9 2 1 2 2 2 2 2 2 2 2 2 9 9 2 2 2 2 2 2 2 2 2 2
left_child=3 2 5 10 11 -2 8 9 -5 -8 16 17 13 -6 -15 -16 -1 29 -13 20 -7 22 -22 -4 25 -25 27 -12 -29 -3
right_child=1 4 23 6 12 19 7 -9 -10 -11 26 18 -14 14 15 -17 -18 -19 -20 -21 21 -23 -24 24 -26 -27 -28 28 -30 -31
leaf_value=-0.0012117649716290937 0.082993654646077095 0.007667236188437585 0.0084570773984614742 -0.006824500249190138 0.014187925892929257 -0.0089740361345267868 -0.004280710921987803 0.028765722837084187 -0.014114270457148687 0.027621442448382463 0.011581170510640941 0.0086564717676138516 -0.014229752586520214 -0.024565896343468681 0.12449750706760786 0.041873459076539561 0.044268237784243658 0.12730718157617815 -0.00030146636562729278 0.0010750460663102172 -0.010729016094299132 0.0055252914908254453 0.29238821538207088 0.042159794349174884 -0.010863165054883019 0.16181046406797539 -0.042584721484030794 0.10164468029831197 0.030281337401963496 0.037107734442820554
leaf_weight=226.53529828577302 1.4903909834101785 14.165081724990165 206.80298133427277 459.86237810738385 268.86674014711753 171.52106822351925 433.52635546843521 9.9625675175338966 245.03002266422845 8.0763588147237879 23.487102298531688 145.72620973410085 8.8788547860458475 1.3856190014630545 1.9789258558303098 6.4174997606314719 3.1515716360881916 0.55918793985620041 142.58755993191153 358.28132288367487 0.30986416665837069 45.906884645111859 0.29086980735883117 1.6908264914527533 1.1340380217880008 0.69049133267253626 1.4631172441877414 1.6337833213619877 4.4487689377274364 10.797296223230658
leaf_count=18207 103 751 9553 36425 10776 12505 33434 507 20226 491 1474 7313 338 64 85 188 253 32 7279 24219 21 2551 21 44 23 20 93 98 286 441
internal_value=-9.98127e-05 0.00524459 0.00156752 -0.00533977 0.0100636 -0.00118424 -0.00686829 -0.00291647 -0.00922761 -0.00369726 0.0014402 0.00599836 0.0145008 0.0154162 0.0491774 0.0613468 -0.000587726 0.0227439 0.00451605 -0.00140193 -0.00527945 0.0072111 0.136038 0.00912732 0.0485568 0.0768539 0.0164498 0.0193708 0.0494496 0.0204015
internal_weight=2806.66 1389.48 788.119 1417.18 601.363 577.8 1156.46 451.565 704.892 441.603 260.72 313.835 287.528 278.649 9.78204 8.39643 229.687 25.5216 288.314 576.31 218.029 46.5076 0.600734 210.318 3.51536 2.38132 31.0328 29.5697 6.08255 24.9624
internal_count=187821 76327 49060 111494 27267 39420 91083 34432 56651 33925 20411 15816 11451 11113 337 273 18460 1224 14592 39317 15098 2593 42 9640 87 64 1951 1858 384 1192
cat_boundaries=0 1 2 3 4
cat_threshold=13 1 81 12
is_linear=0
shrinkage=0.05


Tree=24
num_leaves=31
num_cat=2
split_feature=5 4 9 2 11 11 9 1 7 5 11 11 0 2 11 1 0 7 11 7 11 3 0 4 0 11 1 1 7 3
split_gain=28.4513 10.0935 5.92889 4.92852 4.66775 6.00304 4.24099 3.50389 3.74116 3.37644 3.03946 6.3906 3.85008 2.94076 2.94008 4.05431 2.9057 3.16563 2.97788 2.90248 2.72867 2.65874 2.6072 3.81569 3.06848 2.58609 2.49621 3.08371 2.3968 5.94446
threshold=2.5000000000000004 1.5000000000000002 0 2.5000000000000004 537.00000000000011 1224.5000000000002 1 1.0000000180025095e-35 171.50000000000003 5.5000000000000009 866.50000000000011 730.00000000000011 1.5000000000000002 6.5000000000000009 986.50000000000011 42.500000000000007 14.500000000000002 13.500000000000002 897.50000000000011 2.5000000000000004 974.00000000000011 4.5000000000000009 12.500000000000002 8.5000000000000018 34.500000000000007 17.500000000000004 182.50000000000003 237.50000000000003 115.50000000000001 17.500000000000004
decision_type=2 2 9 2 2 2 9 2 2 2 2 2 2 2 2 2 2 2 2 2 2 2 2 2 2 2 2 2 2 2
left_child=1 4 -3 7 13 10 9 -4 19 -2 11 12 -6 -1 20 -16 17 -12 -19 -9 -5 25 23 -11 -24 -8 -23 -28 29 -26
right_child=6 2 3 14 5 -7 21 8 -10 22 16 -13 -14 -15 15 -17 -18 18 -20 -21 -22 26 24 -25 28 -27 27 -29 -30 -31
leaf_value=-0.0090505285349566835 0.0097248194271132172 -0.010380755058439222 0.017377986303855737 0.016102237373293925 0.027998230713808355 -0.013586577792672961 0.10424701672861128 -0.0027342226421482678 0.041545096420073424 0.03494911003142695 0.0080524524493597299 -0.014174994809585381 0.0016230706857933896 0.14180132093616732 -0.016058789127696666 0.11891894101257144 0.13400148715576618 0.19146362661043009 0.04080102910758672 0.0032804847003225315 0.12695282959261303 0.013559636790712249 0.0084961642379338276 0.17454741011251598 0.032613498825503129 0.0037106527825621401 0.11536589389422153 0.014057711211825037 0.013960065841583708 0.19007150506548204
leaf_weight=695.46133855823427 185.59286833927035 107.02763391053304 29.516824098071083 71.307350527495146 17.660026714671403 76.545870586764067 0.64062686450779338 518.78754473058507 5.3473490555770686 1.8779432685114437 78.390842817723751 59.893249065615237 63.903175685787573 0.32322142412885924 11.607491620350626 0.58433725871145803 0.47254440980031986 0.41084257606416885 1.625965552870184 327.00442678714171 0.55951121309772034 40.86986431106925 35.505515299737453 0.66207466972991813 34.024360061157495 415.88966795941815 1.3904324332252138 1.6337196733802555 20.941794504411519 0.6101576304063191
leaf_count=58360 9531 7671 1850 3240 1200 6718 31 38173 236 96 5386 4817 4374 18 547 25 35 21 89 20765 28 1468 1439 34 1207 19798 38 36 571 19
internal_value=-9.6084e-05 -0.0031082 0.00025831 0.00153037 -0.0067355 -0.00150969 0.00831926 0.000442115 -0.000145207 0.0131587 0.00264775 -0.00177311 0.00733381 -0.00898045 0.0131138 -0.0095895 0.0103778 0.00965142 0.071191 -0.000408786 0.0169653 0.00499031 0.0213714 0.0713365 0.019978 0.00386528 0.0168031 0.0606368 0.0273134 0.0353874
internal_weight=2806.07 2066.43 1071.74 964.715 994.687 298.903 739.639 880.656 851.139 279.215 222.357 141.456 81.5632 695.785 84.0587 12.1918 80.9002 80.4277 2.03681 845.792 71.8669 460.424 93.6218 2.54002 91.0818 416.53 43.894 3.02415 55.5763 34.6345
internal_count=187821 153553 72535 64864 81018 22640 34268 61024 59174 12897 15922 10391 5574 58378 3840 572 5531 5496 110 58938 3268 21371 3366 130 3236 19829 1542 74 1797 1226
cat_boundaries=0 1 2
cat_threshold=4 97
is_linear=0
shrinkage=0.05


Tree=25
num_leaves=31
num_cat=4
split_feature=4 2 7 1 9 7 2 11 10 1 7 9 4 11 4 11 4 5 2 2 11 11 7 0 9 5 1 11 11 11
split_gain=25.7402 8.25759 5.50761 5.21848 3.7569 3.58068 3.50299 3.37936 3.16071 2.84706 2.8335 2.51859 2.44974 2.29881 2.12891 3.13908 2.73055 2.03467 2.63282 2.00981 1.99341 2.10609 1.97635 4.6761 1.95107 3.34417 3.05288 1.93148 1.99572 2.18865
threshold=2.5000000000000004 1.5000000000000002 31.500000000000004 1.0000000180025095e-35 0 11.500000000000002 2.5000000000000004 17.500000000000004 1 1.5000000000000002 1.5000000000000002 2 1.5000000000000002 2898.0000000000005 4.5000000000000009 42.500000000000007 24.500000000000004 3.5000000000000004 2.5000000000000004 2.5000000000000004 866.50000000000011 1180.5000000000002 3.5000000000000004 14.500000000000002 3 3.5000000000000004 4.5000000000000009 2204.0000000000005 866.50000000000011 1132.5000000000002
decision_type=2 2 2 2 9 2 2 2 1 2 2 9 2 2 2 2 2 2 2 2 2 2 2 2 9 2 2 2 2 2
left_child=3 2 7 12 8 9 10 -2 -5 -3 -6 19 13 -1 -13 16 17 -16 -19 -11 -12 -22 23 -8 25 -9 -27 28 -14 -30
right_child=1 5 -4 4 6 -7 22 24 -10 11 20 14 27 -15 15 -17 -18 18 -20 -21 21 -23 -24 -25 -26 26 -28 -29 29 -31
leaf_value=-0.00091128726485755233 0.070402551072586958 0.023543478145599251 0.0081877457284080992 -0.0062871700876231014 -0.0055245268710640344 0.014583311626495217 0.027203978993081263 -0.0085324303437977009 -0.013377194695279785 0.0048135254568998885 0.0008275254602772722 -0.0075218713074040712 0.010024871606793474 0.041467466359214965 0.053427483973093395 0.0025554436526679636 0.14074601599636671 0.062624656320098906 -0.038427900141198422 0.014880927842365631 0.040795390069256282 0.0052210574105864844 -0.022652185436718427 0.19020661958087626 0.00088228286450901068 0.11065068912537004 0.0049751631711243078 -0.051103706154013828 0.076291360349765733 0.018066873544777189
leaf_weight=225.18664694903418 1.6426977775990952 22.894747229292989 213.46733939601108 454.42938464554027 334.95391620905139 198.33290396537632 8.0931977899745071 169.77857924532145 240.32113860966638 104.07292293384671 85.625635146629065 52.790943449363112 24.071301985997714 3.2461010250262907 3.4538809144869438 131.13995025027543 0.58259749226272095 0.98321384936571155 1.8713835412636397 94.670384723227471 6.9219225370325175 10.428851710865272 1.721278151962905 0.46527641871944148 359.60401932429522 0.69366952730342646 46.343116036616266 1.0847415626049031 2.6416393681429318 4.1489819001872092
leaf_count=18207 103 1051 9640 36425 26331 7060 404 12505 20226 5646 6432 2978 1474 253 182 6191 25 47 77 4010 431 731 76 27 24219 42 2551 70 148 259
internal_value=-9.61023e-05 0.00469478 0.00132434 -0.00488351 -0.0063388 0.00906254 -0.00256017 -0.00121018 -0.00861567 0.00640786 -0.00329452 0.0054008 0.00150461 -0.000309072 0.000967148 0.0042839 0.0371771 0.0276124 -0.0036222 0.00914875 0.00395906 0.0194131 0.0262336 0.0360655 -0.00141426 -0.00503187 0.0065336 0.0144732 0.0167781 0.040717
internal_weight=2805.66 1402.32 791.529 1403.34 1142.96 610.793 448.21 578.062 694.751 412.46 437.93 389.565 260.379 228.433 190.822 138.031 6.89108 6.30848 2.8546 198.743 102.976 17.3508 10.2798 8.55847 576.419 216.815 47.0368 31.9467 30.8619 6.79062
internal_count=187821 76327 49060 111494 91083 27267 34432 39420 56651 20207 33925 19156 20411 18460 9500 6522 331 306 124 9656 7594 1162 507 431 39317 15098 2593 1951 1881 407
cat_boundaries=0 1 2 3 4
cat_threshold=13 1 81 12
is_linear=0
shrinkage=0.05


Tree=26
num_leaves=31
num_cat=3
split_feature=4 4 1 11 11 9 11 11 11 11 11 11 10 2 1 2 11 11 11 11 2 11 11 7 11 11 11 9 11 11
split_gain=23.2397 7.53139 6.01459 4.82956 5.00493 4.61247 4.01435 5.18488 4.35237 3.7989 3.95892 4.19021 3.44969 3.41481 5.47974 3.38582 3.34704 3.03748 2.9665 3.09857 3.60377 2.88827 2.87581 2.48121 2.66711 2.33595 2.1864 2.14089 2.03659 1.95361
threshold=2.5000000000000004 8.5000000000000018 2.5000000000000004 537.00000000000011 544.50000000000011 0 1224.5000000000002 866.50000000000011 882.00000000000011 674.00000000000011 605.50000000000011 620.00000000000011 1 1.5000000000000002 3.5000000000000004 5.5000000000000009 2898.0000000000005 664.00000000000011 3316.5000000000005 2898.0000000000005 1.5000000000000002 3316.5000000000005 1780.5000000000002 8.5000000000000018 25.500000000000004 122.50000000000001 157.50000000000003 2 116.50000000000001 562.00000000000011
decision_type=2 2 2 2 2 9 2 2 2 2 2 2 1 2 2 2 2 2 2 2 2 2 2 2 2 2 2 9 2 2
left_child=3 2 -2 12 -5 22 7 9 13 10 29 -12 15 -9 -15 -1 -8 -13 19 -3 -21 -18 23 24 -4 -25 -27 -11 -17 -6
right_child=1 18 5 4 6 -7 16 8 -10 27 11 17 -14 14 -16 28 21 -19 -20 20 -22 -23 -24 25 -26 26 -28 -29 -30 -31
leaf_value=-0.0046306870153424544 0.019179439222738872 0.0090063927576528365 0.032905115830921337 0.049478815381871551 -0.033945040099998436 0.0034292403161703664 -0.012325869950216339 0.029276130328589556 0.0073061532905283671 0.0039242502160925855 0.047098159159576242 0.001565255695117708 -0.010835068984367556 0.17507638896372907 -0.026315356407932429 0.18268618973604484 0.030182897203605848 0.04760225154884884 -0.0071891298913756884 0.010069807926705971 0.048625060738214758 -0.01168621525468666 -0.022038798899904323 -0.013040718417791607 -0.0068324887096177251 0.046410904532106514 0.006251122422061892 -0.011170752850056295 0.026799509527268603 -0.0010087652839602412
leaf_weight=619.84738176641986 45.692651014775038 495.29810962779447 4.3138493096921584 4.9759803665801874 5.1516920775175086 508.8907598790247 100.54879259481095 8.3917362377978844 110.10071941418573 29.101241513853893 8.9771461966447514 25.309195275884125 327.7116114362143 1.0475558210164297 0.49849941441789258 0.37323047686368127 9.3954444627743232 4.1738143730908623 26.811898721847683 13.636359794531019 10.909720443189142 7.3344209194183341 21.410108767682686 15.67514551617205 199.57723591709509 3.5831588217988601 62.583152654115111 97.642154369270429 0.47766649257391691 35.713246882893145
leaf_count=50528 2283 20911 304 374 392 31232 8560 567 7313 2219 267 1492 28043 59 26 20 733 263 1168 534 346 602 1314 919 13748 228 3340 7480 22 2534
internal_value=-9.36025e-05 0.0044386 0.00152641 -0.00466348 -0.000387405 0.000537949 -0.000947038 0.00190606 0.0101665 -0.00290581 0.00567544 0.0171894 -0.00668499 0.0418565 0.110141 -0.00449386 -0.0088804 0.00808256 0.00902925 0.00986575 0.027206 0.0118274 -0.00422654 -0.00303978 -0.00599174 0.00431441 0.00842593 -0.00827657 0.0951764 -0.00516092
internal_weight=2805.15 1408.38 861.726 1396.77 448.362 816.033 443.386 326.107 120.039 206.068 79.3251 38.4602 948.41 9.93779 1.54606 620.698 117.279 29.483 546.656 519.844 24.5461 16.7299 307.143 285.733 203.891 81.8415 66.1663 126.743 0.850897 40.8649
internal_count=187821 76327 53368 111494 32881 51085 32507 22612 7965 14647 4948 2022 78613 652 85 50570 9895 1755 22959 21791 880 1335 19853 18539 14052 4487 3568 9699 42 2926
cat_boundaries=0 1 2 3
cat_threshold=140 1 164
is_linear=0
shrinkage=0.05


Tree=27
num_leaves=31
num_cat=4
split_feature=5 4 9 1 2 9 1 7 5 11 1 9 3 11 11 11 11 1 11 10 0 11 11 11 0 7 1 3 4 3
split_gain=21.3329 7.98371 5.13249 4.15339 3.68512 3.56277 2.77201 3.12546 2.64978 2.5451 3.27614 2.40175 2.37714 2.28984 4.51652 3.08686 2.76186 2.6867 2.4555 2.27756 2.15901 2.23917 4.01126 2.55021 2.1167 2.74733 2.55863 2.53573 2.1016 3.38801
threshold=2.5000000000000004 1.5000000000000002 0 1.0000000180025095e-35 2.5000000000000004 1 1.0000000180025095e-35 171.50000000000003 5.5000000000000009 986.50000000000011 42.500000000000007 2 34.500000000000007 598.50000000000011 1283.0000000000002 620.00000000000011 605.50000000000011 20.500000000000004 875.50000000000011 3 2.5000000000000004 827.50000000000011 960.50000000000011 1247.0000000000002 12.500000000000002 5.5000000000000009 32.500000000000007 12.500000000000002 21.500000000000004 3.5000000000000004
decision_type=2 2 9 2 2 9 2 2 2 2 2 9 2 2 2 2 2 2 2 1 2 2 2 2 2 2 2 2 2 2
left_child=1 3 -3 -1 6 8 -4 11 -2 -6 -11 20 -7 19 15 16 -15 18 -17 -5 21 -8 -23 -24 25 -10 27 -26 29 -28
right_child=5 2 4 13 9 12 7 -9 24 10 -12 -13 -14 14 -16 17 -18 -19 -20 -21 -22 22 23 -25 26 -27 28 -29 -30 -31
leaf_value=-8.1881703556500437e-05 0.0084064064392206633 -0.0097399857276068615 0.015295229544648223 -0.0070479298691685484 0.014772523497951703 0.0040564792442406928 0.011099196381420708 0.037149562536575517 0.015713106136573448 -0.016008369988912426 0.098266362021005763 -0.0027932022437439624 0.10307761781566126 0.0010264154379244661 -0.017606377219951754 -0.0073222239613272471 0.058676095685662337 0.12438270692293457 0.0056437453423108823 -0.013738090787994482 0.0022030956523243564 0.24057475458613584 -0.051288066388507192 0.11380420191092169 0.0058640167185565265 0.11601981589716606 0.029713194888039376 0.10779576572920271 0.01943140915473128 0.09900986641966314
leaf_weight=227.41468744794838 189.5445917933248 105.24623407470062 30.419094474287704 354.93132138368674 74.165511017665267 466.92463638680056 2.2145292302593584 5.6043594502843908 1.4852339061908417 11.590876912698146 0.66307280305773098 447.21969127235934 0.60687939450144668 4.0754806012846512 42.587841970613226 78.190364221576601 4.237812670879066 0.42667427565902372 68.507977559231222 198.28296381933615 393.42760182544589 0.34264254849404074 0.41851645614951849 0.53033102909103036 38.349888860713691 1.2632495630532501 8.5185073376633209 0.61999695096164842 44.681446731090546 2.2244319356977931
leaf_count=18460 9531 7671 1850 29763 3268 21358 166 236 73 547 25 32231 13 272 3919 6025 121 27 4801 17630 26454 26 24 37 1499 57 310 20 1324 83
internal_value=-9.23534e-05 -0.00273701 0.000244196 -0.00600209 0.00141741 0.00709769 0.0004647 -6.61945e-05 0.0114484 0.0112847 -0.00982486 -0.000313271 0.00409738 -0.00779424 -0.00318034 0.000772181 0.0304141 -0.000902735 -0.00126713 -0.00944582 0.00248851 0.041614 0.0939381 0.0409855 0.0185623 0.0618158 0.0173029 0.00748571 0.0242055 0.0440618
internal_weight=2804.72 2050.5 1071.84 978.655 966.596 754.219 880.177 849.758 286.687 86.4195 12.2539 844.153 467.532 751.24 198.026 155.438 8.31329 147.125 146.698 553.214 396.934 3.50602 1.29149 0.948847 97.1428 2.74848 94.3943 38.9699 55.4244 10.7429
internal_count=187821 153553 72535 81018 64864 34268 61024 59174 12897 3840 572 58938 21371 62558 15165 11246 393 10853 10826 47393 26707 253 87 61 3366 130 3236 1519 1717 393
cat_boundaries=0 1 2 3 4
cat_threshold=4 97 240 1
is_linear=0
shrinkage=0.05


Tree=28
num_leaves=31
num_cat=3
split_feature=2 7 7 9 3 9 11 5 11 4 0 11 11 9 1 3 7 11 2 1 7 11 5 11 4 4 11 6 11 7
split_gain=19.2053 10.5769 5.05246 4.2046 3.96926 3.43388 3.42294 2.67416 2.69071 2.66987 4.58698 2.3952 3.69342 2.75954 6.47128 2.37012 2.70796 2.3125 2.35912 2.28402 2.12926 2.50504 2.09616 2.79173 2.36937 5.1255 2.3459 2.0392 2.02787 3.87909
threshold=1.5000000000000002 8.5000000000000018 1.5000000000000002 0 6.5000000000000009 1 24.500000000000004 5.5000000000000009 323.50000000000006 8.5000000000000018 17.500000000000004 207.50000000000003 217.50000000000003 2 145.50000000000003 1.0000000180025095e-35 105.50000000000001 351.00000000000006 2.5000000000000004 207.50000000000003 139.50000000000003 254.50000000000003 2.5000000000000004 32.500000000000007 22.500000000000004 14.500000000000002 157.50000000000003 1.5000000000000002 125.50000000000001 136.50000000000003
decision_type=2 2 2 9 2 9 2 2 2 2 2 2 2 9 2 2 2 2 2 2 2 2 2 2 2 2 2 2 2 2
left_child=1 5 3 4 -2 6 -1 -4 19 -7 -11 22 15 14 20 16 27 18 -10 -9 -14 -22 26 24 25 -24 28 -13 -3 -30
right_child=2 11 7 -5 -6 9 -8 8 17 10 -12 12 13 -15 -16 -17 -18 -19 -20 -21 21 -23 23 -25 -26 -27 -28 -29 29 -31
